{
    "in_shape": [
        null,
        null,
        1
    ],
    "layers": [
        {
            "type": "gru",
            "activation": "tanh",
            "shape": [
                null,
                null,
                8
            ],
            "weights": [
                [
                    [
                        0.38294604420661926,
                        0.41864851117134094,
                        0.0178583562374115,
                        0.43152907490730286,
                        0.2550183832645416,
                        -0.24178262054920197,
                        -0.0236017107963562,
                        -0.45009806752204895,
                        0.1364082396030426,
                        -0.14819085597991943,
                        0.4279648959636688,
                        0.40671029686927795,
                        -0.2711522877216339,
                        0.27378228306770325,
                        0.38745537400245667,
                        -0.3772442936897278,
                        0.4702865183353424,
                        -0.016532689332962036,
                        -0.15958651900291443,
                        -0.13124728202819824,
                        -0.1802850365638733,
                        -0.03042706847190857,
                        -0.26536667346954346,
                        0.3319918215274811
                    ]
                ],
                [
                    [
                        0.09414958953857422,
                        -0.21632081270217896,
                        0.05217739939689636,
                        0.13397705554962158,
                        0.3086701035499573,
                        -0.4321935474872589,
                        -0.11516748368740082,
                        0.23535053431987762,
                        -0.15614093840122223,
                        0.18943050503730774,
                        0.3146422505378723,
                        0.22957265377044678,
                        -0.02546955831348896,
                        -0.02015375904738903,
                        0.007152206264436245,
                        0.15928778052330017,
                        -0.0894918367266655,
                        -0.033917978405952454,
                        -0.1606212556362152,
                        -0.1554192304611206,
                        -0.21104931831359863,
                        0.09614904969930649,
                        0.25609487295150757,
                        0.39498913288116455
                    ],
                    [
                        -0.055428892374038696,
                        0.023960348218679428,
                        0.24297671020030975,
                        -0.4972825348377228,
                        0.08153587579727173,
                        0.25557568669319153,
                        -0.06618824601173401,
                        -0.037687748670578,
                        -0.18875671923160553,
                        -0.054872382432222366,
                        0.0740399956703186,
                        0.05575694888830185,
                        0.3808407187461853,
                        0.1927192211151123,
                        0.04547571390867233,
                        -0.07471482455730438,
                        0.12206202000379562,
                        0.007838048972189426,
                        -0.19071915745735168,
                        -0.24360091984272003,
                        -0.19151781499385834,
                        0.024842388927936554,
                        -0.37426427006721497,
                        0.29521211981773376
                    ],
                    [
                        0.37850624322891235,
                        -0.1511412262916565,
                        0.020000480115413666,
                        -0.2642512321472168,
                        -0.08629322052001953,
                        -0.020856380462646484,
                        -0.019574929028749466,
                        0.12611337006092072,
                        0.3075104355812073,
                        -0.22855427861213684,
                        0.032391712069511414,
                        -0.12460252642631531,
                        0.2094721645116806,
                        -0.008058533072471619,
                        0.1932571530342102,
                        0.16736267507076263,
                        -0.3283121585845947,
                        -0.11732007563114166,
                        -0.07599795609712601,
                        -0.2632874846458435,
                        -0.2346917986869812,
                        0.037165187299251556,
                        0.22681447863578796,
                        -0.40281426906585693
                    ],
                    [
                        -0.10016845911741257,
                        -0.2638348937034607,
                        0.07577606290578842,
                        -0.2275513857603073,
                        0.21174123883247375,
                        -0.3803049921989441,
                        -0.2833130955696106,
                        0.09943152219057083,
                        0.04404465854167938,
                        0.18928097188472748,
                        -0.08394980430603027,
                        -0.20854732394218445,
                        0.203927680850029,
                        0.19637972116470337,
                        0.015363187529146671,
                        -0.15834319591522217,
                        0.06950852274894714,
                        0.1505773961544037,
                        0.20375493168830872,
                        0.408896803855896,
                        0.026008611544966698,
                        0.2541055679321289,
                        -0.13030579686164856,
                        -0.2664700150489807
                    ],
                    [
                        -0.5349381566047668,
                        -0.009798422455787659,
                        -0.2050783783197403,
                        0.0224459171295166,
                        -0.09762895107269287,
                        0.05476363003253937,
                        -0.1088753491640091,
                        0.040186136960983276,
                        -0.28934022784233093,
                        -0.24100102484226227,
                        0.11737798154354095,
                        0.01411416381597519,
                        0.06039562076330185,
                        0.20122088491916656,
                        0.3645564615726471,
                        -0.21568869054317474,
                        -0.20351941883563995,
                        0.012345001101493835,
                        0.25248974561691284,
                        -0.041251055896282196,
                        -0.20721782743930817,
                        -0.12674923241138458,
                        0.3148340582847595,
                        -0.026416033506393433
                    ],
                    [
                        0.056274522095918655,
                        0.2930239140987396,
                        0.03474249318242073,
                        0.07672373205423355,
                        0.3100898265838623,
                        -0.07438211143016815,
                        -0.3091295063495636,
                        -0.2023332566022873,
                        -0.28172236680984497,
                        -0.007023646496236324,
                        0.16381889581680298,
                        -0.12273925542831421,
                        0.0028753187507390976,
                        -0.17004330456256866,
                        -0.04669555276632309,
                        0.214585080742836,
                        -0.03106720931828022,
                        0.32500067353248596,
                        -0.0874556452035904,
                        -0.04940465837717056,
                        -0.13261859118938446,
                        -0.4360147714614868,
                        -0.1227126270532608,
                        -0.3574700355529785
                    ],
                    [
                        0.018290285021066666,
                        0.17824892699718475,
                        0.32507097721099854,
                        -0.07602885365486145,
                        -0.11361860483884811,
                        -0.14755499362945557,
                        0.0831335037946701,
                        -0.06801843643188477,
                        -0.2511131167411804,
                        0.2855896055698395,
                        0.049427106976509094,
                        -0.3904220461845398,
                        0.13480979204177856,
                        -0.28775230050086975,
                        0.3764505684375763,
                        0.06772402673959732,
                        0.08162800967693329,
                        -0.35652095079421997,
                        0.1585712432861328,
                        -0.0812220498919487,
                        0.27208569645881653,
                        -0.02074553444981575,
                        0.14167381823062897,
                        0.058386094868183136
                    ],
                    [
                        -0.018894458189606667,
                        0.2973460257053375,
                        0.42005854845046997,
                        -0.08435817807912827,
                        -0.20366276800632477,
                        -0.26332005858421326,
                        0.12553071975708008,
                        0.23617148399353027,
                        0.31122222542762756,
                        -0.0638851746916771,
                        0.2810957133769989,
                        0.011646222323179245,
                        -0.06408888101577759,
                        0.24674397706985474,
                        -0.21599118411540985,
                        -0.21072950959205627,
                        0.10779788345098495,
                        0.17441576719284058,
                        0.20447176694869995,
                        -0.07264601439237595,
                        0.004619399085640907,
                        -0.3273766040802002,
                        0.10823289304971695,
                        0.03366595506668091
                    ]
                ],
                [
                    [
                        0.007359556388109922,
                        -0.016001923009753227,
                        -0.06998392939567566,
                        -0.01659413054585457,
                        -0.0029820469208061695,
                        0.030566299334168434,
                        -0.023440761491656303,
                        -0.0016491588903591037,
                        -0.06340611726045609,
                        -0.05407914146780968,
                        -0.006998917553573847,
                        0.07334727048873901,
                        0.030288612470030785,
                        0.022516712546348572,
                        0.007160278502851725,
                        -0.0032281808089464903,
                        -0.011397113092243671,
                        0.030306819826364517,
                        0.041707899421453476,
                        -0.025503361597657204,
                        0.01829671300947666,
                        -0.0027109801303595304,
                        0.0829591378569603,
                        0.004051727708429098
                    ],
                    [
                        -0.03334091231226921,
                        0.009128001518547535,
                        0.03156092390418053,
                        0.018955759704113007,
                        -0.04693741723895073,
                        -0.08985799551010132,
                        0.020778072997927666,
                        0.1396699994802475,
                        -0.01816488429903984,
                        -0.024139735847711563,
                        -0.027917608618736267,
                        -0.01608920842409134,
                        0.029898572713136673,
                        0.0510261245071888,
                        -0.012594232335686684,
                        -0.04320963844656944,
                        0.026037517935037613,
                        0.09217686206102371,
                        -0.054017793387174606,
                        0.01571050100028515,
                        -0.037061091512441635,
                        0.006345820613205433,
                        -0.07250109314918518,
                        -0.055389512330293655
                    ]
                ]
            ]
        },
        {
            "type": "dense",
            "activation": "sigmoid",
            "shape": [
                null,
                null,
                8
            ],
            "weights": [
                [
                    [
                        -0.024692177772521973,
                        -0.20797912776470184,
                        -0.0068620131351053715,
                        0.036724742501974106,
                        -0.4229077994823456,
                        -0.2145886868238449,
                        -0.5934140682220459,
                        0.6145727634429932
                    ],
                    [
                        -0.1308266669511795,
                        0.17174632847309113,
                        0.6278733611106873,
                        0.38733145594596863,
                        -0.3677709996700287,
                        0.46432095766067505,
                        0.19849088788032532,
                        0.13743706047534943
                    ],
                    [
                        -0.5445592999458313,
                        0.08752143383026123,
                        -0.49531060457229614,
                        0.22690781950950623,
                        -0.5253607630729675,
                        -0.036171525716781616,
                        0.040441155433654785,
                        -0.3464498817920685
                    ],
                    [
                        -0.30829212069511414,
                        -0.4350174367427826,
                        0.162881538271904,
                        0.17845240235328674,
                        0.3421483039855957,
                        0.3198453187942505,
                        -0.5563010573387146,
                        -0.3584725856781006
                    ],
                    [
                        -0.7331687808036804,
                        0.28278568387031555,
                        0.26536816358566284,
                        -0.3670686185359955,
                        0.26813647150993347,
                        -0.23165759444236755,
                        0.031650662422180176,
                        0.22532635927200317
                    ],
                    [
                        -0.17888867855072021,
                        -0.7484543323516846,
                        0.08913076668977737,
                        0.16929270327091217,
                        0.015858925879001617,
                        -0.2863897681236267,
                        0.5184561014175415,
                        0.14192700386047363
                    ],
                    [
                        0.10431881248950958,
                        -0.1869012415409088,
                        0.4025820195674896,
                        -0.5817356109619141,
                        -0.4622420370578766,
                        -0.16388890147209167,
                        -0.06430712342262268,
                        -0.4572027325630188
                    ],
                    [
                        0.10131995379924774,
                        0.23508328199386597,
                        0.305660218000412,
                        0.5133007168769836,
                        0.0837109237909317,
                        -0.687171220779419,
                        -0.15303801000118256,
                        -0.27373695373535156
                    ]
                ],
                [
                    -0.02849063277244568,
                    0.039317816495895386,
                    -0.054957855492830276,
                    -0.038240138441324234,
                    -0.03555574640631676,
                    0.02682861126959324,
                    0.020210420712828636,
                    0.10280252993106842
                ]
            ]
        },
        {
            "type": "dense",
            "activation": "",
            "shape": [
                null,
                null,
                1
            ],
            "weights": [
                [
                    [
                        -0.40115034580230713
                    ],
                    [
                        -0.4828295111656189
                    ],
                    [
                        0.3369758427143097
                    ],
                    [
                        -0.02610420063138008
                    ],
                    [
                        -0.030471205711364746
                    ],
                    [
                        0.22858735918998718
                    ],
                    [
                        0.6590383052825928
                    ],
                    [
                        0.06486676633358002
                    ]
                ],
                [
                    0.08095019310712814
                ]
            ]
        }
    ]
}