{
    "in_shape": [
        null,
        null,
        2
    ],
    "layers": [
        {
            "type": "gru",
            "activation": "tanh",
            "shape": [
                null,
                null,
                32
            ],
            "weights": [
                [
                    [
                        -0.21034419536590576,
                        -0.14313727617263794,
                        -0.08001708984375,
                        0.043873563408851624,
                        0.05854777991771698,
                        -0.06335479021072388,
                        -0.029342085123062134,
                        0.13957099616527557,
                        -0.12895941734313965,
                        0.04963754117488861,
                        -0.22540324926376343,
                        0.22681419551372528,
                        -0.05294506251811981,
                        -0.10151319205760956,
                        -0.1250394880771637,
                        -0.17729267477989197,
                        0.009293869137763977,
                        0.09631894528865814,
                        0.24732722342014313,
                        -0.08555886149406433,
                        -0.020586058497428894,
                        0.1878715306520462,
                        0.015474185347557068,
                        -0.16775965690612793,
                        -0.17882119119167328,
                        -0.00879235565662384,
                        -0.1938372254371643,
                        0.17130149900913239,
                        0.2084185928106308,
                        -0.22774586081504822,
                        0.08529455959796906,
                        0.1713476926088333,
                        0.15423466265201569,
                        0.002230718731880188,
                        -0.1920720338821411,
                        -0.1600780189037323,
                        0.21503211557865143,
                        -0.1181180328130722,
                        0.07399110496044159,
                        -0.10463853180408478,
                        0.21104119718074799,
                        -0.08891168236732483,
                        0.21227942407131195,
                        -0.07548564672470093,
                        0.21103636920452118,
                        -0.11967922747135162,
                        0.07920457422733307,
                        -0.04874032735824585,
                        0.23828713595867157,
                        -0.03280894458293915,
                        0.22170476615428925,
                        0.2190117985010147,
                        0.11282758414745331,
                        -0.23973213136196136,
                        0.06340239942073822,
                        0.1425447314977646,
                        0.13750948011875153,
                        0.08124144375324249,
                        -0.21511051058769226,
                        0.10712476074695587,
                        -0.1834101676940918,
                        0.05324564874172211,
                        0.004132017493247986,
                        0.19988538324832916,
                        0.0771566778421402,
                        -0.05314895510673523,
                        -0.1849595010280609,
                        -0.05714656412601471,
                        -0.08392463624477386,
                        0.06630085408687592,
                        -0.15309888124465942,
                        0.0977325290441513,
                        -0.20128093659877777,
                        0.07924722135066986,
                        0.04512892663478851,
                        0.025074735283851624,
                        -0.027054563164711,
                        -0.19104188680648804,
                        -0.22412550449371338,
                        0.24376149475574493,
                        0.10270337760448456,
                        -0.027062177658081055,
                        0.2129662185907364,
                        -0.17030107975006104,
                        0.05216522514820099,
                        0.11017434298992157,
                        0.18618036806583405,
                        0.050194159150123596,
                        -0.18017438054084778,
                        -0.23156161606311798,
                        0.13504214584827423,
                        0.0896729975938797,
                        0.1054740697145462,
                        -0.1892213523387909,
                        -0.07398001849651337,
                        0.12297625839710236
                    ],
                    [
                        0.22921697795391083,
                        0.11204059422016144,
                        0.05230115354061127,
                        -0.05605265498161316,
                        0.1377437561750412,
                        0.13803745806217194,
                        -0.006140843033790588,
                        -0.05816987156867981,
                        -0.09502115845680237,
                        0.02747194468975067,
                        0.010314509272575378,
                        -0.10540361702442169,
                        -0.1281461864709854,
                        -0.21097837388515472,
                        -0.0663529485464096,
                        -0.16540876030921936,
                        -0.027461916208267212,
                        -0.23897771537303925,
                        0.022141948342323303,
                        -0.03980755805969238,
                        0.211922749876976,
                        0.12795458734035492,
                        0.18017791211605072,
                        0.238534078001976,
                        0.18174420297145844,
                        0.1597556322813034,
                        0.16423334181308746,
                        -0.1360991895198822,
                        -0.17098399996757507,
                        0.17427916824817657,
                        0.12498073279857635,
                        -0.07823178172111511,
                        0.1549932211637497,
                        0.18600846827030182,
                        -0.21373437345027924,
                        0.13309814035892487,
                        0.08389230072498322,
                        0.16952337324619293,
                        0.009551480412483215,
                        -0.23644307255744934,
                        -0.2411489635705948,
                        -0.12954556941986084,
                        -0.08396545052528381,
                        0.009752169251441956,
                        -0.10738025605678558,
                        0.11028318107128143,
                        0.09313742816448212,
                        -0.19747185707092285,
                        0.06345821917057037,
                        0.16688112914562225,
                        -0.08996956050395966,
                        0.2448243647813797,
                        -0.18353533744812012,
                        -0.08241187036037445,
                        0.10207976400852203,
                        -0.04230721294879913,
                        -0.19174572825431824,
                        -0.09860275685787201,
                        -0.19282649457454681,
                        -0.05146285891532898,
                        0.08645094931125641,
                        0.2220819741487503,
                        0.1113353818655014,
                        0.08385922014713287,
                        0.0790599137544632,
                        0.15678106248378754,
                        -0.18564529716968536,
                        0.024472489953041077,
                        0.18550635874271393,
                        -0.15155065059661865,
                        -0.03523622453212738,
                        0.11424140632152557,
                        -0.03325021266937256,
                        0.006019130349159241,
                        0.17633391916751862,
                        -0.19399923086166382,
                        0.1592458039522171,
                        -0.139243945479393,
                        0.0785171240568161,
                        0.012385234236717224,
                        0.03428871929645538,
                        0.1275203973054886,
                        -0.1842544674873352,
                        -0.06354911625385284,
                        0.22438205778598785,
                        -0.19761544466018677,
                        0.14343257248401642,
                        -0.1681136190891266,
                        0.16722722351551056,
                        0.13001756370067596,
                        0.06841187179088593,
                        -0.21306177973747253,
                        0.1852223128080368,
                        -0.021634429693222046,
                        0.13950009644031525,
                        0.2471698671579361
                    ]
                ],
                [
                    [
                        0.06434714794158936,
                        -0.12983264029026031,
                        -0.021541424095630646,
                        -0.1923321634531021,
                        -0.08207567036151886,
                        0.017181869596242905,
                        -0.04901996627449989,
                        0.06135275959968567,
                        -0.11488695442676544,
                        -0.028366802260279655,
                        0.20084622502326965,
                        -0.03982941433787346,
                        -0.08888684958219528,
                        0.11616188287734985,
                        0.0401853509247303,
                        -0.09054102748632431,
                        0.08929862827062607,
                        -0.08676892518997192,
                        0.016094055026769638,
                        -0.0480644665658474,
                        0.04693523049354553,
                        0.04353048652410507,
                        0.0480036735534668,
                        0.067779541015625,
                        0.04686351120471954,
                        0.025912845507264137,
                        0.00705712242051959,
                        0.1368546038866043,
                        0.11090391874313354,
                        0.09664593636989594,
                        0.20778249204158783,
                        0.04245948791503906,
                        0.2084769755601883,
                        -0.12743034958839417,
                        -0.10651647299528122,
                        -0.061101894825696945,
                        -0.04036004841327667,
                        0.0060721272602677345,
                        -0.12154015153646469,
                        -0.12763869762420654,
                        -0.11028949916362762,
                        -0.08549875020980835,
                        0.06864573061466217,
                        0.1513511687517166,
                        -0.18384066224098206,
                        -0.01661367528140545,
                        -0.04577215015888214,
                        -0.02539804019033909,
                        -0.057445984333753586,
                        0.0919179618358612,
                        -0.0379759818315506,
                        0.04654308035969734,
                        0.02650078944861889,
                        0.028347333893179893,
                        -0.03737323358654976,
                        -0.007957504130899906,
                        -0.04869774729013443,
                        -0.1345367580652237,
                        -0.005668426398187876,
                        -0.09802190959453583,
                        0.09440920501947403,
                        0.0402071438729763,
                        0.12739263474941254,
                        0.15631423890590668,
                        -0.2023700773715973,
                        -0.03695569932460785,
                        0.19209447503089905,
                        0.033374883234500885,
                        -0.0001365324278594926,
                        -0.02333652600646019,
                        0.08770999312400818,
                        0.08530602604150772,
                        -0.01824561133980751,
                        0.020973404869437218,
                        -0.04404136538505554,
                        0.10951027274131775,
                        0.05378473177552223,
                        0.2275250107049942,
                        -0.18508745729923248,
                        -0.26619014143943787,
                        0.05809985473752022,
                        -0.0024203057400882244,
                        -0.009504616260528564,
                        -0.09962838888168335,
                        0.05994498357176781,
                        -0.25086867809295654,
                        0.18275606632232666,
                        -0.08336985856294632,
                        0.0313277468085289,
                        -0.009107677266001701,
                        -0.15227438509464264,
                        0.00216136802919209,
                        0.06578409671783447,
                        0.0562366358935833,
                        -0.0276330579072237,
                        0.09859519451856613
                    ],
                    [
                        -0.14755047857761383,
                        0.15538668632507324,
                        -0.1506403237581253,
                        -0.13059209287166595,
                        -0.05648747831583023,
                        -0.050309374928474426,
                        0.037182390689849854,
                        -0.20648278295993805,
                        0.015278512611985207,
                        0.1778383105993271,
                        0.020794406533241272,
                        -0.018544401973485947,
                        -0.16042481362819672,
                        0.12057071924209595,
                        0.14306142926216125,
                        -0.00834625493735075,
                        -0.018984096124768257,
                        0.09452814608812332,
                        -0.05827568843960762,
                        -0.23122867941856384,
                        0.054135438054800034,
                        -0.12770512700080872,
                        -0.05220413953065872,
                        0.12824326753616333,
                        -0.08534811437129974,
                        0.04526716098189354,
                        0.005140209104865789,
                        0.017944850027561188,
                        -0.013895753771066666,
                        -0.07604194432497025,
                        -0.08017728477716446,
                        0.001971715595573187,
                        -0.16419284045696259,
                        -0.06839051842689514,
                        -0.020437875762581825,
                        0.02456378936767578,
                        -0.05749586597084999,
                        0.0773574635386467,
                        0.0339488610625267,
                        -0.20398898422718048,
                        0.08344610035419464,
                        0.23824259638786316,
                        0.07729823887348175,
                        -0.07362909615039825,
                        -0.0708141028881073,
                        0.07013007998466492,
                        -0.08426734060049057,
                        -0.08659444749355316,
                        0.0637165978550911,
                        -0.1573956310749054,
                        0.00943554937839508,
                        0.2155587375164032,
                        -0.023016024380922318,
                        0.0032807327806949615,
                        0.08938749134540558,
                        0.07075680792331696,
                        -0.09728508442640305,
                        -0.02048533596098423,
                        0.08280865103006363,
                        -0.2202339768409729,
                        0.05498480796813965,
                        -0.013509608805179596,
                        0.023479865863919258,
                        0.005702091380953789,
                        -1.496821641921997e-05,
                        0.19110889732837677,
                        -0.010398058220744133,
                        -0.0317419208586216,
                        -0.12521520256996155,
                        -0.1397428959608078,
                        -0.013190528377890587,
                        0.042449839413166046,
                        0.010528108105063438,
                        0.03171920403838158,
                        0.09236381947994232,
                        0.026356613263487816,
                        -0.043331246823072433,
                        0.004165615886449814,
                        -0.0002385266125202179,
                        -0.22464197874069214,
                        0.01534099318087101,
                        -0.04149786755442619,
                        -0.0295002069324255,
                        0.008516781032085419,
                        0.1791689097881317,
                        0.11218708008527756,
                        -0.14668087661266327,
                        0.04457337409257889,
                        -0.0017473851330578327,
                        0.08176817744970322,
                        -0.031918130815029144,
                        -0.14846275746822357,
                        -0.06969417631626129,
                        -0.17073026299476624,
                        0.1676272451877594,
                        0.04127699136734009
                    ],
                    [
                        -0.1400260031223297,
                        0.016420206055045128,
                        0.0234135203063488,
                        -0.2211727648973465,
                        0.06890737265348434,
                        0.14408688247203827,
                        -0.0022650137543678284,
                        0.01225464791059494,
                        0.04632134363055229,
                        -0.017558405175805092,
                        0.07524459064006805,
                        0.1353190690279007,
                        0.02390206977725029,
                        -0.1406400203704834,
                        0.1248462125658989,
                        -0.07774223387241364,
                        -0.06489960849285126,
                        -0.07245740294456482,
                        0.12901321053504944,
                        -0.09883590787649155,
                        0.010789482854306698,
                        -0.282937616109848,
                        0.0269243735820055,
                        -0.0023043742403388023,
                        -0.0324840173125267,
                        -0.009668798185884953,
                        -0.06218760833144188,
                        -0.053807176649570465,
                        0.12100090831518173,
                        0.01991358771920204,
                        -0.07834373414516449,
                        -0.06862254440784454,
                        0.05492686107754707,
                        0.07622697949409485,
                        -0.044169507920742035,
                        0.02064872719347477,
                        0.0743466168642044,
                        -0.017812466248869896,
                        -0.14134347438812256,
                        -0.0691130980849266,
                        -0.08882669359445572,
                        0.10490826517343521,
                        -0.05256803333759308,
                        -0.03746848925948143,
                        0.07621671259403229,
                        0.15116773545742035,
                        -0.013749247416853905,
                        0.10356410592794418,
                        0.09061124175786972,
                        -0.016241971403360367,
                        0.15414807200431824,
                        0.04143530875444412,
                        0.0541083961725235,
                        -0.12221140414476395,
                        -0.3200829029083252,
                        0.14939263463020325,
                        0.1598936915397644,
                        0.01791296899318695,
                        -0.03219955042004585,
                        0.14331354200839996,
                        -0.05691538006067276,
                        0.16722513735294342,
                        0.042772501707077026,
                        -0.10953079164028168,
                        -0.005069602280855179,
                        -0.031226448714733124,
                        0.00042850151658058167,
                        0.24899695813655853,
                        0.06427135318517685,
                        -0.092786505818367,
                        -0.1792052984237671,
                        0.0800662413239479,
                        0.12216769903898239,
                        -0.04670931398868561,
                        0.06165740638971329,
                        0.10191021114587784,
                        -0.04757172241806984,
                        0.08206820487976074,
                        0.06308590620756149,
                        -0.010210532695055008,
                        0.11016933619976044,
                        -0.22930070757865906,
                        0.011951548047363758,
                        -0.03154566138982773,
                        -0.05554614216089249,
                        -0.10559239983558655,
                        -0.015370624139904976,
                        -0.04110247641801834,
                        -0.09054557234048843,
                        -0.0541449673473835,
                        0.1378934681415558,
                        0.07335590571165085,
                        -0.09524331241846085,
                        -0.06354740262031555,
                        -0.14725814759731293,
                        0.03890565410256386
                    ],
                    [
                        -0.0011911765905097127,
                        -0.11093732714653015,
                        0.009596948511898518,
                        0.06103944405913353,
                        0.009204557165503502,
                        0.0036819379311054945,
                        -0.05159088596701622,
                        0.09399454295635223,
                        -0.08571085333824158,
                        -0.05851083993911743,
                        0.015661165118217468,
                        -0.1171116754412651,
                        0.04671986773610115,
                        0.113101527094841,
                        0.2879824638366699,
                        0.15219728648662567,
                        -0.035072676837444305,
                        -0.07385406643152237,
                        -0.007389644160866737,
                        -0.09334693849086761,
                        0.021066371351480484,
                        -0.047148581594228745,
                        -0.04625101014971733,
                        -0.1407722681760788,
                        0.07068371027708054,
                        0.0159901212900877,
                        -0.028744583949446678,
                        -0.08971817046403885,
                        -0.027037328109145164,
                        -0.10912156850099564,
                        0.10201229155063629,
                        -0.1740010678768158,
                        0.15904875099658966,
                        -0.01322014071047306,
                        0.1592104732990265,
                        -0.10949279367923737,
                        -0.06357841938734055,
                        -0.030270352959632874,
                        0.1025058850646019,
                        -0.014791451394557953,
                        -0.1303550750017166,
                        0.016951004043221474,
                        0.10764759033918381,
                        -0.2913501262664795,
                        -0.038588594645261765,
                        0.10901561379432678,
                        0.17278024554252625,
                        0.11831928044557571,
                        0.007562216836959124,
                        -0.1626444309949875,
                        0.216029092669487,
                        0.10728471726179123,
                        -0.03218810260295868,
                        0.151006817817688,
                        0.015847567468881607,
                        -0.17450889945030212,
                        0.060735855251550674,
                        0.01395239494740963,
                        -0.07426436990499496,
                        -0.08718834072351456,
                        0.20934994518756866,
                        0.05558513477444649,
                        -0.04411615803837776,
                        -0.07908739894628525,
                        0.10471168160438538,
                        -0.15835663676261902,
                        0.058607541024684906,
                        -0.06160636246204376,
                        -0.15370607376098633,
                        -0.0485551580786705,
                        0.03182082995772362,
                        -0.10323229432106018,
                        0.0731213316321373,
                        -0.04991891235113144,
                        0.15958495438098907,
                        -0.111373171210289,
                        0.06517651677131653,
                        0.14300112426280975,
                        -0.011598698794841766,
                        0.1588776409626007,
                        -0.06162688881158829,
                        -0.05366507172584534,
                        -0.023210981860756874,
                        0.0599033460021019,
                        -0.08508369326591492,
                        -0.06425737589597702,
                        0.11155619472265244,
                        -0.05548131838440895,
                        0.003656738204881549,
                        0.11273116618394852,
                        -0.06366349011659622,
                        -0.08228189498186111,
                        0.08514484763145447,
                        -0.1072966456413269,
                        0.03739357739686966,
                        -0.0043362523429095745
                    ],
                    [
                        -0.02229854092001915,
                        -0.16543720662593842,
                        0.014825535006821156,
                        -0.09733249992132187,
                        0.07258473336696625,
                        -0.01865781657397747,
                        0.008923616260290146,
                        -0.08465670049190521,
                        -0.23996372520923615,
                        -0.028930949047207832,
                        -0.0032223467715084553,
                        0.03199891000986099,
                        -0.023767849430441856,
                        -0.0661255493760109,
                        0.12996399402618408,
                        0.037219807505607605,
                        -0.09902142733335495,
                        -0.16913029551506042,
                        0.04374994337558746,
                        0.07058631628751755,
                        -0.04652739688754082,
                        0.06946777552366257,
                        -0.1866588592529297,
                        0.04480979964137077,
                        0.15609347820281982,
                        0.20103509724140167,
                        -0.06821699440479279,
                        -0.009306063875555992,
                        -0.11537952721118927,
                        -2.952897921204567e-05,
                        -0.2509864866733551,
                        0.06448157876729965,
                        0.01608344539999962,
                        -0.10275483131408691,
                        -0.03480491787195206,
                        0.04048033431172371,
                        -0.06591083109378815,
                        0.07267610728740692,
                        0.07382071018218994,
                        0.07184639573097229,
                        0.21325914561748505,
                        -0.1249593198299408,
                        -0.11008349061012268,
                        0.11979305744171143,
                        -0.024060213938355446,
                        -0.12397828698158264,
                        -0.05827149376273155,
                        -0.03396366164088249,
                        -0.10786814242601395,
                        -0.08508157730102539,
                        0.028463365510106087,
                        0.19061413407325745,
                        0.032212384045124054,
                        0.011020074598491192,
                        -0.016168832778930664,
                        -0.058658748865127563,
                        -0.04949495941400528,
                        -0.19046741724014282,
                        -0.0076105622574687,
                        0.0007059783674776554,
                        -0.09679991006851196,
                        0.15589465200901031,
                        0.10086122155189514,
                        -0.10697612166404724,
                        0.11955828964710236,
                        -0.10160530358552933,
                        -0.07501991093158722,
                        0.10221775621175766,
                        0.003709241980686784,
                        0.1227375864982605,
                        -0.06804440915584564,
                        0.046043988317251205,
                        -0.2510928213596344,
                        0.016904590651392937,
                        0.140487939119339,
                        -0.10235411673784256,
                        -0.01684664562344551,
                        0.12662075459957123,
                        0.11168817430734634,
                        -0.10387937724590302,
                        -0.07972189038991928,
                        -0.08856190741062164,
                        -0.008814070373773575,
                        0.144649937748909,
                        -0.06401887536048889,
                        0.09477578848600388,
                        -0.12410038709640503,
                        -0.0871640294790268,
                        0.049822449684143066,
                        -0.06845525652170181,
                        -0.08526196330785751,
                        0.11436513066291809,
                        0.08026555180549622,
                        0.06621913611888885,
                        0.01435701735317707,
                        0.15929247438907623
                    ],
                    [
                        0.057523276656866074,
                        0.029281247407197952,
                        0.14915065467357635,
                        0.01683802157640457,
                        0.11025431007146835,
                        -0.030591720715165138,
                        -0.07666405290365219,
                        0.0807342454791069,
                        -0.0721132829785347,
                        0.055800922214984894,
                        -0.09022437781095505,
                        0.02192004956305027,
                        -0.055001042783260345,
                        0.058819785714149475,
                        -0.09113835543394089,
                        -0.00786612182855606,
                        -0.07412992417812347,
                        -0.09065103530883789,
                        -0.04146670550107956,
                        -0.015111692249774933,
                        0.15562959015369415,
                        -0.1888028383255005,
                        0.1104101687669754,
                        0.05878808721899986,
                        -0.02756543457508087,
                        0.0732075423002243,
                        0.017281774431467056,
                        0.014431165531277657,
                        -0.15571396052837372,
                        0.23069296777248383,
                        0.05376489832997322,
                        0.1480475217103958,
                        -0.144098162651062,
                        0.1155032068490982,
                        0.05787881836295128,
                        -0.25055620074272156,
                        0.1353624314069748,
                        -0.003818511264398694,
                        -0.038356930017471313,
                        -0.14130806922912598,
                        0.1393279731273651,
                        -0.012391537427902222,
                        -0.1206418052315712,
                        -0.018493445590138435,
                        0.050124432891607285,
                        0.04287177696824074,
                        -0.0022878707386553288,
                        -0.09410261362791061,
                        -0.17917467653751373,
                        0.0754498615860939,
                        0.15526780486106873,
                        0.023355694487690926,
                        0.032623160630464554,
                        0.056896645575761795,
                        0.10643470287322998,
                        -0.12939567863941193,
                        -0.13709262013435364,
                        0.1047029197216034,
                        -0.07450012117624283,
                        0.041962187737226486,
                        0.17618973553180695,
                        0.12832461297512054,
                        0.02986917644739151,
                        0.11529891937971115,
                        -0.0762220099568367,
                        -0.06513339281082153,
                        -0.15729370713233948,
                        0.10986528545618057,
                        0.08431031554937363,
                        -0.05563122034072876,
                        0.014664803631603718,
                        -0.06117021664977074,
                        -0.08059003949165344,
                        -0.14299608767032623,
                        0.029549898579716682,
                        -0.031354788690805435,
                        -0.1772802472114563,
                        0.006132008507847786,
                        0.03724967688322067,
                        -0.020343638956546783,
                        0.07614099979400635,
                        0.10566224902868271,
                        0.09431388974189758,
                        0.17321966588497162,
                        0.1622190773487091,
                        0.04105955362319946,
                        0.18187661468982697,
                        -0.07673939317464828,
                        -0.016157392412424088,
                        0.05600088834762573,
                        -0.032973162829875946,
                        0.008407477289438248,
                        -0.10259466618299484,
                        -0.19143067300319672,
                        -0.18078701198101044,
                        -0.06596902012825012
                    ],
                    [
                        0.08033066242933273,
                        0.05503515899181366,
                        -0.10181967169046402,
                        -0.050137899816036224,
                        0.07408622652292252,
                        0.012989828363060951,
                        0.07816995680332184,
                        0.13212816417217255,
                        0.031420622020959854,
                        -0.09650788456201553,
                        -0.2970053553581238,
                        -0.0015827987808734179,
                        0.08518735319375992,
                        0.009636929258704185,
                        0.08949541300535202,
                        -0.05665723979473114,
                        0.034225791692733765,
                        -0.16060921549797058,
                        0.1326226145029068,
                        0.03122745081782341,
                        -0.20736795663833618,
                        0.0005087703466415405,
                        -0.11008188128471375,
                        0.10980110615491867,
                        -0.013951325789093971,
                        0.12049984931945801,
                        0.07755478471517563,
                        -0.034937985241413116,
                        0.0007726568728685379,
                        -0.10084263235330582,
                        0.05412524193525314,
                        0.048468224704265594,
                        0.22869046032428741,
                        -0.009944010525941849,
                        -0.09344442188739777,
                        0.034342069178819656,
                        -0.04471356049180031,
                        -0.10025957226753235,
                        0.03146571293473244,
                        -0.03836052119731903,
                        0.09998475760221481,
                        0.07574722170829773,
                        0.006014277692884207,
                        0.03034832514822483,
                        -0.0406213104724884,
                        -0.030541321262717247,
                        0.09246613830327988,
                        -0.17494109272956848,
                        0.04497300460934639,
                        0.10712556540966034,
                        0.10377120226621628,
                        -0.04677027463912964,
                        -0.003699484746903181,
                        -0.006382416933774948,
                        0.007908500730991364,
                        -0.09770634025335312,
                        0.20530442893505096,
                        0.05128946527838707,
                        -0.06963454186916351,
                        -0.02517930418252945,
                        -0.055210694670677185,
                        -0.10834327340126038,
                        -0.18379925191402435,
                        -0.04769795387983322,
                        0.06906525790691376,
                        0.05626751109957695,
                        0.1998114138841629,
                        -0.1810854971408844,
                        0.20121435821056366,
                        -0.03370054066181183,
                        -0.07745104283094406,
                        0.047463275492191315,
                        -0.049569085240364075,
                        -0.11506354808807373,
                        0.07221363484859467,
                        -0.01967441476881504,
                        0.05381174758076668,
                        -0.12444920837879181,
                        -0.006931063253432512,
                        -0.20768283307552338,
                        0.13132493197917938,
                        -0.08354102075099945,
                        -0.009512628428637981,
                        0.12477168440818787,
                        0.18193158507347107,
                        0.06692966818809509,
                        0.0839959979057312,
                        -0.0975942462682724,
                        -0.004571734927594662,
                        -0.1770462840795517,
                        -0.06891639530658722,
                        -0.1476762294769287,
                        -0.13486911356449127,
                        -0.07212528586387634,
                        0.005292035639286041,
                        -0.1413111388683319
                    ],
                    [
                        -0.03573625534772873,
                        0.02514498494565487,
                        -0.0963359847664833,
                        -0.19442902505397797,
                        0.09940377622842789,
                        -0.06368310004472733,
                        0.007515656761825085,
                        -0.22650974988937378,
                        -0.059136923402547836,
                        0.08605380356311798,
                        -0.10777879506349564,
                        -0.10617305338382721,
                        0.05276266485452652,
                        0.12339819222688675,
                        0.08223004639148712,
                        -0.05899689719080925,
                        -0.13025647401809692,
                        0.29540756344795227,
                        -0.0269034281373024,
                        0.07575267553329468,
                        0.03696804493665695,
                        -0.08513541519641876,
                        -0.04547898471355438,
                        -0.005211947951465845,
                        -0.1891431212425232,
                        -0.039501089602708817,
                        0.22716718912124634,
                        -0.06833362579345703,
                        0.059552453458309174,
                        0.04601094871759415,
                        0.021002355962991714,
                        0.04375103861093521,
                        0.021167177706956863,
                        0.02034667134284973,
                        0.12198124080896378,
                        -0.08375350385904312,
                        0.04651337489485741,
                        0.19454942643642426,
                        0.10109143704175949,
                        -0.016937745735049248,
                        0.04559830576181412,
                        -0.22734206914901733,
                        -0.05153893679380417,
                        0.09263946861028671,
                        -0.049985580146312714,
                        -0.017454711720347404,
                        -0.05529128015041351,
                        -0.024442164227366447,
                        -0.12899836897850037,
                        -0.0651833638548851,
                        0.1199151948094368,
                        0.0043698507361114025,
                        0.11162470281124115,
                        -0.024169964715838432,
                        -0.08202848583459854,
                        0.0026857852935791016,
                        -0.029124688357114792,
                        -0.12218344956636429,
                        -0.027895532548427582,
                        -0.03874906152486801,
                        0.1431385725736618,
                        -0.1300433874130249,
                        -0.08570487797260284,
                        -0.0695602223277092,
                        0.11380724608898163,
                        0.05953231826424599,
                        0.14674250781536102,
                        -0.07164116948843002,
                        0.16804341971874237,
                        0.1847824603319168,
                        0.05856192111968994,
                        0.054869960993528366,
                        0.06085703894495964,
                        0.09307128936052322,
                        -0.012301817536354065,
                        0.15258730947971344,
                        -0.03323475271463394,
                        -0.0022958307527005672,
                        0.025785058736801147,
                        0.16444242000579834,
                        -0.011676149442791939,
                        -0.21180051565170288,
                        -0.008017775602638721,
                        0.048109617084264755,
                        -0.03828342258930206,
                        -0.08928375691175461,
                        0.1372644454240799,
                        0.018396958708763123,
                        0.05439004674553871,
                        0.08909627050161362,
                        0.02049942873418331,
                        0.1296902596950531,
                        -0.047209590673446655,
                        0.14497600495815277,
                        -0.02681160904467106,
                        -0.16878917813301086
                    ],
                    [
                        0.08726224303245544,
                        0.02510656788945198,
                        -0.0938342958688736,
                        -0.01944204419851303,
                        0.05820431187748909,
                        -0.024522967636585236,
                        -0.12768223881721497,
                        -0.014503918588161469,
                        -0.0848521813750267,
                        -0.11574520915746689,
                        0.040047816932201385,
                        0.005683948285877705,
                        -0.09375152736902237,
                        0.08140391111373901,
                        0.12751607596874237,
                        0.0698992908000946,
                        -0.08373342454433441,
                        -0.04231475293636322,
                        0.1356055736541748,
                        -0.10573001950979233,
                        -0.16560819745063782,
                        0.11882010847330093,
                        0.07900560647249222,
                        -0.03780193626880646,
                        0.12658825516700745,
                        -0.153640016913414,
                        0.06799592822790146,
                        -0.06460952758789062,
                        -0.061732467263936996,
                        0.14923568069934845,
                        0.03057272918522358,
                        0.07076575607061386,
                        -0.26639363169670105,
                        -0.040736034512519836,
                        0.0357283391058445,
                        -0.11400391906499863,
                        -0.04619886726140976,
                        -0.06670460850000381,
                        -0.09432908147573471,
                        0.05544932186603546,
                        0.21373924612998962,
                        -0.08696397393941879,
                        -0.11119546741247177,
                        0.025659579783678055,
                        0.10526883602142334,
                        -0.13177834451198578,
                        -0.07395581901073456,
                        0.0937597006559372,
                        0.06777146458625793,
                        -0.03511502593755722,
                        0.04527631402015686,
                        -0.009353457018733025,
                        -0.15501567721366882,
                        -0.09697350114583969,
                        -0.05085255205631256,
                        0.06171960011124611,
                        -0.052798252552747726,
                        0.19113634526729584,
                        0.19562029838562012,
                        0.09547122567892075,
                        -0.07683303207159042,
                        -0.049929600208997726,
                        -0.1310926079750061,
                        -0.03447920083999634,
                        0.12400026619434357,
                        -0.03980506584048271,
                        0.17442256212234497,
                        -0.05898313596844673,
                        -0.0499214231967926,
                        -0.178729847073555,
                        0.11665046960115433,
                        0.09666136652231216,
                        0.0431402288377285,
                        -0.1360156387090683,
                        -0.07851716876029968,
                        0.18537332117557526,
                        0.11879434436559677,
                        0.13318370282649994,
                        -0.00920814834535122,
                        -0.005225894972681999,
                        0.02630745805799961,
                        -0.04394005239009857,
                        0.04450984299182892,
                        -0.1874099224805832,
                        -0.15878602862358093,
                        0.12487126886844635,
                        0.026834893971681595,
                        -0.16089139878749847,
                        -0.003750413889065385,
                        0.11992806196212769,
                        -0.14578786492347717,
                        -0.030068587511777878,
                        -0.09628897160291672,
                        -0.07321008294820786,
                        0.008252380415797234,
                        0.006723953410983086
                    ],
                    [
                        0.17111153900623322,
                        0.03536096215248108,
                        -0.032392486929893494,
                        0.06516445428133011,
                        -0.14845968782901764,
                        0.010061914101243019,
                        0.2152872383594513,
                        -0.044396813958883286,
                        0.013134358450770378,
                        0.0700247511267662,
                        -0.0402236208319664,
                        -0.04648187756538391,
                        0.10013889521360397,
                        0.03298506513237953,
                        -0.06424905359745026,
                        -0.007229701150208712,
                        0.09117799252271652,
                        -0.03791777044534683,
                        0.023962276056408882,
                        -0.02996695414185524,
                        -0.13339684903621674,
                        -0.13690321147441864,
                        0.16327083110809326,
                        -0.10722460597753525,
                        0.0798838883638382,
                        0.023092830553650856,
                        -0.11160579323768616,
                        -0.0898560881614685,
                        -0.04822883382439613,
                        -0.08385320007801056,
                        0.11128673702478409,
                        0.027725957334041595,
                        0.11645320802927017,
                        0.012045521289110184,
                        0.15054483711719513,
                        -0.05244269222021103,
                        -0.12413325905799866,
                        -0.07510913163423538,
                        -0.0350053645670414,
                        -0.1663014441728592,
                        0.02110395021736622,
                        -0.2241067737340927,
                        -0.07767044007778168,
                        -0.09444504976272583,
                        -0.12005537003278732,
                        -0.13620318472385406,
                        -0.11620289087295532,
                        0.10619865357875824,
                        -0.10079357773065567,
                        -0.06599213182926178,
                        0.15472479164600372,
                        -0.0018454301171004772,
                        -0.07590270042419434,
                        -0.02512633241713047,
                        0.026679152622818947,
                        0.14338406920433044,
                        -0.08505827188491821,
                        0.16529446840286255,
                        -0.0831577405333519,
                        -0.1379174441099167,
                        -0.14607234299182892,
                        -0.05847472697496414,
                        0.06693840026855469,
                        -0.06634050607681274,
                        -0.07894186675548553,
                        0.2991558313369751,
                        -0.22348901629447937,
                        0.10717970877885818,
                        0.011884411796927452,
                        0.029635746031999588,
                        0.16390584409236908,
                        0.02040904015302658,
                        0.05900655314326286,
                        -0.05240500718355179,
                        0.062115177512168884,
                        -0.053147442638874054,
                        0.18064634501934052,
                        0.04083830490708351,
                        0.02161066047847271,
                        -0.11772496998310089,
                        0.06940755248069763,
                        -0.15631376206874847,
                        0.1124955490231514,
                        0.11218030005693436,
                        -0.09418481588363647,
                        0.006527859717607498,
                        -0.09054394066333771,
                        0.09875068068504333,
                        0.034354452043771744,
                        -0.04151362553238869,
                        -7.959641516208649e-05,
                        0.03943035379052162,
                        0.038852933794260025,
                        0.0782504454255104,
                        -0.14323563873767853,
                        -0.007601132616400719
                    ],
                    [
                        -0.0030031264759600163,
                        -0.17150162160396576,
                        0.010530680418014526,
                        -0.17977240681648254,
                        0.035816989839076996,
                        0.290842741727829,
                        -0.09260955452919006,
                        -0.055490050464868546,
                        0.1638329178094864,
                        0.13501153886318207,
                        -0.10346188396215439,
                        0.033573687076568604,
                        0.10362643003463745,
                        0.21847321093082428,
                        -0.001565537299029529,
                        0.04774972423911095,
                        0.1998811662197113,
                        -0.19185107946395874,
                        -0.06657281517982483,
                        0.005498997867107391,
                        0.13143329322338104,
                        -0.07429619878530502,
                        -0.0037741418927907944,
                        -0.059458207339048386,
                        0.07110852748155594,
                        -0.09842656552791595,
                        -0.05773400887846947,
                        -0.11218679696321487,
                        -0.0233854278922081,
                        0.10006251186132431,
                        -0.014601015485823154,
                        -0.06332376599311829,
                        -0.11748263239860535,
                        -0.04481137916445732,
                        -0.15976814925670624,
                        0.022001340985298157,
                        0.24286523461341858,
                        0.19370315968990326,
                        0.12478127330541611,
                        0.07646973431110382,
                        -0.051284343004226685,
                        0.03946209326386452,
                        -0.12960700690746307,
                        -0.15656520426273346,
                        0.013046903535723686,
                        -0.04928167909383774,
                        -0.14624477922916412,
                        -0.09245976060628891,
                        -0.022799212485551834,
                        0.12040458619594574,
                        -0.0766051709651947,
                        0.03084147721529007,
                        0.01817239634692669,
                        -0.13296104967594147,
                        -0.052834633737802505,
                        -0.0654943510890007,
                        0.10920993983745575,
                        0.13163673877716064,
                        0.04415871948003769,
                        0.02118123508989811,
                        -0.10241580009460449,
                        -0.0688440278172493,
                        -0.16922296583652496,
                        -0.0774231031537056,
                        -0.033326998353004456,
                        -0.0009108779486268759,
                        -0.046993132680654526,
                        -0.08692429959774017,
                        -0.13701584935188293,
                        0.1689082384109497,
                        0.172932967543602,
                        -0.026784304529428482,
                        -0.02994374744594097,
                        -0.035902805626392365,
                        0.07803428173065186,
                        -0.0007099672802723944,
                        0.030044684186577797,
                        0.06699975579977036,
                        -0.031925708055496216,
                        -0.05750350281596184,
                        -0.10755039751529694,
                        -0.08460021018981934,
                        0.04139069840312004,
                        0.003327860962599516,
                        0.14072076976299286,
                        -0.013143116608262062,
                        0.04043729975819588,
                        0.007431400939822197,
                        -0.03844000771641731,
                        0.02326253429055214,
                        -0.016655825078487396,
                        -0.10643573105335236,
                        0.17841485142707825,
                        0.09411685168743134,
                        -0.007525976747274399,
                        0.02148425206542015
                    ],
                    [
                        0.008955069817602634,
                        0.043006088584661484,
                        -0.07804574072360992,
                        0.08988316357135773,
                        -0.0023642333690077066,
                        0.06423477828502655,
                        0.1240108460187912,
                        -0.1549326628446579,
                        0.15746279060840607,
                        0.11889449506998062,
                        0.09538132697343826,
                        -0.017076706513762474,
                        -0.030974088236689568,
                        -0.008969981223344803,
                        -0.02949097752571106,
                        -0.02931072749197483,
                        0.016424784436821938,
                        0.05878609046339989,
                        0.07486703991889954,
                        -0.05045267194509506,
                        0.030813921242952347,
                        0.2437964379787445,
                        -0.03249163180589676,
                        -0.04328947886824608,
                        -0.0863669365644455,
                        0.045135751366615295,
                        -0.22454853355884552,
                        0.08928901702165604,
                        -0.18975795805454254,
                        0.038673900067806244,
                        0.056024689227342606,
                        -0.13131263852119446,
                        -0.030934438109397888,
                        -0.025037448853254318,
                        -0.018020538613200188,
                        -0.24126829206943512,
                        -0.06064346432685852,
                        0.08266863971948624,
                        -0.059639908373355865,
                        0.015647290274500847,
                        0.05405888333916664,
                        -0.03090173751115799,
                        0.04091240465641022,
                        -0.009970353916287422,
                        -0.037918571382761,
                        -0.048396460711956024,
                        0.20924969017505646,
                        0.05073077231645584,
                        -0.049817606806755066,
                        0.07952682673931122,
                        0.15429610013961792,
                        -0.1655726134777069,
                        0.02227804809808731,
                        -0.26072388887405396,
                        -0.04626695439219475,
                        -0.051254719495773315,
                        0.007674774155020714,
                        0.0686299055814743,
                        -0.061859194189310074,
                        0.13239708542823792,
                        0.007473636884242296,
                        -0.013714246451854706,
                        0.045521773397922516,
                        0.038058988749980927,
                        0.0715891644358635,
                        0.12177947908639908,
                        0.0072042508982121944,
                        -0.011727267876267433,
                        0.027149828150868416,
                        -0.10526973754167557,
                        -0.17348510026931763,
                        0.12515683472156525,
                        -0.0720956027507782,
                        -0.015193120576441288,
                        0.17172813415527344,
                        0.1343291997909546,
                        0.0247526615858078,
                        0.01248006522655487,
                        -0.12058811634778976,
                        0.10800648480653763,
                        -0.2101289927959442,
                        -0.05872606858611107,
                        -0.011024783365428448,
                        0.1116209328174591,
                        0.19865332543849945,
                        -0.06091393157839775,
                        0.1177029088139534,
                        -0.04316183552145958,
                        0.023653440177440643,
                        -0.11910925060510635,
                        0.00365604180842638,
                        0.1426413208246231,
                        0.07447164505720139,
                        -0.06764300912618637,
                        0.1916525959968567,
                        0.1903994232416153
                    ],
                    [
                        0.02003449946641922,
                        -0.023708950728178024,
                        -0.03517221286892891,
                        0.18450652062892914,
                        -0.03526560217142105,
                        -0.13842423260211945,
                        -0.20803025364875793,
                        -0.1866437792778015,
                        0.1720089465379715,
                        -0.02227935567498207,
                        -0.07473510503768921,
                        0.03772726282477379,
                        -0.05263174697756767,
                        0.21227222681045532,
                        0.2007487416267395,
                        -0.14338070154190063,
                        -0.05623827874660492,
                        -0.10580334812402725,
                        0.02335319295525551,
                        -0.04336513206362724,
                        -0.10354474186897278,
                        0.09786611795425415,
                        -0.08621979504823685,
                        -0.08848902583122253,
                        0.008999894373118877,
                        -0.023720452561974525,
                        0.05486581102013588,
                        0.125831738114357,
                        0.07360941916704178,
                        0.045377567410469055,
                        -0.021739430725574493,
                        0.26231491565704346,
                        0.10824159532785416,
                        0.059664301574230194,
                        -0.0827222689986229,
                        0.03107932209968567,
                        0.09203363209962845,
                        0.01060989685356617,
                        0.05611991509795189,
                        0.05993397533893585,
                        -0.09883975237607956,
                        -0.03215726837515831,
                        0.10525114089250565,
                        -0.15127138793468475,
                        0.13911107182502747,
                        0.11431015282869339,
                        -0.09787918627262115,
                        -0.013859665021300316,
                        -0.08004120737314224,
                        -0.13527214527130127,
                        0.022948123514652252,
                        -0.08598798513412476,
                        -0.0707574188709259,
                        0.005394292529672384,
                        -0.09669819474220276,
                        0.1152622327208519,
                        -0.12547838687896729,
                        -0.05988917872309685,
                        -0.00210064509883523,
                        0.19075150787830353,
                        0.08237612992525101,
                        0.005661747418344021,
                        -0.04293675720691681,
                        0.11302516609430313,
                        0.009584288112819195,
                        0.061686813831329346,
                        -0.17801861464977264,
                        0.060676559805870056,
                        -0.04052076116204262,
                        0.03713785111904144,
                        -0.11510827392339706,
                        0.05864132195711136,
                        -0.17822308838367462,
                        -0.14789827167987823,
                        0.039772506803274155,
                        0.1243152916431427,
                        0.09753470867872238,
                        -0.040000032633543015,
                        -0.03432641178369522,
                        -0.024247340857982635,
                        0.20703884959220886,
                        0.06265590339899063,
                        -0.07737071812152863,
                        0.1018780842423439,
                        -0.04584697633981705,
                        -0.16646654903888702,
                        -0.1096947193145752,
                        0.05155713111162186,
                        0.06895899027585983,
                        -0.07788188755512238,
                        -0.019186098128557205,
                        -0.056522026658058167,
                        0.17337946593761444,
                        -0.005372356157749891,
                        0.012002122588455677,
                        -0.1150519847869873
                    ],
                    [
                        -0.03852090984582901,
                        0.007349270395934582,
                        0.08570607751607895,
                        -0.03955378755927086,
                        0.08991999924182892,
                        0.010706680826842785,
                        0.01159955095499754,
                        0.08991635590791702,
                        -0.13757774233818054,
                        0.1919839084148407,
                        0.06605467200279236,
                        0.006372812204062939,
                        0.1527232527732849,
                        0.1395752727985382,
                        -0.06258299201726913,
                        -0.0773995965719223,
                        0.09095992147922516,
                        -0.06670795381069183,
                        0.05273868143558502,
                        0.04532553255558014,
                        -0.1524757593870163,
                        -0.055225204676389694,
                        -0.14806325733661652,
                        0.0900016725063324,
                        0.09834786504507065,
                        0.027816297486424446,
                        0.03261619433760643,
                        0.0749288946390152,
                        0.16697484254837036,
                        -0.03849645331501961,
                        0.04074420779943466,
                        -0.16048084199428558,
                        -0.08805647492408752,
                        -0.20523737370967865,
                        0.19778357446193695,
                        -0.11700209975242615,
                        -0.01121731661260128,
                        -0.11268770694732666,
                        0.010408652015030384,
                        0.10155871510505676,
                        -0.1175142303109169,
                        0.09447408467531204,
                        -0.07819002121686935,
                        -0.0683269277215004,
                        0.11319109797477722,
                        -0.1154647246003151,
                        0.2529262900352478,
                        0.008265983313322067,
                        -0.12002749741077423,
                        -0.07791972905397415,
                        -0.08175100386142731,
                        -0.08525476604700089,
                        -0.208278626203537,
                        0.014303099364042282,
                        -0.07239826768636703,
                        -0.05698411166667938,
                        -0.14513516426086426,
                        -0.21688546240329742,
                        0.1723877340555191,
                        0.09391368180513382,
                        0.03596843034029007,
                        -0.03471175953745842,
                        -0.037411607801914215,
                        -0.016429908573627472,
                        0.006145162042230368,
                        0.0917578786611557,
                        -0.014509586617350578,
                        0.08431744575500488,
                        0.14304140210151672,
                        0.04574647173285484,
                        0.13124242424964905,
                        -0.012748170644044876,
                        -0.05779847502708435,
                        -0.1264667809009552,
                        0.018920592963695526,
                        0.1186143308877945,
                        -0.07982157170772552,
                        0.020755985751748085,
                        -0.01940108649432659,
                        -0.1339273452758789,
                        0.04314473271369934,
                        -0.0009193773730657995,
                        0.06302033364772797,
                        0.022454172372817993,
                        0.02790379337966442,
                        0.05179564282298088,
                        0.01966813951730728,
                        0.15992014110088348,
                        -0.0827670693397522,
                        0.07573550194501877,
                        0.29418420791625977,
                        0.0076928227208554745,
                        -0.04861389100551605,
                        -0.024174053221940994,
                        0.11268466711044312,
                        0.017670338973402977
                    ],
                    [
                        -0.02299634739756584,
                        -0.058168984949588776,
                        -0.030448218807578087,
                        -0.01292419619858265,
                        -0.04693850874900818,
                        0.07091468572616577,
                        -0.03246179223060608,
                        -0.05533701926469803,
                        0.11243631690740585,
                        -0.0013394400011748075,
                        0.01913449726998806,
                        -0.026693783700466156,
                        -0.06113022193312645,
                        -0.07700112462043762,
                        0.047884829342365265,
                        -0.04771674424409866,
                        0.15432733297348022,
                        0.01957300305366516,
                        -0.017466284334659576,
                        -0.0952991247177124,
                        0.0001425346126779914,
                        -0.051755327731370926,
                        -0.11723963916301727,
                        0.06524614244699478,
                        0.25209853053092957,
                        0.06984829902648926,
                        0.15627162158489227,
                        -0.030078571289777756,
                        0.1711413711309433,
                        -0.08357451111078262,
                        -0.014085473492741585,
                        0.11627136170864105,
                        -0.08088821917772293,
                        0.028659626841545105,
                        0.2853212356567383,
                        -0.07927814871072769,
                        0.15194706618785858,
                        -0.0574333555996418,
                        0.02372504398226738,
                        -0.038401540368795395,
                        -0.1365278959274292,
                        -0.048966702073812485,
                        -0.08940601348876953,
                        0.025129085406661034,
                        -0.016106130555272102,
                        -0.1101917177438736,
                        -0.08854534476995468,
                        0.031069859862327576,
                        -0.03497706353664398,
                        0.006574573926627636,
                        -0.0019855941645801067,
                        0.033424630761146545,
                        0.08162126690149307,
                        -0.0041563003323972225,
                        0.10977757722139359,
                        -0.13339173793792725,
                        0.07255819439888,
                        0.18423213064670563,
                        -0.1757923662662506,
                        0.0017014981713145971,
                        -0.026660654693841934,
                        0.009436823427677155,
                        0.04657486081123352,
                        0.019470196217298508,
                        0.24330168962478638,
                        0.16322536766529083,
                        0.13067342340946198,
                        0.12359801679849625,
                        0.03392951563000679,
                        -0.0535350926220417,
                        -0.07313813269138336,
                        -0.023591043427586555,
                        -0.2835918664932251,
                        0.05152595415711403,
                        -0.1070859283208847,
                        -0.14500634372234344,
                        0.013131807558238506,
                        -0.214840367436409,
                        -0.04308667778968811,
                        0.019695604220032692,
                        0.038628969341516495,
                        -0.004478993359953165,
                        -0.14269180595874786,
                        -0.260477215051651,
                        0.019652802497148514,
                        -0.12162688374519348,
                        0.07145316898822784,
                        0.03109271079301834,
                        -0.07518808543682098,
                        0.05251775309443474,
                        -0.033911895006895065,
                        0.1262550801038742,
                        0.043856389820575714,
                        -0.14100763201713562,
                        0.015675390139222145,
                        0.1419847160577774
                    ],
                    [
                        0.016116049140691757,
                        0.05952871963381767,
                        0.062032777816057205,
                        -0.04314112290740013,
                        0.022701043635606766,
                        0.04779632017016411,
                        -0.06148110702633858,
                        -0.035255949944257736,
                        -0.034300852566957474,
                        -0.00022868812084197998,
                        -0.12564720213413239,
                        0.09005527198314667,
                        -0.007869226858019829,
                        0.15718771517276764,
                        -0.1326238065958023,
                        0.003818650497123599,
                        0.08333463966846466,
                        0.3227178454399109,
                        0.16714179515838623,
                        -0.15075711905956268,
                        0.14963962137699127,
                        0.06417369097471237,
                        -0.041990380734205246,
                        -0.14853908121585846,
                        -0.10869935899972916,
                        0.10211393237113953,
                        -0.06716806441545486,
                        0.03717010095715523,
                        -0.11691433191299438,
                        0.04520723968744278,
                        -0.04600583016872406,
                        0.04827944189310074,
                        0.14396856725215912,
                        -0.16820454597473145,
                        0.07418229430913925,
                        0.20644167065620422,
                        0.026675984263420105,
                        -0.15280456840991974,
                        -0.03183010220527649,
                        -0.009647422470152378,
                        -0.06867394596338272,
                        0.06112826615571976,
                        -0.05197487771511078,
                        -0.06866604089736938,
                        0.05469642952084541,
                        -0.050482768565416336,
                        -0.0014838197967037559,
                        -0.05334195867180824,
                        0.08479925990104675,
                        -0.02519446797668934,
                        0.025547197088599205,
                        0.0430736318230629,
                        -0.10096506029367447,
                        -0.05841364711523056,
                        0.07539466768503189,
                        -0.11255774646997452,
                        -0.013956044800579548,
                        0.051968470215797424,
                        -0.06209089607000351,
                        0.08431613445281982,
                        -0.06882429122924805,
                        0.0017523918068036437,
                        0.048492658883333206,
                        -0.15250778198242188,
                        -0.03617674857378006,
                        0.010183878242969513,
                        0.26328450441360474,
                        0.12293469905853271,
                        -0.11471816152334213,
                        -0.2030869722366333,
                        0.00038393359864130616,
                        -0.08993944525718689,
                        -0.136536106467247,
                        0.020946305245161057,
                        -0.2248273342847824,
                        0.041127823293209076,
                        0.02402050979435444,
                        0.16597288846969604,
                        0.19539779424667358,
                        -0.058718543499708176,
                        0.03745299205183983,
                        0.05443159490823746,
                        -0.03117886371910572,
                        0.20987479388713837,
                        0.023351071402430534,
                        0.04366488382220268,
                        0.04272260516881943,
                        -0.017352057620882988,
                        0.03018537349998951,
                        0.03136519715189934,
                        0.06881369650363922,
                        0.11462005227804184,
                        0.17962391674518585,
                        0.07751429080963135,
                        -0.09481678903102875,
                        -0.10656223446130753
                    ],
                    [
                        -0.07491554319858551,
                        -0.10348737239837646,
                        -0.16403494775295258,
                        -0.16073544323444366,
                        0.016512107104063034,
                        0.048747334629297256,
                        0.14669041335582733,
                        -0.01602686569094658,
                        0.18782222270965576,
                        -0.06073395162820816,
                        -0.0008364683017134666,
                        0.12726883590221405,
                        0.1773258000612259,
                        -0.05271550267934799,
                        -0.05888758972287178,
                        -0.1066497340798378,
                        0.0007384903728961945,
                        -0.02611398510634899,
                        -0.31865203380584717,
                        0.14386384189128876,
                        0.09829355776309967,
                        0.0872187688946724,
                        0.10691013932228088,
                        -0.03407568112015724,
                        -0.01727527566254139,
                        0.08698590844869614,
                        -0.055159423500299454,
                        -0.12276825308799744,
                        -0.11675875633955002,
                        -0.0672169029712677,
                        -0.006534494459629059,
                        0.026886841282248497,
                        0.05854550749063492,
                        0.13199160993099213,
                        0.08449731767177582,
                        -0.1610964834690094,
                        0.11797366291284561,
                        -0.219938725233078,
                        0.018650036305189133,
                        -0.09374582767486572,
                        0.09213738143444061,
                        -0.05519760400056839,
                        -0.02713748812675476,
                        -0.007805125787854195,
                        0.023388173431158066,
                        -0.05796510726213455,
                        -0.012304567731916904,
                        -0.13865746557712555,
                        0.0820750966668129,
                        -0.1842421293258667,
                        -0.07615786045789719,
                        0.01011322345584631,
                        -0.10415739566087723,
                        0.029446173459291458,
                        -0.00568239064887166,
                        0.014630082063376904,
                        -0.003973904997110367,
                        -0.03952471911907196,
                        0.003490044269710779,
                        -0.11609714478254318,
                        0.23130494356155396,
                        0.12407723814249039,
                        -0.10771969705820084,
                        -0.0691489577293396,
                        -0.03511279448866844,
                        -0.16604267060756683,
                        0.013627586886286736,
                        -0.012835548259317875,
                        -0.01776244305074215,
                        -0.16781741380691528,
                        0.0440574549138546,
                        0.1618121862411499,
                        -0.1092265248298645,
                        -0.11663539707660675,
                        -0.09563863277435303,
                        0.11792223155498505,
                        0.08944160491228104,
                        0.07817457616329193,
                        -0.10772433131933212,
                        0.03262219950556755,
                        0.08931039273738861,
                        0.05411486327648163,
                        -0.17913521826267242,
                        0.0013857935555279255,
                        -0.030093425884842873,
                        0.05528669059276581,
                        -0.10993713140487671,
                        0.01673806831240654,
                        -0.13654981553554535,
                        -0.04623545706272125,
                        0.07686074078083038,
                        0.05438058078289032,
                        -0.041713885962963104,
                        0.14615681767463684,
                        0.10022914409637451,
                        0.0384916327893734
                    ],
                    [
                        -0.004086867906153202,
                        0.14407292008399963,
                        -0.06177010014653206,
                        0.12991146743297577,
                        0.0031343784648925066,
                        0.08553680777549744,
                        0.20576941967010498,
                        -0.08142580837011337,
                        -0.1592463254928589,
                        -0.06481128931045532,
                        -0.03147311881184578,
                        0.08979912102222443,
                        0.009225414134562016,
                        0.03930821269750595,
                        -0.04558122530579567,
                        -0.15725235641002655,
                        0.24480406939983368,
                        -0.09875747561454773,
                        -0.031711578369140625,
                        0.07237527519464493,
                        0.1407427042722702,
                        0.1129305362701416,
                        -0.18081431090831757,
                        0.057720545679330826,
                        -0.010012364946305752,
                        -0.1633244752883911,
                        0.10305831581354141,
                        0.04000265896320343,
                        -0.03414823114871979,
                        -0.025384975597262383,
                        -0.052138593047857285,
                        0.06591872125864029,
                        -0.08454813063144684,
                        -0.09491472691297531,
                        -0.12255518138408661,
                        -0.09646982699632645,
                        0.03962326422333717,
                        0.03316476196050644,
                        -0.04953392967581749,
                        0.01432239729911089,
                        -0.040782831609249115,
                        0.0506742000579834,
                        0.07034885883331299,
                        0.08314354717731476,
                        0.09051148593425751,
                        -0.04877784848213196,
                        0.02839002199470997,
                        0.13890467584133148,
                        0.18528632819652557,
                        0.06080291047692299,
                        0.11562404781579971,
                        0.13513191044330597,
                        -0.1225164607167244,
                        -0.07925629615783691,
                        -0.019846908748149872,
                        0.18063484132289886,
                        0.11739448457956314,
                        0.0023338471073657274,
                        -0.1817077398300171,
                        -0.048111218959093094,
                        0.1679588109254837,
                        0.014368776232004166,
                        -0.1093035638332367,
                        0.003317794296890497,
                        0.032544735819101334,
                        -0.05009652301669121,
                        -0.028460701927542686,
                        -0.0006745638675056398,
                        0.12997642159461975,
                        0.08702486008405685,
                        0.12642285227775574,
                        -0.027841046452522278,
                        -0.023889798671007156,
                        0.23581244051456451,
                        0.06273987144231796,
                        -0.019307930022478104,
                        0.0289530660957098,
                        0.16911707818508148,
                        -0.06116359308362007,
                        0.003973631653934717,
                        0.08342205733060837,
                        0.07270462810993195,
                        -0.04464804753661156,
                        0.1152312383055687,
                        -0.16844861209392548,
                        0.07062698155641556,
                        0.02565617486834526,
                        0.14750540256500244,
                        -0.035641226917505264,
                        0.05034152790904045,
                        -0.06829927861690521,
                        0.06895672529935837,
                        0.07483157515525818,
                        -0.27184605598449707,
                        -0.13843576610088348,
                        -0.04781355708837509
                    ],
                    [
                        0.04116716608405113,
                        0.1264563798904419,
                        0.18263928592205048,
                        0.024139152839779854,
                        0.0463077574968338,
                        0.09974979609251022,
                        -0.1282394826412201,
                        0.030506055802106857,
                        -0.055170174688100815,
                        0.054200056940317154,
                        0.06992163509130478,
                        -0.04544113576412201,
                        -0.0054215905256569386,
                        -0.21227560937404633,
                        0.17809471487998962,
                        -0.11661078780889511,
                        0.00017958576790988445,
                        0.07785461097955704,
                        -0.03129972144961357,
                        0.1429564654827118,
                        -0.015610496513545513,
                        0.07193168997764587,
                        0.09511129558086395,
                        0.08009720593690872,
                        0.0316358245909214,
                        0.04270293936133385,
                        -0.08138896524906158,
                        0.2029033601284027,
                        -0.024984750896692276,
                        0.28835830092430115,
                        -0.14836522936820984,
                        -0.07098841667175293,
                        0.15193024277687073,
                        0.027013594284653664,
                        0.10600639879703522,
                        0.08010295033454895,
                        -0.03173401951789856,
                        -0.04937438294291496,
                        -0.06615394353866577,
                        -0.05116119608283043,
                        0.13332711160182953,
                        0.06454791873693466,
                        0.1652122139930725,
                        -0.1663157194852829,
                        0.1083221584558487,
                        7.257628021761775e-05,
                        0.05612091347575188,
                        -0.11850450932979584,
                        0.04336599260568619,
                        -0.1025882363319397,
                        0.1520993411540985,
                        0.16984403133392334,
                        -0.01849086955189705,
                        -0.1046421080827713,
                        0.0037316582165658474,
                        0.024165797978639603,
                        0.04833080992102623,
                        0.07231718301773071,
                        0.06423152983188629,
                        -0.10134180635213852,
                        -0.0894857719540596,
                        0.14346538484096527,
                        -0.19618858397006989,
                        -0.034332022070884705,
                        -0.09453794360160828,
                        0.19951438903808594,
                        0.004764511715620756,
                        0.037701766937971115,
                        0.03735063225030899,
                        0.23393937945365906,
                        0.19677980244159698,
                        0.034929309040308,
                        -0.0695500373840332,
                        0.04240559786558151,
                        -0.15156227350234985,
                        -0.008589843288064003,
                        0.03422381728887558,
                        -0.14385201036930084,
                        -0.18752391636371613,
                        0.04305422678589821,
                        -0.07707461714744568,
                        -0.003264374565333128,
                        -0.10074875503778458,
                        -0.004864668473601341,
                        -0.020297765731811523,
                        -0.04767182469367981,
                        0.07061373442411423,
                        -0.0844627097249031,
                        -0.048561304807662964,
                        0.0776190310716629,
                        -0.021618790924549103,
                        -0.036306872963905334,
                        0.033449381589889526,
                        0.039859265089035034,
                        0.04468020051717758,
                        -0.03025835007429123
                    ],
                    [
                        0.04724603891372681,
                        -0.08914568275213242,
                        0.09613413363695145,
                        -0.020459014922380447,
                        -0.11370120197534561,
                        0.025612948462367058,
                        0.024794163182377815,
                        0.13093514740467072,
                        0.02112680859863758,
                        0.17553669214248657,
                        -0.05086875706911087,
                        -0.2595968246459961,
                        -0.2212950438261032,
                        -0.12992562353610992,
                        -0.009023020043969154,
                        -0.09060443192720413,
                        0.1582167148590088,
                        -0.05540090426802635,
                        -0.18379253149032593,
                        0.013173378072679043,
                        0.02137070521712303,
                        0.017374522984027863,
                        -0.06901592761278152,
                        -0.022088132798671722,
                        -0.19699013233184814,
                        0.07313427329063416,
                        0.09842369705438614,
                        -0.1128135696053505,
                        0.01253013126552105,
                        0.009706114418804646,
                        -0.05495060235261917,
                        0.04789603129029274,
                        -0.10756561160087585,
                        -0.09658100455999374,
                        0.03385554999113083,
                        -0.04477284476161003,
                        -0.11730567365884781,
                        0.05554724112153053,
                        -0.22750070691108704,
                        -0.005393305327743292,
                        0.13048595190048218,
                        0.0292266346514225,
                        0.14253349602222443,
                        -0.1944546401500702,
                        -0.051666259765625,
                        -0.10210206359624863,
                        0.06596939265727997,
                        0.03479707986116409,
                        -0.0018924635369330645,
                        0.04137319698929787,
                        -0.007214444223791361,
                        0.1255485564470291,
                        0.021755309775471687,
                        0.17573851346969604,
                        0.07194464653730392,
                        -0.008201698772609234,
                        0.01805086061358452,
                        0.036720916628837585,
                        0.06238701939582825,
                        0.14779947698116302,
                        -0.16677811741828918,
                        -0.18002447485923767,
                        -0.02335088886320591,
                        0.03973332792520523,
                        0.09452805668115616,
                        -0.21667636930942535,
                        0.07733948528766632,
                        0.13778670132160187,
                        -0.15384699404239655,
                        0.07887602597475052,
                        -0.05655905231833458,
                        0.059422750025987625,
                        -0.029337728396058083,
                        -0.031748928129673004,
                        0.018056919798254967,
                        0.151050865650177,
                        0.05031583830714226,
                        0.047917548567056656,
                        -0.02802349627017975,
                        0.09355275332927704,
                        0.18061774969100952,
                        -0.08351370692253113,
                        0.032443802803754807,
                        0.059222254902124405,
                        0.056075211614370346,
                        -0.08723539859056473,
                        -0.07866919785737991,
                        0.12325890362262726,
                        -0.14121749997138977,
                        -0.14215388894081116,
                        -0.03466443717479706,
                        0.0960531011223793,
                        -0.0598931610584259,
                        0.04669591039419174,
                        -0.03768938407301903,
                        -0.10534445941448212
                    ],
                    [
                        0.011626847088336945,
                        0.13228215277194977,
                        0.11476034671068192,
                        -0.11814866214990616,
                        -0.05438731610774994,
                        -0.12541130185127258,
                        -0.013464120216667652,
                        0.18754947185516357,
                        0.23870506882667542,
                        0.11903900653123856,
                        -0.2140863537788391,
                        0.039602093398571014,
                        -0.061347804963588715,
                        0.0757487490773201,
                        0.04973168671131134,
                        0.006824276875704527,
                        0.04224283993244171,
                        0.041809361428022385,
                        0.03446516394615173,
                        -0.0006561045884154737,
                        0.04082348942756653,
                        -0.09708376228809357,
                        0.05204996094107628,
                        0.13091979920864105,
                        0.04750071465969086,
                        -0.07870063930749893,
                        -0.0018648506375029683,
                        -0.04738982394337654,
                        -0.19645525515079498,
                        -0.08689901977777481,
                        -0.14067374169826508,
                        0.06732993572950363,
                        -0.07568764686584473,
                        0.054122745990753174,
                        -0.05964134633541107,
                        -0.09945707023143768,
                        -0.04578431695699692,
                        -0.046267494559288025,
                        0.018372787162661552,
                        -0.16157494485378265,
                        -0.08253515511751175,
                        0.1247633770108223,
                        0.0085714440792799,
                        -0.041286785155534744,
                        0.0420713871717453,
                        -0.045226749032735825,
                        0.07460721582174301,
                        0.141538605093956,
                        0.012793214060366154,
                        0.006684988271445036,
                        0.033681344240903854,
                        -0.061069946736097336,
