{
    "in_shape": [
        null,
        null,
        1
    ],
    "layers": [
        {
            "type": "gru",
            "activation": "tanh",
            "shape": [
                null,
                null,
                16
            ],
            "weights": [
                [
                    [
                        -0.04058635234832764,
                        0.15084299445152283,
                        -0.3133597671985626,
                        0.19270023703575134,
                        -0.19819922745227814,
                        -0.15228725969791412,
                        0.2495425045490265,
                        0.3339264690876007,
                        0.30141547322273254,
                        -0.2037435919046402,
                        0.22812017798423767,
                        0.15876802802085876,
                        0.08832123875617981,
                        -0.11072328686714172,
                        -0.22987234592437744,
                        -0.11938698589801788,
                        0.2239169180393219,
                        0.07532298564910889,
                        0.061355769634246826,
                        -0.0031683146953582764,
                        0.1315881609916687,
                        -0.17092232406139374,
                        -0.09277844429016113,
                        -0.3271901607513428,
                        -0.027906447649002075,
                        0.26928892731666565,
                        0.21109822392463684,
                        -0.07831400632858276,
                        -0.10989817976951599,
                        -0.04102334380149841,
                        -0.25791361927986145,
                        0.27170076966285706,
                        0.2524844706058502,
                        -0.26243355870246887,
                        -0.02328088879585266,
                        0.14456990361213684,
                        -0.3469510078430176,
                        -0.230130136013031,
                        -0.21902404725551605,
                        0.07462751865386963,
                        0.04690435528755188,
                        -0.11376871168613434,
                        0.045737504959106445,
                        -0.11542777717113495,
                        0.23205116391181946,
                        0.32399091124534607,
                        0.2613438069820404,
                        -0.1496945321559906
                    ]
                ],
                [
                    [
                        0.04575490951538086,
                        0.2838154137134552,
                        0.03549632802605629,
                        -0.05761385336518288,
                        0.38187292218208313,
                        0.07798267900943756,
                        0.11196733266115189,
                        0.10139665752649307,
                        -0.09960383921861649,
                        -0.04547536373138428,
                        -0.07170432060956955,
                        -0.05494764819741249,
                        0.004466097801923752,
                        -0.010150108486413956,
                        0.1836165338754654,
                        0.03344051539897919,
                        -0.0008981390856206417,
                        0.20247779786586761,
                        -0.26057302951812744,
                        -0.22965122759342194,
                        0.1573229283094406,
                        0.1041983962059021,
                        0.22778747975826263,
                        0.0036855905782431364,
                        0.12285309284925461,
                        0.09341787546873093,
                        0.07454273849725723,
                        0.0840306282043457,
                        0.04633144289255142,
                        0.05693366006016731,
                        -0.032921742647886276,
                        0.09664084017276764,
                        0.031131450086832047,
                        -0.22754491865634918,
                        0.04484234377741814,
                        -0.06682420521974564,
                        0.1832951307296753,
                        0.16094358265399933,
                        0.12526851892471313,
                        0.2306067794561386,
                        -0.08926276862621307,
                        0.12030888348817825,
                        -0.03980842977762222,
                        -0.008343665860593319,
                        -0.031002968549728394,
                        -0.14226293563842773,
                        -0.3852027952671051,
                        -0.01670173369348049
                    ],
                    [
                        -0.1208256259560585,
                        0.1809740662574768,
                        0.2063094973564148,
                        0.04407442733645439,
                        -0.06316424906253815,
                        -0.03257179260253906,
                        0.11127112805843353,
                        0.09595760703086853,
                        0.11284149438142776,
                        -0.13241474330425262,
                        0.001680001150816679,
                        -0.175959974527359,
                        0.05439181998372078,
                        -0.060631994158029556,
                        -0.21752874553203583,
                        0.07218307256698608,
                        0.01911708526313305,
                        0.011371772736310959,
                        0.11151514947414398,
                        -0.15479162335395813,
                        -0.0021013207733631134,
                        0.06136136129498482,
                        0.11573836207389832,
                        -0.010815220884978771,
                        -0.15797051787376404,
                        -0.18552760779857635,
                        -0.2143108993768692,
                        -0.15761883556842804,
                        -0.15890812873840332,
                        -0.06027066335082054,
                        0.21565128862857819,
                        -0.04910740256309509,
                        -0.4106452167034149,
                        -0.26553648710250854,
                        0.02764763869345188,
                        -0.015343662351369858,
                        0.022359929978847504,
                        -0.008549246937036514,
                        0.1115502193570137,
                        -8.040852844715118e-05,
                        -0.19254633784294128,
                        0.14968836307525635,
                        0.05520753934979439,
                        0.27795520424842834,
                        -0.027618512511253357,
                        -0.15802326798439026,
                        0.21791762113571167,
                        0.18116427958011627
                    ],
                    [
                        0.3493587374687195,
                        0.15815863013267517,
                        0.027943622320890427,
                        0.136448472738266,
                        -0.13977733254432678,
                        0.07226048409938812,
                        0.16918405890464783,
                        -0.008787404745817184,
                        0.07895585894584656,
                        0.2620733976364136,
                        -0.2215140461921692,
                        0.029542226344347,
                        0.00571308471262455,
                        -0.22055646777153015,
                        0.10507368296384811,
                        0.1472223848104477,
                        -0.264607697725296,
                        0.05710398405790329,
                        -0.11967724561691284,
                        0.06405157595872879,
                        -0.03847142681479454,
                        0.1158994734287262,
                        -0.01507115364074707,
                        0.19173720479011536,
                        -0.10817449539899826,
                        -0.10516326129436493,
                        -0.2288150191307068,
                        -0.020644737407565117,
                        -0.018647154793143272,
                        0.15995708107948303,
                        0.053085267543792725,
                        0.019957439973950386,
                        0.0540805384516716,
                        -0.09416339546442032,
                        -0.13946624100208282,
                        0.017162390053272247,
                        -0.04271284118294716,
                        -0.10149835795164108,
                        0.025470616295933723,
                        0.3328319191932678,
                        0.2084180861711502,
                        -0.016490377485752106,
                        -0.04809403046965599,
                        0.01430004183202982,
                        -0.055362358689308167,
                        0.32023245096206665,
                        0.13599511981010437,
                        -0.009987888857722282
                    ],
                    [
                        -0.10959424078464508,
                        -0.20407521724700928,
                        -0.23084557056427002,
                        -0.07068852335214615,
                        0.08822381496429443,
                        0.153081476688385,
                        0.057130202651023865,
                        0.010167711414396763,
                        0.06534390896558762,
                        -0.07508805394172668,
                        -0.1538964807987213,
                        0.013175437226891518,
                        0.036203693598508835,
                        0.05180899053812027,
                        0.09311703592538834,
                        0.051912371069192886,
                        -0.05825773999094963,
                        -0.135527104139328,
                        -0.2106878012418747,
                        0.2356811910867691,
                        0.15588676929473877,
                        0.09020190685987473,
                        0.03697259724140167,
                        -0.01851227693259716,
                        0.2646421194076538,
                        -0.14125657081604004,
                        -0.1671946942806244,
                        -0.16045589745044708,
                        -0.2190474569797516,
                        -0.11050133407115936,
                        0.2038726955652237,
                        -0.21510252356529236,
                        0.16217735409736633,
                        0.02671532705426216,
                        0.2095259726047516,
                        -0.1086340993642807,
                        -0.25590234994888306,
                        0.024824241176247597,
                        0.15906491875648499,
                        0.1621684730052948,
                        -0.17547228932380676,
                        0.019547391682863235,
                        -0.23777593672275543,
                        -0.13595765829086304,
                        -0.009461103938519955,
                        -0.16337646543979645,
                        0.15277507901191711,
                        0.007128305733203888
                    ],
                    [
                        -0.0687737986445427,
                        -0.1263151913881302,
                        -0.11642037332057953,
                        -0.1609714776277542,
                        0.11971916258335114,
                        -0.034422896802425385,
                        0.14516101777553558,
                        -0.13229894638061523,
                        0.12167626619338989,
                        0.084626704454422,
                        -0.06858716905117035,
                        0.24067512154579163,
                        0.04244478419423103,
                        -0.09864693880081177,
                        0.26096010208129883,
                        -0.038325510919094086,
                        0.013733381405472755,
                        0.26992902159690857,
                        -0.05101195350289345,
                        0.18221226334571838,
                        -0.14181087911128998,
                        0.048400431871414185,
                        -0.02972431108355522,
                        -0.14981912076473236,
                        0.023162584751844406,
                        -0.3571321666240692,
                        0.20063672959804535,
                        0.006850164849311113,
                        0.13990357518196106,
                        0.07796870917081833,
                        0.153590589761734,
                        0.06737559288740158,
                        -0.11995739489793777,
                        0.09659895300865173,
                        -0.12739835679531097,
                        0.009334358386695385,
                        0.22593936324119568,
                        -0.08050461113452911,
                        0.06729685515165329,
                        -0.1038716584444046,
                        0.07870601862668991,
                        -0.09419043362140656,
                        -0.11101740598678589,
                        0.40485668182373047,
                        0.0611448734998703,
                        -0.1790376901626587,
                        0.05648203194141388,
                        -0.009492842480540276
                    ],
                    [
                        0.06669080257415771,
                        0.037825219333171844,
                        -0.12750190496444702,
                        -0.06031335890293121,
                        -0.018720809370279312,
                        -0.04366279020905495,
                        0.27219462394714355,
                        0.09861519187688828,
                        -0.03514835983514786,
                        -0.11317212134599686,
                        -0.14527083933353424,
                        -0.05833261460065842,
                        -0.009719405323266983,
                        -0.003901318646967411,
                        0.012666177935898304,
                        0.12696552276611328,
                        0.06556638330221176,
                        0.04995757341384888,
                        0.10142990946769714,
                        0.11530111730098724,
                        0.06255040317773819,
                        -0.296543687582016,
                        -0.038252875208854675,
                        -0.012388252653181553,
                        -0.006678418256342411,
                        -0.06022527813911438,
                        -0.04405387490987778,
                        -0.1293027400970459,
                        -0.12143730372190475,
                        -0.02574780583381653,
                        -0.35739487409591675,
                        0.13881129026412964,
                        0.0051377397030591965,
                        0.11873072385787964,
                        0.017034560441970825,
                        -0.3436439037322998,
                        -0.03293628245592117,
                        -0.2341431975364685,
                        0.4272608160972595,
                        -0.07833097130060196,
                        -0.061676278710365295,
                        -0.09984754770994186,
                        0.3286218047142029,
                        0.05201508849859238,
                        -0.06602378189563751,
                        0.065657839179039,
                        -0.10776382684707642,
                        -0.0526786707341671
                    ],
                    [
                        -0.02578139118850231,
                        0.17357659339904785,
                        -0.10207714885473251,
                        0.056903738528490067,
                        0.18357379734516144,
                        0.05559953674674034,
                        -0.1725861132144928,
                        0.29048240184783936,
                        -0.18438909947872162,
                        -0.0051965368911623955,
                        0.2286035418510437,
                        0.12286864221096039,
                        0.3705976605415344,
                        -0.18617360293865204,
                        -0.24809293448925018,
                        0.15129494667053223,
                        -0.018849343061447144,
                        0.004068128298968077,
                        -0.04198535159230232,
                        0.40847060084342957,
                        -0.0183264147490263,
                        0.1844603717327118,
                        -0.06844467669725418,
                        0.22392916679382324,
                        -0.003570801578462124,
                        0.06049155071377754,
                        0.022915218025445938,
                        -0.009613528847694397,
                        -0.07376165688037872,
                        -0.028675664216279984,
                        0.12324342876672745,
                        0.17895260453224182,
                        0.06249416247010231,
                        -0.009536370635032654,
                        -0.022720476612448692,
                        0.11043840646743774,
                        0.041598666459321976,
                        0.10084676742553711,
                        0.17791664600372314,
                        -0.1733172982931137,
                        0.08687593042850494,
                        0.009694662876427174,
                        0.10863973945379257,
                        0.045446306467056274,
                        0.03342504799365997,
                        -0.01926957257091999,
                        0.032586339861154556,
                        -0.12831319868564606
                    ],
                    [
                        -0.03946439549326897,
                        -0.1393706351518631,
                        -0.36852914094924927,
                        0.13638029992580414,
                        -0.012770645320415497,
                        -0.019779911264777184,
                        -0.012992167845368385,
                        0.2003045678138733,
                        -0.2020915001630783,
                        0.11540732532739639,
                        -0.07664549350738525,
                        0.13102585077285767,
                        -0.18951301276683807,
                        -0.14353767037391663,
                        0.1093161553144455,
                        0.06758193671703339,
                        0.0021130163222551346,
                        -0.13273242115974426,
                        0.0814799964427948,
                        -0.1046023741364479,
                        -0.006002753973007202,
                        -0.001214057207107544,
                        -0.016008997336030006,
                        0.2817283570766449,
                        -0.11831612139940262,
                        0.16076752543449402,
                        0.2742699980735779,
                        -0.03438222408294678,
                        0.22612424194812775,
                        0.042549729347229004,
                        -0.0397239550948143,
                        -0.1475505828857422,
                        -0.2939569652080536,
                        -0.27539199590682983,
                        0.00833435170352459,
                        -0.148799329996109,
                        -0.05002078041434288,
                        0.09775687009096146,
                        0.025181559845805168,
                        0.01143032405525446,
                        -0.18361982703208923,
                        -0.21273791790008545,
                        -0.07240375131368637,
                        0.020120833069086075,
                        -0.12550859153270721,
                        -0.0539291612803936,
                        0.15202204883098602,
                        -0.04933403432369232
                    ],
                    [
                        0.21529893577098846,
                        -0.20489725470542908,
                        0.054937899112701416,
                        0.04097192734479904,
                        0.04242265224456787,
                        -0.05835901200771332,
                        -0.13280212879180908,
                        0.10050593316555023,
                        -0.18586425483226776,
                        0.038273029029369354,
                        -0.23358604311943054,
                        0.20630188286304474,
                        0.20629382133483887,
                        0.01725861243903637,
                        -0.07353357970714569,
                        -0.21890129148960114,
                        0.18071295320987701,
                        -0.024046696722507477,
                        -0.21680420637130737,
                        -0.14087937772274017,
                        -0.006887819617986679,
                        -0.2513534724712372,
                        -0.04087471589446068,
                        -0.048470474779605865,
                        0.10336688905954361,
                        0.3189101815223694,
                        -0.20850352942943573,
                        -0.011673523113131523,
                        -0.0973341166973114,
                        0.0724392756819725,
                        0.14259418845176697,
                        0.13580545783042908,
                        -0.09004335850477219,
                        -0.07687396556138992,
                        -0.1330510526895523,
                        0.030875161290168762,
                        -0.09716662764549255,
                        -0.23319260776042938,
                        0.042735178023576736,
                        0.007067367434501648,
                        0.1672115921974182,
                        -0.11129453778266907,
                        -0.04383750259876251,
                        0.11899515241384506,
                        0.007214745040982962,
                        -0.23415479063987732,
                        0.0031895190477371216,
                        0.24123263359069824
                    ],
                    [
                        0.0005022531258873641,
                        -0.2013261467218399,
                        0.1684022843837738,
                        0.06318715214729309,
                        0.1346900463104248,
                        0.16184115409851074,
                        -0.008250663988292217,
                        0.005890653934329748,
                        -0.07244261354207993,
                        -0.0831834003329277,
                        0.15951727330684662,
                        -0.02978106401860714,
                        -0.23817436397075653,
                        -0.11377404630184174,
                        -0.2712748646736145,
                        -0.0944727286696434,
                        -0.13962654769420624,
                        -0.17824801802635193,
                        -0.14404895901679993,
                        0.011754048988223076,
                        0.2899654507637024,
                        0.03425724431872368,
                        -0.21433475613594055,
                        -0.08171697705984116,
                        0.3203536868095398,
                        -0.17339785397052765,
                        0.04655197262763977,
                        -0.1865057647228241,
                        -0.052393849939107895,
                        0.18288521468639374,
                        -0.12802383303642273,
                        0.1198062002658844,
                        -0.11373437196016312,
                        -0.04872644692659378,
                        -0.24230940639972687,
                        -0.005405744072049856,
                        0.17600534856319427,
                        -0.04850033298134804,
                        -0.08975677192211151,
                        0.0038376108277589083,
                        -0.05382154881954193,
                        -0.06383886933326721,
                        -0.06717373430728912,
                        0.10220413655042648,
                        -0.28479400277137756,
                        0.14072690904140472,
                        -0.02289336547255516,
                        -0.08102427423000336
                    ],
                    [
                        -0.11167725920677185,
                        -0.1324552297592163,
                        -0.10395987331867218,
                        0.16929499804973602,
                        -0.07579267024993896,
                        -0.08082634955644608,
                        0.12406870722770691,
                        0.008843330666422844,
                        -0.1411493718624115,
                        -0.15851454436779022,
                        0.21962299942970276,
                        -0.053760137408971786,
                        0.23062418401241302,
                        -0.036578062921762466,
                        0.06862819194793701,
                        -0.10716529935598373,
                        -0.12364877760410309,
                        0.10191535949707031,
                        0.09024958312511444,
                        -0.17737700045108795,
                        0.05361329764127731,
                        0.2535286843776703,
                        0.24897003173828125,
                        0.0002467444573994726,
                        -0.09765540063381195,
                        -0.15963026881217957,
                        -0.06285092234611511,
                        -0.17951075732707977,
                        0.07409535348415375,
                        -0.13836632668972015,
                        -0.07614044100046158,
                        0.15028008818626404,
                        0.13303324580192566,
                        0.11866271495819092,
                        -0.26408079266548157,
                        0.03602777048945427,
                        0.015944868326187134,
                        -0.02948535420000553,
                        0.008348680101335049,
                        0.14860853552818298,
                        0.022602785378694534,
                        -0.3784977197647095,
                        0.017127225175499916,
                        -0.23012784123420715,
                        -0.0610818974673748,
                        -0.1196938008069992,
                        0.005473155528306961,
                        0.2757497727870941
                    ],
                    [
                        0.07689063996076584,
                        0.0038492735475301743,
                        -0.056601881980895996,
                        0.16594171524047852,
                        -0.06506277620792389,
                        -0.2311449944972992,
                        0.11378549039363861,
                        0.06334429234266281,
                        -0.278800904750824,
                        0.04502422735095024,
                        -0.03498296067118645,
                        0.015563936904072762,
                        0.07663667947053909,
                        0.19366921484470367,
                        0.07302995771169662,
                        0.15893620252609253,
                        0.04503990709781647,
                        -0.32872274518013,
                        -0.1228184700012207,
                        0.11339918524026871,
                        -0.13168402016162872,
                        0.04587280750274658,
                        0.32111987471580505,
                        -0.03980683535337448,
                        0.1519259363412857,
                        -0.14742696285247803,
                        -0.12402168661355972,
                        0.06286048144102097,
                        0.12109342962503433,
                        -0.014437602832913399,
                        -0.032359153032302856,
                        -0.25427910685539246,
                        0.05374675616621971,
                        -0.045173414051532745,
                        -0.0682707354426384,
                        0.1561184823513031,
                        0.2635909914970398,
                        -0.27415886521339417,
                        -0.0678551122546196,
                        -0.22741425037384033,
                        -0.15331006050109863,
                        0.17463725805282593,
                        -0.010925576090812683,
                        0.05542704463005066,
                        -0.08515682816505432,
                        0.11275282502174377,
                        -0.11699269711971283,
                        0.028896387666463852
                    ],
                    [
                        0.030718261376023293,
                        0.27267947793006897,
                        -0.03694690391421318,
                        0.20279233157634735,
                        -0.023841261863708496,
                        0.007608007173985243,
                        0.10027897357940674,
                        0.11787572503089905,
                        -0.1345265805721283,
                        -0.13035264611244202,
                        -0.15718303620815277,
                        0.04520633816719055,
                        -0.14200472831726074,
                        -0.21162287890911102,
                        0.01015839260071516,
                        -0.04985274747014046,
                        0.3166019916534424,
                        0.048059940338134766,
                        -0.19307656586170197,
                        -0.10110068321228027,
                        -0.02895241230726242,
                        -0.055808424949645996,
                        0.061620503664016724,
                        -0.22396671772003174,
                        0.19586068391799927,
                        -0.16245239973068237,
                        -0.10322639346122742,
                        -0.053568035364151,
                        0.06573645770549774,
                        0.13974504172801971,
                        -0.009208090603351593,
                        0.010249441489577293,
                        -0.028115160763263702,
                        0.17313003540039062,
                        -0.025197308510541916,
                        0.11797397583723068,
                        -0.12764522433280945,
                        0.31989237666130066,
                        -0.1006721779704094,
                        -0.15024620294570923,
                        -0.06359589099884033,
                        -0.18245519697666168,
                        0.11726169288158417,
                        -0.1000162735581398,
                        0.2722839415073395,
                        0.09293676912784576,
                        0.2514647841453552,
                        -0.11930931359529495
                    ],
                    [
                        0.125135138630867,
                        0.05801565945148468,
                        -0.0628848448395729,
                        0.10756345838308334,
                        -0.0027317479252815247,
                        0.3003785312175751,
                        0.043718121945858,
                        -0.13603460788726807,
                        0.023686900734901428,
                        0.06240462884306908,
                        0.21511472761631012,
                        -0.002479750197380781,
                        0.11060815304517746,
                        0.017406204715371132,
                        0.18567059934139252,
                        0.24930629134178162,
                        0.2293742150068283,
                        -0.053711533546447754,
                        -0.1709071397781372,
                        0.06049530953168869,
                        0.10240290313959122,
                        0.06549794226884842,
                        -0.030518189072608948,
                        -0.37235233187675476,
                        -0.34888121485710144,
                        0.2567083537578583,
                        0.01556716114282608,
                        -0.010913051664829254,
                        -0.2265380471944809,
                        0.02171403169631958,
                        -0.23462919890880585,
                        -0.13630099594593048,
                        -0.08701774477958679,
                        0.09232857078313828,
                        -0.07328929007053375,
                        0.08571987599134445,
                        0.09408677369356155,
                        0.0242233294993639,
                        -0.012709506787359715,
                        -0.0008936133235692978,
                        -0.023940779268741608,
                        -0.028418462723493576,
                        -0.0838669016957283,
                        0.04898076504468918,
                        -0.21880032122135162,
                        -0.1219603419303894,
                        0.16332873702049255,
                        -0.011202912777662277
                    ],
                    [
                        -0.02003622241318226,
                        0.034844234585762024,
                        0.18187488615512848,
                        0.2941559851169586,
                        0.2160567343235016,
                        -0.09967610239982605,
                        0.010817301459610462,
                        -0.04515296220779419,
                        -0.007580128498375416,
                        -0.01717408187687397,
                        -0.10106037557125092,
                        0.12350975722074509,
                        -0.1491418331861496,
                        0.08795327693223953,
                        0.047142792493104935,
                        -0.30873915553092957,
                        -0.2667549252510071,
                        0.06780803948640823,
                        0.015198029577732086,
                        0.21361543238162994,
                        -0.12380284070968628,
                        0.3383222818374634,
                        0.12505997717380524,
                        -0.15172874927520752,
                        -0.1451146900653839,
                        0.2577061057090759,
                        -0.05923491716384888,
                        -0.1124996691942215,
                        -0.10604014992713928,
                        0.16465622186660767,
                        -0.0034158783964812756,
                        -0.03225750848650932,
                        -0.04029861092567444,
                        0.06590256839990616,
                        0.16102035343647003,
                        -0.3253171443939209,
                        -0.05809705704450607,
                        0.006372462958097458,
                        0.002370005939155817,
                        -0.25929564237594604,
                        -0.0548618882894516,
                        -0.07232974469661713,
                        -0.006167173385620117,
                        0.037180669605731964,
                        -0.00095643155509606,
                        0.10632047802209854,
                        -0.024084920063614845,
                        0.06019151210784912
                    ],
                    [
                        -0.09515468776226044,
                        0.14598165452480316,
                        -0.30309420824050903,
                        -0.025748273357748985,
                        -0.014619909226894379,
                        -0.16685961186885834,
                        -0.10452846437692642,
                        -0.22807912528514862,
                        0.11213339865207672,
                        -0.1341266632080078,
                        -0.0062655797228217125,
                        -0.07996904104948044,
                        -0.020565589889883995,
                        -0.2334555685520172,
                        0.11937376856803894,
                        -0.19132950901985168,
                        0.03028957173228264,
                        -0.12710143625736237,
                        -0.04774019122123718,
                        -0.1024642288684845,
                        0.043324701488018036,
                        0.08421847969293594,
                        0.142034649848938,
                        -0.001199867227114737,
                        0.10521122068166733,
                        0.12261629104614258,
                        0.2299797683954239,
                        -0.2271117866039276,
                        -0.19708387553691864,
                        -0.019983019679784775,
                        0.06822305172681808,
                        -0.16934902966022491,
                        -0.051168400794267654,
                        -0.026309441775083542,
                        -0.23290686309337616,
                        0.13449212908744812,
                        -0.205677330493927,
                        -0.027272356674075127,
                        0.15140163898468018,
                        -0.0813629999756813,
                        0.31095075607299805,
                        0.2380291372537613,
                        0.1495775729417801,
                        0.09657946228981018,
                        -0.11251651495695114,
                        0.1586129069328308,
                        -0.09972693026065826,
                        0.011528204195201397
                    ]
                ],
                [
                    [
                        -0.03772680461406708,
                        -0.04506244510412216,
                        -0.06632404774427414,
                        -0.03821742534637451,
                        -0.007769353687763214,
                        0.02358398027718067,
                        -0.020757509395480156,
                        0.07474764436483383,
                        0.010702925734221935,
                        0.04441113397479057,
                        -0.06577690690755844,
                        -0.022147545590996742,
                        0.05174846574664116,
                        -7.038943294901401e-05,
                        0.028245598077774048,
                        0.0962955504655838,
                        -0.002226645825430751,
                        -0.06198091059923172,
                        0.021052077412605286,
                        0.028185149654746056,
                        0.004234388004988432,
                        -0.061708010733127594,
                        0.04663430526852608,
                        -0.06813134998083115,
                        -0.0786905586719513,
                        0.048887815326452255,
                        0.035320281982421875,
                        -0.04278908669948578,
                        -0.03595494478940964,
                        -0.02405795268714428,
                        -0.03910280019044876,
                        -0.07676880806684494,
                        0.0021849635522812605,
                        0.09416576474905014,
                        0.027621230110526085,
                        -0.04890852048993111,
                        -0.02238822914659977,
                        0.048675309866666794,
                        -0.014080601744353771,
                        0.029393119737505913,
                        0.049811676144599915,
                        -0.02610044740140438,
                        0.020256752148270607,
                        -0.0037697218358516693,
                        -0.002187870442867279,
                        0.0015624773222953081,
                        0.00017416909395251423,
                        -0.04185215383768082
                    ],
                    [
                        -0.0523001067340374,
                        0.04457981139421463,
                        0.12606346607208252,
                        0.03762587904930115,
                        0.12362470477819443,
                        0.05676368996500969,
                        0.004124246537685394,
                        0.02585870400071144,
                        -0.057163167744874954,
                        0.003190229181200266,
                        0.021317629143595695,
                        -0.10942494124174118,
                        -0.04035172238945961,
                        0.014921179972589016,
                        -0.04441234469413757,
                        0.01720542088150978,
                        0.021355843171477318,
                        0.0019852863624691963,
                        -0.055451054126024246,
                        0.007389445789158344,
                        0.01878552883863449,
                        0.036798711866140366,
                        0.02211715094745159,
                        -0.0003519257006701082,
                        0.02774159051477909,
                        0.016767334192991257,
                        -0.009970641694962978,
                        -0.03636527806520462,
                        0.04309872165322304,
                        -0.019618520513176918,
                        -0.0030217093881219625,
                        0.07146915048360825,
                        0.01660940796136856,
                        -0.04562840983271599,
                        0.039068251848220825,
                        0.08489268273115158,
                        -0.032223060727119446,
                        0.0071594067849218845,
                        0.03360100835561752,
                        0.04186646267771721,
                        -0.05506740137934685,
                        0.04905940219759941,
                        0.02518208883702755,
                        0.04726708307862282,
                        0.023414334282279015,
                        -0.06285123527050018,
                        0.007608294021338224,
                        0.05641058087348938
                    ]
                ]
            ]
        },
        {
            "type": "dense",
            "activation": "sigmoid",
            "shape": [
                null,
                null,
                16
            ],
            "weights": [
                [
                    [
                        -0.041344404220581055,
                        -0.1961149126291275,
                        -0.4586148262023926,
                        -0.21756474673748016,
                        0.46682730317115784,
                        -0.21028803288936615,
                        0.13988041877746582,
                        -0.11692183464765549,
                        0.2646508812904358,
                        -0.14783397316932678,
                        0.4230998456478119,
                        0.03188106790184975,
                        0.16411404311656952,
                        0.2553935945034027,
                        -0.1868814080953598,
                        -0.0881614089012146
                    ],
                    [
                        -0.19999109208583832,
                        0.7379101514816284,
                        -0.03802669048309326,
                        -0.09072573482990265,
                        0.2779679298400879,
                        -0.36505404114723206,
                        0.16862614452838898,
                        0.08835774660110474,
                        0.0005143806338310242,
                        0.17569272220134735,
                        -0.21483543515205383,
                        -0.09280860424041748,
                        0.05627279728651047,
                        -0.18315905332565308,
                        -0.13018986582756042,
                        -0.1405104398727417
                    ],
                    [
                        -0.11955520510673523,
                        -0.055994730442762375,
                        -0.00730537623167038,
                        -0.08163128048181534,
                        -0.3191854953765869,
                        -0.5352224111557007,
                        -0.333558589220047,
                        0.06249649077653885,
                        0.4817492365837097,
                        -0.15953242778778076,
                        -0.1918209195137024,
                        -0.12206213176250458,
                        -0.1276090145111084,
                        0.11357392370700836,
                        -0.05953802168369293,
                        0.36109456419944763
                    ],
                    [
                        0.27059730887413025,
                        -0.13022290170192719,
                        0.24987581372261047,
                        -0.02210715413093567,
                        0.3284289836883545,
                        -0.22192496061325073,
                        0.24778562784194946,
                        0.39031150937080383,
                        -0.00550311803817749,
                        -0.09944933652877808,
                        -0.06795132905244827,
                        0.5237692594528198,
                        0.02658502385020256,
                        -0.1609123945236206,
                        0.13208821415901184,
                        0.3783072233200073
                    ],
                    [
                        -0.18849334120750427,
                        -0.08673269301652908,
                        -0.06291764974594116,
                        -0.24308784306049347,
                        0.06871078163385391,
                        0.33057934045791626,
                        0.32025381922721863,
                        -0.10412570089101791,
                        0.1897374391555786,
                        0.24685965478420258,
                        -0.0516500249505043,
                        -0.36218053102493286,
                        0.14145468175411224,
                        -0.273690402507782,
                        0.044940125197172165,
                        0.5820401310920715
                    ],
                    [
                        -0.14874933660030365,
                        0.1670447289943695,
                        -0.11617015302181244,
                        0.0042821746319532394,
                        0.14015045762062073,
                        0.11392172425985336,
                        -0.286763459444046,
                        0.22371086478233337,
                        -0.542595624923706,
                        -0.1746658980846405,
                        0.13586752116680145,
                        -0.08653473854064941,
                        -0.145056813955307,
                        0.2445974349975586,
                        -0.3466010093688965,
                        0.468708336353302
                    ],
                    [
                        -0.43347635865211487,
                        -0.17701540887355804,
                        -0.151295468211174,
                        0.0468444898724556,
                        -0.018122658133506775,
                        0.028468675911426544,
                        0.10404891520738602,
                        -0.40573611855506897,
                        -0.06900284439325333,
                        0.06997861713171005,
                        -0.37015217542648315,
                        0.5412071347236633,
                        -0.19658377766609192,
                        -0.05535878986120224,
                        -0.31076779961586,
                        0.03506384789943695
                    ],
                    [
                        0.06709623336791992,
                        -0.4010240137577057,
                        0.0022305119782686234,
                        -0.059026509523391724,
                        0.16980309784412384,
                        -0.18781301379203796,
                        -0.19140326976776123,
                        0.22271612286567688,
                        -0.17164699733257294,
                        0.6505513191223145,
                        -0.30394086241722107,
                        -0.14833392202854156,
                        0.19763022661209106,
                        0.20526936650276184,
                        -0.14285163581371307,
                        -0.11037034541368484
                    ],
                    [
                        -0.03114631399512291,
                        0.18292716145515442,
                        -0.1573406159877777,
                        -0.07188019901514053,
                        -0.18311859667301178,
                        0.19756177067756653,
                        -0.062033623456954956,
                        0.3219093680381775,
                        0.28750690817832947,
                        0.5153485536575317,
                        0.38154536485671997,
                        0.3080567419528961,
                        -0.40525633096694946,
                        0.04517035558819771,
                        -0.02402455173432827,
                        0.006111661903560162
                    ],
                    [
                        -0.5667694807052612,
                        -0.16267356276512146,
                        0.34684962034225464,
                        -0.2515145540237427,
                        -0.022322356700897217,
                        -0.3013373613357544,
                        0.013741161674261093,
                        -0.044734030961990356,
                        -0.27915874123573303,
                        0.07751921564340591,
                        0.377140074968338,
                        -0.00872320868074894,
                        -0.0721367821097374,
                        -0.033505529165267944,
                        0.37324705719947815,
                        -0.05799749493598938
                    ],
                    [
                        0.1209225058555603,
                        0.04135414958000183,
                        -0.40825745463371277,
                        0.5440560579299927,
                        -0.1487833559513092,
                        -0.341532826423645,
                        0.04497164487838745,
                        -0.22892099618911743,
                        -0.22306117415428162,
                        0.24614471197128296,
                        0.20878690481185913,
                        0.030238080769777298,
                        0.13112588226795197,
                        -0.13599878549575806,
                        0.2598689794540405,
                        0.2640390992164612
                    ],
                    [
                        -0.15106740593910217,
                        -0.29681774973869324,
                        -0.1794435977935791,
                        0.14514918625354767,
                        -0.19067582488059998,
                        -0.10808025300502777,
                        0.1730789840221405,
                        0.43881750106811523,
                        -0.06723381578922272,
                        -0.16639605164527893,
                        0.10155618190765381,
                        -0.18027058243751526,
                        -0.0670163482427597,
                        -0.5547506213188171,
                        -0.3648572862148285,
                        -0.2118358016014099
                    ],
                    [
                        0.04433819651603699,
                        -0.09817477315664291,
                        0.22837543487548828,
                        0.31700271368026733,
                        0.5436336994171143,
                        0.0058612581342458725,
                        -0.34080085158348083,
                        -0.22813668847084045,
                        0.17699545621871948,
                        0.06970688700675964,
                        0.09045744687318802,
                        -0.1884242743253708,
                        -0.4403749108314514,
                        -0.3105025291442871,
                        -0.04192172363400459,
                        0.0037817752454429865
                    ],
                    [
                        0.26059308648109436,
                        0.04242933169007301,
                        0.4754079580307007,
                        -0.0011030249297618866,
                        -0.2154259979724884,
                        -0.18290340900421143,
                        0.2406322956085205,
                        -0.29775986075401306,
                        -0.021034102886915207,
                        0.16372092068195343,
                        0.3209754526615143,
                        -0.02050890028476715,
                        0.07105459272861481,
                        0.05507159233093262,
                        -0.5750747919082642,
                        0.09145865589380264
                    ],
                    [
                        -0.3120500445365906,
                        0.08437463641166687,
                        0.17930959165096283,
                        0.2608131468296051,
                        0.03736824542284012,
                        0.18448109924793243,
                        -0.3852657377719879,
                        0.09607324749231339,
                        0.22940348088741302,
                        0.013985499739646912,
                        0.1617165058851242,
                        0.2358657270669937,
                        0.659386157989502,
                        -0.132593035697937,
                        -0.12057626247406006,
                        0.026922548189759254
                    ],
                    [
                        -0.3063116669654846,
                        -0.03254643827676773,
                        0.17643916606903076,
                        0.5643460750579834,
                        0.0752948746085167,
                        0.052663225680589676,
                        0.43426716327667236,
                        0.21594096720218658,
                        0.18425603210926056,
                        -0.025436151772737503,
                        -0.061820872128009796,
                        -0.16619721055030823,
                        -0.09625468403100967,
                        0.48586827516555786,
                        0.02117915451526642,
                        0.0036533940583467484
                    ]
                ],
                [
                    -0.01668594777584076,
                    0.005080946255475283,
                    -0.08302664011716843,
                    0.055614423006772995,
                    0.003708602162078023,
                    0.0027124607004225254,
                    -0.018105795606970787,
                    0.01003362238407135,
                    0.05556450039148331,
                    -0.04701904207468033,
                    0.007411368191242218,
                    0.045649874955415726,
                    -0.06819736957550049,
                    -0.005884747486561537,
                    0.0418008528649807,
                    -0.00044254312524572015
                ]
            ]
        },
        {
            "type": "dense",
            "activation": "",
            "shape": [
                null,
                null,
                1
            ],
            "weights": [
                [
                    [
                        0.055521368980407715
                    ],
                    [
                        -0.21528956294059753
                    ],
                    [
                        -0.5066168308258057
                    ],
                    [
                        0.15034177899360657
                    ],
                    [
                        -0.226598858833313
                    ],
                    [
                        -0.029506266117095947
                    ],
                    [
                        -0.12620769441127777
                    ],
                    [
                        -0.07346529513597488
                    ],
                    [
                        -0.008297919295728207
                    ],
                    [
                        0.29573574662208557
                    ],
                    [
                        0.4612724184989929
                    ],
                    [
                        0.3951224386692047
                    ],
                    [
                        0.11804836988449097
                    ],
                    [
                        0.27835017442703247
                    ],
                    [
                        0.1739237755537033
                    ],
                    [
                        -0.14026807248592377
                    ]
                ],
                [
                    -0.02652810513973236
                ]
            ]
        }
    ]
}