{
    "in_shape": [
        null,
        null,
        2
    ],
    "layers": [
        {
            "type": "gru",
            "activation": "tanh",
            "shape": [
                null,
                null,
                16
            ],
            "weights": [
                [
                    [
                        -0.03827124834060669,
                        -0.09771676361560822,
                        -0.3443252444267273,
                        0.08378827571868896,
                        0.07196971774101257,
                        0.28768593072891235,
                        0.3076476454734802,
                        0.059860438108444214,
                        0.1248217523097992,
                        -0.12477155029773712,
                        -0.021911203861236572,
                        0.09958142042160034,
                        0.3100261688232422,
                        0.2770833969116211,
                        0.2924249768257141,
                        -0.036337316036224365,
                        0.16645967960357666,
                        -0.108427032828331,
                        -0.05449831485748291,
                        -0.22520098090171814,
                        0.2685610055923462,
                        -0.289124071598053,
                        0.06207609176635742,
                        -0.02042984962463379,
                        0.03150591254234314,
                        -0.24229370057582855,
                        -0.1595906764268875,
                        0.0749417245388031,
                        -0.22767764329910278,
                        0.27749133110046387,
                        -0.341646671295166,
                        0.33816421031951904,
                        0.013986974954605103,
                        0.1243109405040741,
                        0.13110625743865967,
                        0.04051244258880615,
                        -0.13029809296131134,
                        -0.16651961207389832,
                        0.2678389549255371,
                        0.21016323566436768,
                        0.16756486892700195,
                        0.3377320170402527,
                        0.09040194749832153,
                        -0.3258386552333832,
                        -0.1106034517288208,
                        0.1938900351524353,
                        -0.14233121275901794,
                        -0.04643276333808899
                    ],
                    [
                        0.09267807006835938,
                        -0.0691443681716919,
                        0.19751489162445068,
                        -0.08095616102218628,
                        0.1762552261352539,
                        0.16731011867523193,
                        -0.2722443640232086,
                        -0.25045835971832275,
                        -0.15759891271591187,
                        0.19665294885635376,
                        -0.1712510734796524,
                        0.03931552171707153,
                        -0.17206516861915588,
                        0.10665753483772278,
                        0.3384089469909668,
                        0.09557858109474182,
                        -0.1626427322626114,
                        0.25457847118377686,
                        0.011882394552230835,
                        0.3438056707382202,
                        -0.19239071011543274,
                        0.06934621930122375,
                        -0.2641899585723877,
                        0.11317211389541626,
                        0.030853450298309326,
                        -0.28326815366744995,
                        -0.08000949025154114,
                        0.19796651601791382,
                        -0.1461852341890335,
                        -0.07591474056243896,
                        0.21835017204284668,
                        -0.18582022190093994,
                        0.33850616216659546,
                        0.30230629444122314,
                        0.06011605262756348,
                        -0.33787786960601807,
                        0.2270452380180359,
                        -0.09614488482475281,
                        -0.34551355242729187,
                        -0.1559799760580063,
                        -0.2724417448043823,
                        0.034528911113739014,
                        0.26986807584762573,
                        -0.2025541514158249,
                        -0.31023597717285156,
                        0.07066372036933899,
                        0.05866369605064392,
                        -0.013120025396347046
                    ]
                ],
                [
                    [
                        -0.11448514461517334,
                        0.030641058459877968,
                        -0.16718511283397675,
                        0.06660778075456619,
                        0.09255360811948776,
                        0.2005622684955597,
                        -0.13591332733631134,
                        0.0004895675228908658,
                        -0.22020365297794342,
                        -0.0021603431086987257,
                        0.05539966747164726,
                        -0.09280532598495483,
                        -0.03737913817167282,
                        0.009524388238787651,
                        -0.04578964039683342,
                        0.19810038805007935,
                        -0.3500928282737732,
                        0.06361143290996552,
                        0.13639602065086365,
                        0.21655234694480896,
                        -0.1696006953716278,
                        -0.18946264684200287,
                        0.016367139294743538,
                        0.12799611687660217,
                        0.05204198136925697,
                        0.11910583823919296,
                        -0.0003233607276342809,
                        -0.09918980300426483,
                        -0.022498207166790962,
                        0.0021542140748351812,
                        -0.23782391846179962,
                        -0.2756076157093048,
                        0.011904238723218441,
                        0.09945592284202576,
                        -0.22229978442192078,
                        0.026400107890367508,
                        -0.06612001359462738,
                        0.1508159190416336,
                        -0.023268651217222214,
                        0.06894717365503311,
                        -0.26180681586265564,
                        0.28432604670524597,
                        -0.0933610275387764,
                        -0.09356525540351868,
                        0.1957857757806778,
                        -0.06592098623514175,
                        -0.13778528571128845,
                        0.1703985184431076
                    ],
                    [
                        0.09841993451118469,
                        0.10921910405158997,
                        -0.12415417283773422,
                        0.025432758033275604,
                        0.18203511834144592,
                        -0.2342321127653122,
                        -0.025562070310115814,
                        0.23897556960582733,
                        0.0009867921471595764,
                        -0.05119431018829346,
                        0.27045711874961853,
                        -0.11057602614164352,
                        0.08019443601369858,
                        -0.08807073533535004,
                        -0.12166378647089005,
                        -0.30465012788772583,
                        0.03749656304717064,
                        0.1836313009262085,
                        0.19538277387619019,
                        0.07468266040086746,
                        0.21499113738536835,
                        0.03993740677833557,
                        -0.17020916938781738,
                        0.027054235339164734,
                        0.21435800194740295,
                        0.15707042813301086,
                        0.11513184010982513,
                        0.237138032913208,
                        -0.060828495770692825,
                        -0.15465867519378662,
                        -0.20391574501991272,
                        -0.04816827178001404,
                        0.0010360422311350703,
                        0.09788556396961212,
                        0.01532190851867199,
                        -0.1817542016506195,
                        -0.2235317826271057,
                        0.07434497028589249,
                        0.022848380729556084,
                        0.08277685195207596,
                        0.05109074339270592,
                        -0.0569152906537056,
                        0.3191925287246704,
                        -0.031809624284505844,
                        0.10598520934581757,
                        -0.012311168015003204,
                        0.001444537192583084,
                        -0.11349701136350632
                    ],
                    [
                        0.07642412930727005,
                        0.004975695163011551,
                        -0.08376549184322357,
                        -0.14067485928535461,
                        0.26458242535591125,
                        -0.03911910206079483,
                        -0.10140339285135269,
                        -0.028261639177799225,
                        -0.06412452459335327,
                        -0.23729416728019714,
                        -0.0531783401966095,
                        0.060553207993507385,
                        0.15267544984817505,
                        0.06782838702201843,
                        0.2705882787704468,
                        -0.056954674422740936,
                        0.15555988252162933,
                        -0.47759121656417847,
                        -0.0905056893825531,
                        0.09605228900909424,
                        0.1268690526485443,
                        -0.03689134493470192,
                        0.14728863537311554,
                        0.2381700873374939,
                        0.09927818179130554,
                        -0.025175321847200394,
                        0.11867524683475494,
                        0.043731387704610825,
                        -0.25049856305122375,
                        0.02990376576781273,
                        0.10976064950227737,
                        -0.12287036329507828,
                        -0.1336541324853897,
                        0.045769017189741135,
                        0.14525490999221802,
                        0.002209328580647707,
                        -0.14283615350723267,
                        -0.11744850873947144,
                        0.08078441023826599,
                        0.0917876586318016,
                        -0.13694415986537933,
                        0.12159176170825958,
                        -0.07174891233444214,
                        0.0465485155582428,
                        0.031312741339206696,
                        0.2911451458930969,
                        -0.11728549748659134,
                        0.0012193834409117699
                    ],
                    [
                        0.1667221039533615,
                        -0.0173407644033432,
                        -0.10927324742078781,
                        -0.32654958963394165,
                        -0.20759615302085876,
                        0.1254996955394745,
                        0.04428885132074356,
                        -0.025398775935173035,
                        -0.09953543543815613,
                        0.05577223747968674,
                        0.06899425387382507,
                        -0.01594783365726471,
                        -0.10574865341186523,
                        0.04333462193608284,
                        0.09801086038351059,
                        0.11993202567100525,
                        -0.3527490496635437,
                        -0.1161322370171547,
                        -0.1060585007071495,
                        0.17472152411937714,
                        0.15187795460224152,
                        0.2089289128780365,
                        0.04917832463979721,
                        0.09787443280220032,
                        -0.010081199929118156,
                        -0.08295605331659317,
                        0.3091326355934143,
                        0.00468119140714407,
                        0.0006295111961662769,
                        -0.11782591789960861,
                        0.2281050682067871,
                        0.21671359241008759,
                        0.01236962340772152,
                        0.07087662070989609,
                        -0.028684154152870178,
                        0.05860796943306923,
                        -0.08232256770133972,
                        0.014993751421570778,
                        -0.22703592479228973,
                        -0.04398251697421074,
                        0.01730187050998211,
                        -0.08397431671619415,
                        0.30819374322891235,
                        0.11925345659255981,
                        0.17678049206733704,
                        -0.20435625314712524,
                        0.026107769459486008,
                        0.05260055512189865
                    ],
                    [
                        0.17948023974895477,
                        -0.07795089483261108,
                        -0.10706611722707748,
                        0.05920090526342392,
                        0.1387101262807846,
                        0.07605794072151184,
                        0.09521801024675369,
                        -0.15442626178264618,
                        -0.11570484191179276,
                        -0.05327456817030907,
                        0.12829123437404633,
                        -0.3355865180492401,
                        0.04216068238019943,
                        0.08143249154090881,
                        0.05904318019747734,
                        -0.004991689696907997,
                        -0.04341333359479904,
                        -0.0828806459903717,
                        -0.024881437420845032,
                        -0.08270098268985748,
                        0.04235699772834778,
                        -0.023046990856528282,
                        0.2051655799150467,
                        -0.33376574516296387,
                        -0.012491634115576744,
                        0.17427076399326324,
                        0.03297816589474678,
                        0.02195383980870247,
                        0.053797103464603424,
                        0.01327748317271471,
                        0.25049930810928345,
                        -0.16194689273834229,
                        0.3138645589351654,
                        -0.019464977085590363,
                        -0.0007214583456516266,
                        -0.06929077953100204,
                        0.05281341075897217,
                        0.2399386167526245,
                        0.17093990743160248,
                        -0.14217635989189148,
                        0.0778384730219841,
                        0.06103202700614929,
                        -0.13508163392543793,
                        0.1350075900554657,
                        0.13123901188373566,
                        -0.06506699323654175,
                        0.004706177860498428,
                        -0.3926634192466736
                    ],
                    [
                        -0.01713326759636402,
                        0.11995412409305573,
                        -0.11756859719753265,
                        -0.11080547422170639,
                        0.06812375783920288,
                        -0.029578834772109985,
                        -0.00944305770099163,
                        0.16854636371135712,
                        0.055961817502975464,
                        -0.03755777329206467,
                        0.10335550457239151,
                        0.08310827612876892,
                        -0.298956960439682,
                        0.12295864522457123,
                        -0.1546344757080078,
                        0.03333508223295212,
                        0.012834596447646618,
                        -0.23207226395606995,
                        -0.030815519392490387,
                        0.2493845522403717,
                        -0.077520951628685,
                        -0.04872138798236847,
                        0.12769368290901184,
                        -0.2023179531097412,
                        -0.1909441202878952,
                        -0.12321370095014572,
                        -0.17625394463539124,
                        0.24225661158561707,
                        -0.08301632851362228,
                        -0.27791401743888855,
                        -0.17049069702625275,
                        0.03672210872173309,
                        -0.10886701196432114,
                        0.12355402857065201,
                        0.01802915893495083,
                        -0.11359326541423798,
                        -0.008994155563414097,
                        0.1691582202911377,
                        -0.04332960397005081,
                        -0.12487498670816422,
                        -0.03560975566506386,
                        -0.28921183943748474,
                        -0.3310226798057556,
                        0.09456314891576767,
                        0.029966721311211586,
                        0.02312459796667099,
                        0.2027318924665451,
                        0.04853685572743416
                    ],
                    [
                        0.26772698760032654,
                        -0.04018937051296234,
                        -0.027713030576705933,
                        0.05857568606734276,
                        -0.0011956039816141129,
                        -0.30754587054252625,
                        0.15377454459667206,
                        -0.06006912514567375,
                        -0.3060497045516968,
                        -0.020893488079309464,
                        -0.14149068295955658,
                        0.08358000218868256,
                        0.08369996398687363,
                        -0.14657874405384064,
                        0.07125163078308105,
                        0.15304294228553772,
                        0.03051682934165001,
                        -0.03495871275663376,
                        0.1797720491886139,
                        0.03705327585339546,
                        -0.14082428812980652,
                        -0.3483387529850006,
                        0.12258818745613098,
                        -0.11461322009563446,
                        -0.13765688240528107,
                        0.0336281880736351,
                        0.00433666305616498,
                        -0.0322115533053875,
                        -0.13418850302696228,
                        -0.015063227154314518,
                        -0.1494702696800232,
                        0.11592523753643036,
                        -0.17457455396652222,
                        0.036435529589653015,
                        -0.17786777019500732,
                        -0.14207620918750763,
                        0.1093239039182663,
                        -0.2880765497684479,
                        -0.1770789474248886,
                        -0.0021697133779525757,
                        0.011778246611356735,
                        0.06898929178714752,
                        0.14656420052051544,
                        0.19249233603477478,
                        -0.04229133576154709,
                        -0.1326856166124344,
                        0.10145602375268936,
                        -0.197968527674675
                    ],
                    [
                        -0.059188906103372574,
                        0.0653696060180664,
                        0.20131869614124298,
                        0.2412845939397812,
                        0.02919076383113861,
                        0.17184960842132568,
                        0.12145610898733139,
                        0.15171635150909424,
                        -0.0904649943113327,
                        -0.11128021031618118,
                        -0.08008023351430893,
                        -0.13301318883895874,
                        -0.09368950128555298,
                        0.10159866511821747,
                        0.09486842900514603,
                        0.13654476404190063,
                        0.03627938777208328,
                        -0.14184410870075226,
                        -0.2826346457004547,
                        -0.003706318326294422,
                        0.14126208424568176,
                        -0.20805127918720245,
                        -0.22234489023685455,
                        0.05899450182914734,
                        -0.15569712221622467,
                        -0.13393622636795044,
                        0.12777580320835114,
                        0.13318359851837158,
                        -0.0151852797716856,
                        -0.2485114485025406,
                        -0.18930816650390625,
                        0.09872037172317505,
                        0.054347503930330276,
                        -0.18909898400306702,
                        0.151326522231102,
                        -0.14250411093235016,
                        0.2456364631652832,
                        0.08460685610771179,
                        0.07624077051877975,
                        0.22438469529151917,
                        0.1841086745262146,
                        0.17286255955696106,
                        0.12673424184322357,
                        -0.08810936659574509,
                        0.14596889913082123,
                        -0.1041288673877716,
                        -0.08121330291032791,
                        -0.025979582220315933
                    ],
                    [
                        -0.10143693536520004,
                        0.2520439028739929,
                        -0.057765983045101166,
                        -0.23343996703624725,
                        0.16107363998889923,
                        -0.16435761749744415,
                        0.018797583878040314,
                        0.28033480048179626,
                        0.2539467215538025,
                        0.06713150441646576,
                        -0.036954257637262344,
                        -0.16614791750907898,
                        0.21436181664466858,
                        -0.2218351513147354,
                        -0.046359479427337646,
                        0.1236346960067749,
                        -0.12120969593524933,
                        -0.08326785266399384,
                        -0.0538472980260849,
                        -0.2016572803258896,
                        -0.07356269657611847,
                        -0.04799807444214821,
                        0.15287914872169495,
                        0.02363450452685356,
                        -0.04981733858585358,
                        0.07006265223026276,
                        0.3252399265766144,
                        -0.22341546416282654,
                        0.05943242460489273,
                        -0.2130342721939087,
                        -0.010390106588602066,
                        0.12303552031517029,
                        0.02066156454384327,
                        0.017275147140026093,
                        -0.1300331950187683,
                        -0.04771623760461807,
                        0.24278461933135986,
                        0.03680310398340225,
                        0.0013203395064920187,
                        -0.12565866112709045,
                        -0.07654362916946411,
                        -0.01736704260110855,
                        -0.08864951878786087,
                        -0.2427196502685547,
                        -0.12979792058467865,
                        0.08085045963525772,
                        -0.07481709122657776,
                        -0.0623854324221611
                    ],
                    [
                        -0.19842922687530518,
                        -0.08536821603775024,
                        -0.23426035046577454,
                        0.044329769909381866,
                        0.07641366869211197,
                        -0.045817360281944275,
                        -0.0985984280705452,
                        0.0690382868051529,
                        -0.039024628698825836,
                        0.028977757319808006,
                        0.22090792655944824,
                        0.04714526981115341,
                        0.05211430415511131,
                        0.20660066604614258,
                        0.041399434208869934,
                        -0.08916094899177551,
                        -0.10170920193195343,
                        0.027482610195875168,
                        -0.28991201519966125,
                        -0.12626908719539642,
                        0.1747303158044815,
                        -0.16155514121055603,
                        0.0528639554977417,
                        0.025329582393169403,
                        -0.014923357404768467,
                        -0.23899845778942108,
                        -0.018910523504018784,
                        0.0655299723148346,
                        0.003471747040748596,
                        0.08474722504615784,
                        -0.21754290163516998,
                        -0.06252778321504593,
                        0.1979569047689438,
                        -0.10198159515857697,
                        -0.06482817977666855,
                        0.035300470888614655,
                        0.007898424752056599,
                        -0.11220350861549377,
                        -0.13372467458248138,
                        -0.3130751848220825,
                        -0.09478135406970978,
                        0.0295490063726902,
                        0.12469981610774994,
                        0.25247830152511597,
                        -0.3984842002391815,
                        -0.10414746403694153,
                        -0.1774805337190628,
                        -0.012746063992381096
                    ],
                    [
                        -0.3581003248691559,
                        -0.12416937947273254,
                        -0.053669776767492294,
                        -0.06515879929065704,
                        -0.08835628628730774,
                        -0.22317039966583252,
                        0.1994437873363495,
                        0.050426702946424484,
                        -0.04737332463264465,
                        -0.2811446189880371,
                        -0.15467773377895355,
                        0.1314542591571808,
                        0.12664851546287537,
                        0.06973602622747421,
                        0.30328598618507385,
                        0.04570792615413666,
                        -0.0007698535919189453,
                        0.21490928530693054,
                        0.06319671869277954,
                        0.08157527446746826,
                        -0.038621459156274796,
                        0.017283570021390915,
                        0.023408779874444008,
                        0.2607175409793854,
                        0.16049891710281372,
                        0.15359246730804443,
                        0.05579428747296333,
                        0.03773161396384239,
                        0.1363181173801422,
                        -0.057566482573747635,
                        -0.07057491689920425,
                        0.094112329185009,
                        0.06190173700451851,
                        -0.18352381885051727,
                        0.13420677185058594,
                        -0.05299095809459686,
                        -0.05391671508550644,
                        0.1872006356716156,
                        -0.13831059634685516,
                        -0.155935138463974,
                        0.04413124918937683,
                        -0.06044063717126846,
                        -0.27220821380615234,
                        0.11094717681407928,
                        0.16921843588352203,
                        -0.10896527767181396,
                        0.09407117962837219,
                        -0.11814567446708679
                    ],
                    [
                        -0.008788115344941616,
                        -0.11375923454761505,
                        -0.00024995452258735895,
                        0.1601644903421402,
                        0.2871658504009247,
                        -0.1188836321234703,
                        0.18333864212036133,
                        0.09846547991037369,
                        -0.07513848692178726,
                        0.14397071301937103,
                        -0.025099609047174454,
                        -0.05016984045505524,
                        -0.22186467051506042,
                        0.2606014311313629,
                        0.13890701532363892,
                        -0.19527018070220947,
                        -0.21958301961421967,
                        0.03610725328326225,
                        -0.034018874168395996,
                        0.1673498898744583,
                        -0.0551973357796669,
                        0.04747599735856056,
                        -0.07515156269073486,
                        0.01696481928229332,
                        -0.10703647881746292,
                        0.12435104697942734,
                        0.07334517687559128,
                        -0.11119134724140167,
                        -0.09674180299043655,
                        0.1782696545124054,
                        -0.05623284727334976,
                        0.31248050928115845,
                        0.1278804987668991,
                        -0.04240464046597481,
                        -0.09616466611623764,
                        0.18909011781215668,
                        0.03315955027937889,
                        -0.14807896316051483,
                        0.14716972410678864,
                        -0.1417585015296936,
                        -0.032805297523736954,
                        0.0008675572462379932,
                        0.0507492795586586,
                        -0.18170705437660217,
                        0.07270756363868713,
                        0.3193698525428772,
                        0.262145072221756,
                        0.014225873164832592
                    ],
                    [
                        -0.3146611750125885,
                        0.18740607798099518,
                        0.04003501310944557,
                        -0.1633397787809372,
                        0.06360907107591629,
                        -0.12080736458301544,
                        -0.25914478302001953,
                        -0.04216926172375679,
                        -0.039896368980407715,
                        -0.098143570125103,
                        -0.1780010461807251,
                        -0.3559110462665558,
                        0.018191002309322357,
                        0.2556377947330475,
                        -0.022365735843777657,
                        -0.27262231707572937,
                        0.04684736579656601,
                        0.13280493021011353,
                        -0.026403505355119705,
                        0.07437015324831009,
                        -0.09278250485658646,
                        0.02572498843073845,
                        0.10611820220947266,
                        -0.03680715337395668,
                        -0.08674588799476624,
                        -0.12758740782737732,
                        -0.2652615010738373,
                        -0.05995190888643265,
                        -0.08621156960725784,
                        -0.04905932769179344,
                        0.21510782837867737,
                        0.18227306008338928,
                        -0.1382226198911667,
                        -0.05408405512571335,
                        -0.17493698000907898,
                        0.004733792040497065,
                        0.055787622928619385,
                        0.014319460839033127,
                        -0.07675633579492569,
                        0.23815365135669708,
                        -0.11062052845954895,
                        0.0694500058889389,
                        0.14477641880512238,
                        0.07815425097942352,
                        0.07225382328033447,
                        -0.12727969884872437,
                        -0.02769690379500389,
                        -0.14136594533920288
                    ],
                    [
                        -0.021938182413578033,
                        -0.05316932499408722,
                        -0.15010905265808105,
                        -0.013486109673976898,
                        -0.17749843001365662,
                        0.047216009348630905,
                        0.19319860637187958,
                        -0.20292280614376068,
                        0.20822273194789886,
                        0.1646655797958374,
                        0.0047759623266756535,
                        -0.1736987680196762,
                        0.23006974160671234,
                        0.021045273169875145,
                        0.1929520070552826,
                        -0.08736184984445572,
                        0.10496151447296143,
                        -0.08677234500646591,
                        -0.04692978411912918,
                        0.08631360530853271,
                        0.15167325735092163,
                        -0.03455888852477074,
                        -0.15523254871368408,
                        -0.1435183882713318,
                        -0.12874916195869446,
                        -0.0411236472427845,
                        0.0016755711985751987,
                        0.06630808860063553,
                        0.25408798456192017,
                        -0.07151585072278976,
                        -0.17988723516464233,
                        -0.006609729491174221,
                        -0.38989976048469543,
                        0.03862622007727623,
                        0.014327357523143291,
                        0.11287637054920197,
                        -0.08400966972112656,
                        0.08210586756467819,
                        0.10980134457349777,
                        -0.13250593841075897,
                        -0.3445975184440613,
                        0.21024969220161438,
                        0.05529997497797012,
                        -0.0941656306385994,
                        0.011954664252698421,
                        -0.051558591425418854,
                        0.21972905099391937,
                        -0.07186657935380936
                    ],
                    [
                        0.10337691009044647,
                        -0.13668407499790192,
                        -0.02370203658938408,
                        -0.25433671474456787,
                        -0.08212064206600189,
                        0.07972577214241028,
                        0.13348108530044556,
                        0.08488395810127258,
                        0.1280215084552765,
                        0.047373466193675995,
                        -0.3313072621822357,
                        0.03703797608613968,
                        0.15440864861011505,
                        0.16561824083328247,
                        -0.3039610981941223,
                        -0.1625809371471405,
                        -0.08781586587429047,
                        0.004459042567759752,
                        -0.13196046650409698,
                        0.19465474784374237,
                        -0.16647657752037048,
                        0.024376280605793,
                        0.06362353265285492,
                        -0.06265713274478912,
                        0.26482120156288147,
                        -0.2637098431587219,
                        0.1121554747223854,
                        0.1120336502790451,
                        -0.02296409197151661,
                        0.14444273710250854,
                        -0.17031438648700714,
                        -0.14660809934139252,
                        0.03308451175689697,
                        -0.011581755243241787,
                        -0.10217983275651932,
                        -0.13128972053527832,
                        -0.01123005524277687,
                        -0.03748232498764992,
                        0.0010973787866532803,
                        -0.010110747069120407,
                        0.294840544462204,
                        0.26856333017349243,
                        -0.0545467846095562,
                        -0.08542639017105103,
                        0.005704913288354874,
                        0.05944344773888588,
                        0.07540982216596603,
                        -0.14918163418769836
                    ],
                    [
                        0.0905267745256424,
                        0.08148355782032013,
                        -0.23493237793445587,
                        0.12056221812963486,
                        -0.2640715539455414,
                        -0.08233894407749176,
                        -0.15064702928066254,
                        0.19398564100265503,
                        0.13426679372787476,
                        0.005777192302048206,
                        -0.08135098218917847,
                        0.09101739525794983,
                        0.13921155035495758,
                        0.12394318729639053,
                        0.13036493957042694,
                        0.09802062809467316,
                        0.24857723712921143,
                        0.1735653579235077,
                        0.003396635875105858,
                        0.0556044802069664,
                        0.07690317928791046,
                        -0.10464788973331451,
                        0.0479755625128746,
                        -0.11698742210865021,
                        -0.04160653427243233,
                        -0.20591841638088226,
                        0.258680135011673,
                        -0.10980600863695145,
                        -0.12795884907245636,
                        0.18467913568019867,
                        -0.03170394152402878,
                        0.021352073177695274,
                        0.2549079656600952,
                        0.12223763018846512,
                        -0.14582088589668274,
                        0.0545157790184021,
                        0.08495593816041946,
                        0.12040559947490692,
                        0.2457786202430725,
                        0.22143402695655823,
                        -0.13907630741596222,
                        -0.14211471378803253,
                        -0.011717317625880241,
                        0.1832071989774704,
                        0.20428213477134705,
                        0.02418755367398262,
                        0.11555640399456024,
                        0.1309574544429779
                    ]
                ],
                [
                    [
                        -0.1394728124141693,
                        0.04201159253716469,
                        -0.05422474071383476,
                        0.0025710396002978086,
                        0.008499938994646072,
                        -0.0033316395711153746,
                        -0.03333064168691635,
                        -0.025425687432289124,
                        0.029958000406622887,
                        -0.0926668792963028,
                        0.008412814699113369,
                        -0.03453200310468674,
                        0.057187337428331375,
                        0.01755928248167038,
                        0.050086695700883865,
                        -0.0005452352925203741,
                        0.026468440890312195,
                        0.023184096440672874,
                        0.02901124767959118,
                        -0.06274326145648956,
                        0.040174346417188644,
                        -0.008813629858195782,
                        0.03224346414208412,
                        0.0472426638007164,
                        -0.0357377752661705,
                        -0.014397375285625458,
                        0.027382193133234978,
                        0.01343474816530943,
                        0.05221228674054146,
                        0.005354512017220259,
                        0.025131527334451675,
                        -0.0024071368388831615,
                        -0.06386777758598328,
                        -0.015623814426362514,
                        -0.0005461379187181592,
                        0.06821935623884201,
                        0.10724993050098419,
                        0.032334521412849426,
                        0.03261544927954674,
                        0.02503124251961708,
                        -0.029985377565026283,
                        0.038767483085393906,
                        -0.07376792281866074,
                        0.04077516123652458,
                        0.0008208801154978573,
                        -0.021780461072921753,
                        0.08775214850902557,
                        -0.06618427485227585
                    ],
                    [
                        -0.017786024138331413,
                        0.03568849340081215,
                        -0.006530586630105972,
                        -0.03537231683731079,
                        -0.05912308767437935,
                        0.05561492592096329,
                        -0.061867859214544296,
                        -0.07360346615314484,
                        0.001917309476993978,
                        0.00779153173789382,
                        0.03084006905555725,
                        0.08419295400381088,
                        0.00731305917724967,
                        0.009058891795575619,
                        -0.04845264181494713,
                        -0.007956641726195812,
                        0.01235906220972538,
                        0.0008958568796515465,
                        0.05017746612429619,
                        0.0016685033915564418,
                        -0.06506543606519699,
                        0.00972346868366003,
                        -0.012454687617719173,
                        0.018195293843746185,
                        0.06216011568903923,
                        0.09231006354093552,
                        -0.09170185774564743,
                        0.04055259749293327,
                        0.02693619206547737,
                        0.03566018119454384,
                        -0.06024065613746643,
                        0.06300550699234009,
                        0.046039555221796036,
                        0.062722347676754,
                        0.06702732294797897,
                        0.002235730877146125,
                        0.0425717793405056,
                        0.029552806168794632,
                        -0.014860359020531178,
                        0.04648936912417412,
                        0.0026037481147795916,
                        -0.0018536009592935443,
                        -0.017529934644699097,
                        0.03352603688836098,
                        -0.028202537447214127,
                        -0.076788030564785,
                        -0.03778836876153946,
                        0.03134288638830185
                    ]
                ]
            ]
        },
        {
            "type": "dense",
            "activation": "sigmoid",
            "shape": [
                null,
                null,
                16
            ],
            "weights": [
                [
                    [
                        0.19284486770629883,
                        0.11572995781898499,
                        0.2964179813861847,
                        -0.06071575731039047,
                        -0.28741905093193054,
                        -0.2430785596370697,
                        0.07430283725261688,
                        -0.22769202291965485,
                        -0.26629966497421265,
                        0.2581292390823364,
                        -0.22364963591098785,
                        -0.3677138090133667,
                        0.1438664197921753,
                        0.46533092856407166,
                        0.2420353889465332,
                        -0.20053808391094208
                    ],
                    [
                        -0.21028591692447662,
                        -0.31322383880615234,
                        0.4819301664829254,
                        0.14751330018043518,
                        -0.18639610707759857,
                        -0.16769477725028992,
                        0.22316819429397583,
                        -0.03958655521273613,
                        -0.44777438044548035,
                        -0.12458542734384537,
                        0.18882906436920166,
                        0.2092086374759674,
                        -0.23956483602523804,
                        -0.3118263781070709,
                        0.19005584716796875,
                        0.056756675243377686
                    ],
                    [
                        0.16382335126399994,
                        0.2015329748392105,
                        -0.22390729188919067,
                        -0.1111711859703064,
                        -0.3121914863586426,
                        0.39158737659454346,
                        0.27360981702804565,
                        0.3417901396751404,
                        -0.3462561368942261,
                        -0.07021836936473846,
                        0.45442402362823486,
                        0.10547526180744171,
                        -0.0252000130712986,
                        0.2858157157897949,
                        -0.021066688001155853,
                        -0.04843725264072418
                    ],
                    [
                        0.026767563074827194,
                        0.11431639641523361,
                        -0.4841565489768982,
                        0.02125547267496586,
                        0.11917148530483246,
                        -0.3853813409805298,
                        0.22393730282783508,
                        -0.3189186155796051,
                        -0.41825956106185913,
                        0.07191424816846848,
                        -0.2056020200252533,
                        0.3527299463748932,
                        -0.07160477340221405,
                        0.05407170578837395,
                        -0.2729182243347168,
                        0.08625374734401703
                    ],
                    [
                        -0.4599187970161438,
                        -0.1954825520515442,
                        -0.04758074879646301,
                        0.11801711469888687,
                        -0.10154561698436737,
                        -0.01576315611600876,
                        -0.18868008255958557,
                        0.0387478731572628,
                        -0.0633433535695076,
                        0.48888570070266724,
                        0.23694518208503723,
                        -0.10010139644145966,
                        -0.01873299852013588,
                        0.053873926401138306,
                        -0.45210179686546326,
                        -0.41179320216178894
                    ],
                    [
                        0.2221539169549942,
                        0.25826379656791687,
                        0.3717191815376282,
                        0.02213679812848568,
                        -0.007926907390356064,
                        -0.029066797345876694,
                        -0.15159741044044495,
                        -9.902194142341614e-05,
                        -0.10428306460380554,
                        -0.23913748562335968,
                        -0.0002719089388847351,
                        0.30980074405670166,
                        0.5396847724914551,
                        -0.16396459937095642,
                        -0.38601937890052795,
                        -0.30033230781555176
                    ],
                    [
                        0.10124529153108597,
                        -0.3361259400844574,
                        0.22435277700424194,
                        -0.49311333894729614,
                        -0.07507508993148804,
                        0.1370287537574768,
                        0.3014344274997711,
                        -0.16211259365081787,
                        0.18023914098739624,
                        -0.1812191605567932,
                        -0.15712587535381317,
                        -0.03439740091562271,
                        -0.2560025453567505,
                        0.17549632489681244,
                        -0.5041601657867432,
                        0.0023347996175289154
                    ],
                    [
                        -0.09986701607704163,
                        0.16458874940872192,
                        -0.017722604796290398,
                        0.04277151823043823,
                        0.21496349573135376,
                        0.4684079885482788,
                        0.35480979084968567,
                        -0.3570459485054016,
                        0.04673062264919281,
                        0.079034723341465,
                        -0.1516105830669403,
                        0.10644535720348358,
                        -0.09201779216527939,
                        -0.17935064435005188,
                        0.2528053820133209,
                        -0.5426927208900452
                    ],
                    [
                        -0.14040616154670715,
                        -0.29577404260635376,
                        0.007396519184112549,
                        0.07771727442741394,
                        0.3724765479564667,
                        0.289360374212265,
                        -0.1241358071565628,
                        -0.4302939772605896,
                        -0.24097906053066254,
                        -0.18687529861927032,
                        0.27214711904525757,
                        -0.11747835576534271,
                        0.35608452558517456,
                        0.31471145153045654,
                        0.017655573785305023,
                        0.2380519062280655
                    ],
                    [
                        -0.16830793023109436,
                        -0.008209717459976673,
                        -0.13401448726654053,
                        -0.15291258692741394,
                        0.022224893793463707,
                        -0.1578652709722519,
                        0.5517475605010986,
                        0.11425429582595825,
                        0.0074730925261974335,
                        0.016656585037708282,
                        0.07297143340110779,
                        -0.45089492201805115,
                        0.47990643978118896,
                        -0.37027403712272644,
                        -0.05894025042653084,
                        0.08669901639223099
                    ],
                    [
                        0.11582519114017487,
                        0.2812751233577728,
                        0.16893787682056427,
                        -0.003517415840178728,
                        0.04695970565080643,
                        -0.2692040503025055,
                        0.18985918164253235,
                        -0.35405027866363525,
                        0.41745051741600037,
                        0.20898154377937317,
                        0.6178504824638367,
                        0.13822801411151886,
                        -0.08277007192373276,
                        0.06375470757484436,
                        -0.001564573496580124,
                        0.11462940275669098
                    ],
                    [
                        -0.05410030484199524,
                        -0.3703184723854065,
                        0.009711331687867641,
                        -0.24106736481189728,
                        0.007068486884236336,
                        -0.01987968198955059,
                        0.1348385512828827,
                        0.19814787805080414,
                        0.17423994839191437,
                        0.3604561388492584,
                        -0.09873702377080917,
                        0.5567854046821594,
                        0.3869287967681885,
                        0.18586021661758423,
                        0.2804550528526306,
                        0.02966919168829918
                    ],
                    [
                        -0.09168464690446854,
                        0.12087360769510269,
                        0.00725247897207737,
                        0.17603635787963867,
                        -0.5715548396110535,
                        0.37814846634864807,
                        -0.026816682890057564,
                        -0.31749841570854187,
                        0.0765470489859581,
                        0.2325490266084671,
                        -0.19748982787132263,
                        0.0801590085029602,
                        0.14420701563358307,
                        -0.18253366649150848,
                        -0.12884627282619476,
                        0.445718377828598
                    ],
                    [
                        0.5013331174850464,
                        -0.08686572313308716,
                        0.07163690775632858,
                        -0.2731672525405884,
                        0.2661187946796417,
                        0.17339052259922028,
                        -0.1780332624912262,
                        -0.0025115013122558594,
                        -0.29583972692489624,
                        0.5066035985946655,
                        0.08960478007793427,
                        -0.10446232557296753,
                        -0.08493663370609283,
                        -0.3769594430923462,
                        -0.036668792366981506,
                        0.12253422290086746
                    ],
                    [
                        -0.5234563946723938,
                        0.44845864176750183,
                        0.13597029447555542,
                        -0.624729335308075,
                        0.08146100491285324,
                        0.007698871195316315,
                        -0.21745160222053528,
                        -0.010118380188941956,
                        -0.16173052787780762,
                        -0.003842569887638092,
                        -0.02224491536617279,
                        0.05775446444749832,
                        -0.046519823372364044,
                        -0.009605199098587036,
                        0.09813030064105988,
                        0.1418907195329666
                    ],
                    [
                        -0.10864188522100449,
                        0.25051456689834595,
                        0.3659629225730896,
                        0.34480494260787964,
                        0.403910368680954,
                        0.1304575651884079,
                        0.3009433448314667,
                        0.3302435576915741,
                        -0.04361700266599655,
                        0.2300434410572052,
                        -0.20815971493721008,
                        0.008144620805978775,
                        -0.08178376406431198,
                        0.24207545816898346,
                        -0.22103343904018402,
                        0.28366437554359436
                    ]
                ],
                [
                    -0.007657258305698633,
                    -0.030575508251786232,
                    0.06677638739347458,
                    0.01643562689423561,
                    0.07427393645048141,
                    -0.06466501206159592,
                    -0.003966514486819506,
                    -0.04307020828127861,
                    0.01679159887135029,
                    0.040515415370464325,
                    -0.08255099505186081,
                    -0.029602596536278725,
                    0.009110563434660435,
                    0.11843414604663849,
                    -0.022493666037917137,
                    -0.08937837928533554
                ]
            ]
        },
        {
            "type": "dense",
            "activation": "",
            "shape": [
                null,
                null,
                2
            ],
            "weights": [
                [
                    [
                        -0.41325604915618896,
                        0.2686006724834442
                    ],
                    [
                        0.20689333975315094,
                        0.11505881696939468
                    ],
                    [
                        -0.13266333937644958,
                        0.29278790950775146
                    ],
                    [
                        0.08852528035640717,
                        -0.026340357959270477
                    ],
                    [
                        0.20528796315193176,
                        -0.25375863909721375
                    ],
                    [
                        -0.08189981430768967,
                        -0.15443146228790283
                    ],
                    [
                        0.10806587338447571,
                        0.017405740916728973
                    ],
                    [
                        0.2215164601802826,
                        0.04158433899283409
                    ],
                    [
                        -0.27134597301483154,
                        0.4545951783657074
                    ],
                    [
                        -0.4121898412704468,
                        -0.041492216289043427
                    ],
                    [
                        -0.11282151192426682,
                        0.21332624554634094
                    ],
                    [
                        -0.1457732766866684,
                        0.33244404196739197
                    ],
                    [
                        -0.32117798924446106,
                        -0.18952295184135437
                    ],
                    [
                        0.3023186922073364,
                        0.3314822316169739
                    ],
                    [
                        0.16125814616680145,
                        -0.06596440076828003
                    ],
                    [
                        0.39155614376068115,
                        0.4726157486438751
                    ]
                ],
                [
                    0.02337699383497238,
                    0.032969240099191666
                ]
            ]
        }
    ]
}