{
    "in_shape": [
        null,
        null,
        1
    ],
    "layers": [
        {
            "type": "gru",
            "activation": "tanh",
            "shape": [
                null,
                null,
                32
            ],
            "weights": [
                [
                    [
                        0.144399031996727,
                        -0.1456909328699112,
                        -0.08795364201068878,
                        0.18323160707950592,
                        -0.18365025520324707,
                        0.12420232594013214,
                        -0.07683274149894714,
                        -0.17335979640483856,
                        0.02322421967983246,
                        0.0912032276391983,
                        0.07564212381839752,
                        -0.021698996424674988,
                        0.11036135256290436,
                        -0.17659637331962585,
                        -0.06139843165874481,
                        0.18716560304164886,
                        -0.007977649569511414,
                        -0.19760587811470032,
                        -0.23326484858989716,
                        -0.1802341639995575,
                        0.020258381962776184,
                        -0.08595570921897888,
                        -0.10096883773803711,
                        -0.12197412550449371,
                        -0.18577691912651062,
                        0.19994394481182098,
                        -0.2182282954454422,
                        -0.16645826399326324,
                        0.007742300629615784,
                        -0.22248271107673645,
                        0.06778852641582489,
                        0.0498911589384079,
                        -0.2070629745721817,
                        0.17101575434207916,
                        -0.23667925596237183,
                        0.0829220861196518,
                        0.12088330090045929,
                        -0.08896417915821075,
                        0.08259667456150055,
                        0.02207060158252716,
                        -0.013617590069770813,
                        -0.05202411115169525,
                        -0.15966174006462097,
                        -0.16464906930923462,
                        0.03547690808773041,
                        0.21063150465488434,
                        -0.07960160076618195,
                        0.07246769964694977,
                        -0.1157948225736618,
                        0.023289814591407776,
                        -0.13508692383766174,
                        0.09959398210048676,
                        -0.12671253085136414,
                        -0.023138955235481262,
                        0.11871494352817535,
                        0.15394358336925507,
                        -0.2127402126789093,
                        -0.2059856802225113,
                        0.12200246751308441,
                        -0.22958269715309143,
                        -0.16205158829689026,
                        -0.10185651481151581,
                        -0.08878403902053833,
                        -0.029529765248298645,
                        0.23492206633090973,
                        0.052320197224617004,
                        -0.13205716013908386,
                        -0.02361363172531128,
                        -0.04229158163070679,
                        0.028891131281852722,
                        0.14150066673755646,
                        -0.06279866397380829,
                        -0.06438247859477997,
                        -0.22919721901416779,
                        -0.025379300117492676,
                        -0.1956559717655182,
                        -0.006604582071304321,
                        0.1267731934785843,
                        -0.1051502525806427,
                        -0.019079282879829407,
                        -0.12042571604251862,
                        -0.01093299686908722,
                        0.11759506165981293,
                        -0.18744997680187225,
                        0.17399729788303375,
                        -0.2461860477924347,
                        0.20168180763721466,
                        0.024813905358314514,
                        0.21356390416622162,
                        -0.22584274411201477,
                        0.04828666150569916,
                        -0.06773659586906433,
                        0.10720179975032806,
                        -0.18214838206768036,
                        -0.10855044424533844,
                        0.12212757766246796
                    ]
                ],
                [
                    [
                        0.22275733947753906,
                        -0.1697372943162918,
                        -0.12791703641414642,
                        0.03988027572631836,
                        0.14530470967292786,
                        -0.1034480407834053,
                        -0.03961055353283882,
                        0.09847763180732727,
                        0.20486454665660858,
                        -0.06506174057722092,
                        0.12370035797357559,
                        0.03354017436504364,
                        -0.08487454056739807,
                        0.08641906827688217,
                        0.04122922196984291,
                        0.005624611396342516,
                        -0.12003641575574875,
                        -0.13626526296138763,
                        -0.05577430874109268,
                        -0.004326452501118183,
                        -0.1475115865468979,
                        0.009747237898409367,
                        -0.015808802098035812,
                        -0.07127010822296143,
                        0.0916333869099617,
                        -0.12161815166473389,
                        0.04043271392583847,
                        0.03961048275232315,
                        -0.11733242869377136,
                        0.04262343421578407,
                        0.14678050577640533,
                        0.010441534221172333,
                        0.048353541642427444,
                        0.05101444199681282,
                        -0.050067294389009476,
                        -0.08503398299217224,
                        -0.024311980232596397,
                        -0.04698752239346504,
                        -0.0779905617237091,
                        0.11262224614620209,
                        -0.06447228044271469,
                        0.002723770448938012,
                        -0.10208885371685028,
                        -0.22737514972686768,
                        -0.07256309688091278,
                        -0.013035744428634644,
                        -0.10964358597993851,
                        0.07920243591070175,
                        -0.05466311052441597,
                        -0.11282030493021011,
                        0.13994331657886505,
                        0.22734810411930084,
                        0.169075146317482,
                        -0.06942668557167053,
                        0.02870987355709076,
                        -0.11831874400377274,
                        0.018631862476468086,
                        0.13399213552474976,
                        -0.07328976690769196,
                        0.04573220759630203,
                        -0.13209836184978485,
                        0.004310154356062412,
                        -0.057192835956811905,
                        0.06905638426542282,
                        0.09323200583457947,
                        -0.11062963306903839,
                        0.05539099872112274,
                        0.058022208511829376,
                        0.14082440733909607,
                        0.021569939330220222,
                        0.18812480568885803,
                        0.06410355865955353,
                        0.059959184378385544,
                        -0.03559284284710884,
                        0.1414153128862381,
                        -0.04770451411604881,
                        -0.0023671812377870083,
                        0.053890082985162735,
                        -0.0037869445513933897,
                        0.044206127524375916,
                        -0.01240808516740799,
                        -0.20810440182685852,
                        -0.03545254468917847,
                        0.16570810973644257,
                        0.14582619071006775,
                        -0.1666439324617386,
                        0.03588910773396492,
                        -0.26969534158706665,
                        0.01889120601117611,
                        -0.051997046917676926,
                        0.07134780287742615,
                        0.001526945154182613,
                        0.1265421062707901,
                        -0.012884137220680714,
                        0.04611318185925484,
                        -0.03098670206964016
                    ],
                    [
                        0.07315899431705475,
                        -0.21274329721927643,
                        0.13582946360111237,
                        -0.054336484521627426,
                        0.12685838341712952,
                        -0.03485851362347603,
                        -0.16687656939029694,
                        0.3407822549343109,
                        0.07245016098022461,
                        0.13003307580947876,
                        -0.15601567924022675,
                        -0.1626550257205963,
                        -0.026697872206568718,
                        0.014867210760712624,
                        0.028218377381563187,
                        0.09933318197727203,
                        0.06660612672567368,
                        0.08932451158761978,
                        0.03843507915735245,
                        -0.06481454521417618,
                        -0.10409566760063171,
                        -0.1295212060213089,
                        -0.1251302808523178,
                        -0.10050094127655029,
                        0.030689271166920662,
                        -0.1504596620798111,
                        -0.09888201951980591,
                        0.0819927230477333,
                        0.05972445383667946,
                        0.014481401070952415,
                        -0.007441896013915539,
                        -0.1038912683725357,
                        0.11130379885435104,
                        0.04444364458322525,
                        -0.31454360485076904,
                        0.12717323005199432,
                        -0.07250494509935379,
                        -0.023397577926516533,
                        0.15794658660888672,
                        -0.007610355503857136,
                        0.04188413918018341,
                        0.0562029704451561,
                        -0.049517225474119186,
                        0.11620515584945679,
                        0.1109996885061264,
                        0.041942957788705826,
                        0.027452418580651283,
                        -0.09777073562145233,
                        -0.017641857266426086,
                        0.12898306548595428,
                        0.017852742224931717,
                        -0.07192489504814148,
                        0.07086288928985596,
                        -0.08531329035758972,
                        0.038770053535699844,
                        -0.04199546203017235,
                        -0.043609391897916794,
                        -0.05250242352485657,
                        0.09000813215970993,
                        -0.21554507315158844,
                        0.04956816881895065,
                        0.011977500282227993,
                        0.06411419063806534,
                        -0.08054470270872116,
                        -0.03260207921266556,
                        -0.02081081084907055,
                        -0.059917300939559937,
                        0.015583769418299198,
                        0.15171688795089722,
                        0.034227240830659866,
                        -0.026337627321481705,
                        -0.22974489629268646,
                        0.1398950070142746,
                        -0.003414586652070284,
                        -0.08783518522977829,
                        0.09871434420347214,
                        -0.10020917654037476,
                        0.012113286182284355,
                        -0.1517869234085083,
                        -0.03129899501800537,
                        0.06862226128578186,
                        -0.04090891778469086,
                        -0.016556838527321815,
                        -0.06158650666475296,
                        0.10445639491081238,
                        -0.050217967480421066,
                        -0.002053576521575451,
                        0.05410353094339371,
                        -0.08322818577289581,
                        -0.007059645839035511,
                        -0.04432162642478943,
                        0.09681922942399979,
                        -0.10465099662542343,
                        -0.02770760841667652,
                        0.1646852195262909,
                        -0.04233422502875328
                    ],
                    [
                        0.22464603185653687,
                        0.29153701663017273,
                        0.11254946887493134,
                        -0.07810922712087631,
                        0.0030577201396226883,
                        -0.09073473513126373,
                        0.00832402240484953,
                        0.016411351040005684,
                        0.0517471581697464,
                        -0.09383305162191391,
                        0.016337359324097633,
                        -0.13854087889194489,
                        -0.12485914677381516,
                        0.019722187891602516,
                        0.09689651429653168,
                        0.018893100321292877,
                        0.00254657119512558,
                        -0.13091447949409485,
                        0.15292178094387054,
                        -0.03875346481800079,
                        -0.030245566740632057,
                        0.0059004793874919415,
                        0.07528490573167801,
                        -0.015433266758918762,
                        -0.09427221119403839,
                        0.10023308545351028,
                        -0.09909259527921677,
                        -0.04576331749558449,
                        -0.1431911289691925,
                        -0.03812474384903908,
                        0.15336187183856964,
                        0.028329458087682724,
                        0.06322559714317322,
                        -0.0849231630563736,
                        0.08069358766078949,
                        -0.010574833489954472,
                        0.04608575627207756,
                        0.1779310405254364,
                        0.03494527190923691,
                        -0.06985019147396088,
                        0.24295365810394287,
                        -0.014668993651866913,
                        -0.03345363587141037,
                        -0.021347828209400177,
                        -0.07719103991985321,
                        0.04632183536887169,
                        -0.002734741196036339,
                        -0.04736730083823204,
                        -0.06972008943557739,
                        -0.1866699755191803,
                        -0.13923589885234833,
                        -0.024560101330280304,
                        -0.09706360101699829,
                        -0.1252235472202301,
                        -0.05827391892671585,
                        -0.12794773280620575,
                        0.09494730830192566,
                        0.06968069076538086,
                        0.09399408102035522,
                        -0.11626958847045898,
                        -0.061660103499889374,
                        0.15837949514389038,
                        0.029071249067783356,
                        0.1251431703567505,
                        -0.09065226465463638,
                        0.023405306041240692,
                        -0.20962724089622498,
                        0.012326766736805439,
                        -0.07993927597999573,
                        -0.05620548874139786,
                        -0.14922238886356354,
                        0.06385380774736404,
                        0.17957112193107605,
                        0.1781064122915268,
                        0.16905838251113892,
                        0.13795870542526245,
                        0.08513322472572327,
                        0.010162954218685627,
                        -0.14808495342731476,
                        0.1168217882514,
                        0.20707392692565918,
                        -0.11538928747177124,
                        -0.08953803777694702,
                        0.011596878990530968,
                        0.003596225753426552,
                        0.09206487238407135,
                        0.02899131551384926,
                        0.05677463486790657,
                        -0.03284379094839096,
                        0.004631790332496166,
                        0.016669193282723427,
                        0.06337489187717438,
                        -0.029798930510878563,
                        0.017277458682656288,
                        0.014760318212211132,
                        0.11170907318592072
                    ],
                    [
                        -0.009340349584817886,
                        -0.09736696630716324,
                        -0.08686737716197968,
                        0.03967954218387604,
                        0.04866085946559906,
                        0.10752610862255096,
                        0.025913456454873085,
                        -0.07466766983270645,
                        0.04510129615664482,
                        0.12216366827487946,
                        -0.0675990954041481,
                        0.10865984857082367,
                        0.014184854924678802,
                        0.16700991988182068,
                        -0.08794886618852615,
                        0.2305944263935089,
                        0.018443675711750984,
                        -0.1566714644432068,
                        -0.1062401831150055,
                        0.0974026545882225,
                        0.06750737130641937,
                        0.04371745139360428,
                        0.059146009385585785,
                        0.09842077642679214,
                        0.020228855311870575,
                        -0.05915538966655731,
                        -0.19253359735012054,
                        0.05659372732043266,
                        -0.05931790545582771,
                        0.061178114265203476,
                        0.0750076174736023,
                        -0.04982014372944832,
                        -0.221782848238945,
                        -0.03844030573964119,
                        0.09594474732875824,
                        -0.07686624675989151,
                        0.2400827407836914,
                        0.010216157883405685,
                        0.14817658066749573,
                        -0.05411753058433533,
                        0.0748339295387268,
                        0.06116727367043495,
                        0.06670121848583221,
                        -0.09510431438684464,
                        0.02434326335787773,
                        0.04915408045053482,
                        0.054181020706892014,
                        -0.07434292882680893,
                        0.08072938770055771,
                        -0.016964498907327652,
                        -0.1407191902399063,
                        0.018576931208372116,
                        0.0981244444847107,
                        -0.04386474937200546,
                        -0.05795568227767944,
                        0.02118113450706005,
                        -0.13657258450984955,
                        0.11699382960796356,
                        -0.057925812900066376,
                        -0.024627959355711937,
                        -0.0670548751950264,
                        0.0038449589628726244,
                        -0.13234201073646545,
                        -0.08978858590126038,
                        0.05957990884780884,
                        -0.07311753183603287,
                        -0.11151774227619171,
                        -0.10242387652397156,
                        -0.01171364076435566,
                        0.2292827069759369,
                        0.16551588475704193,
                        0.05596993491053581,
                        -0.051033537834882736,
                        0.04783303290605545,
                        -0.16564027965068817,
                        0.05570362135767937,
                        -0.0753241553902626,
                        -0.029175465926527977,
                        -0.12463980913162231,
                        0.19892679154872894,
                        0.05086953565478325,
                        0.20868508517742157,
                        -0.15110857784748077,
                        -0.09459935873746872,
                        0.09490980952978134,
                        0.10332100838422775,
                        0.16662102937698364,
                        0.07826817780733109,
                        -0.03785498067736626,
                        -0.08186996728181839,
                        0.15921790897846222,
                        0.18703670799732208,
                        -0.010878019966185093,
                        -0.012655960395932198,
                        0.03220128268003464,
                        -0.09550032019615173
                    ],
                    [
                        0.09086734056472778,
                        -0.02224087342619896,
                        0.040801797062158585,
                        -0.13200689852237701,
                        -0.006922556087374687,
                        0.1319630742073059,
                        0.061720773577690125,
                        -0.024469278752803802,
                        0.016666432842612267,
                        -0.03379318118095398,
                        0.20834369957447052,
                        -0.0675906091928482,
                        0.12717370688915253,
                        -0.05875610560178757,
                        -0.05557314306497574,
                        0.1370784491300583,
                        -0.0439583994448185,
                        -0.0045801689848303795,
                        -0.07832273095846176,
                        -0.17402192950248718,
                        0.050787728279829025,
                        0.037220776081085205,
                        -0.015751348808407784,
                        -0.1215956062078476,
                        0.06989550590515137,
                        -0.020372318103909492,
                        -0.09840870648622513,
                        -0.06335332244634628,
                        -0.017493654042482376,
                        0.03340084105730057,
                        0.22124037146568298,
                        0.07779298722743988,
                        -0.16361083090305328,
                        -0.062026966363191605,
                        -0.08549744635820389,
                        -0.06167348474264145,
                        -0.16284166276454926,
                        -0.07297316938638687,
                        0.033583953976631165,
                        0.16999530792236328,
                        -0.03929293528199196,
                        0.04347798600792885,
                        0.22094710171222687,
                        -0.006431097164750099,
                        0.08648665249347687,
                        -0.06761901080608368,
                        -0.011203760281205177,
                        -0.13025780022144318,
                        -0.04724051058292389,
                        0.03142104297876358,
                        0.2527458667755127,
                        0.029887601733207703,
                        -0.11235594004392624,
                        -0.0621463917195797,
                        0.003986787982285023,
                        0.10079574584960938,
                        0.03399885445833206,
                        0.06612402945756912,
                        0.03777039051055908,
                        -0.13437695801258087,
                        0.07042647898197174,
                        0.13699696958065033,
                        -0.012649273499846458,
                        -0.11241719126701355,
                        0.12284316122531891,
                        0.2584635317325592,
                        0.1035047397017479,
                        -0.004568303003907204,
                        -0.08405324071645737,
                        -0.01008649542927742,
                        -0.004925510846078396,
                        0.07770420610904694,
                        -0.020825114101171494,
                        -0.14550785720348358,
                        0.08835038542747498,
                        0.16229723393917084,
                        -0.0145980603992939,
                        -0.10744165629148483,
                        -0.07838359475135803,
                        0.040247127413749695,
                        0.18141336739063263,
                        0.13378211855888367,
                        0.07498860359191895,
                        0.1019105613231659,
                        -0.17324334383010864,
                        0.14459849894046783,
                        -0.009352847933769226,
                        -0.16840465366840363,
                        -0.05804673209786415,
                        -0.12596824765205383,
                        -0.01592893712222576,
                        -0.09694378077983856,
                        -0.13342231512069702,
                        -0.06713210046291351,
                        -0.0465889647603035,
                        -0.06845347583293915
                    ],
                    [
                        0.07820358127355576,
                        -0.08367495983839035,
                        -0.10430560261011124,
                        -0.11758981645107269,
                        -0.15705588459968567,
                        0.24929192662239075,
                        0.12267598509788513,
                        0.1739349067211151,
                        0.185133695602417,
                        0.09066163748502731,
                        -0.08945649117231369,
                        0.025958985090255737,
                        -0.2323572188615799,
                        0.03192470967769623,
                        0.01135445199906826,
                        -0.06822169572114944,
                        0.14500170946121216,
                        -0.15591584146022797,
                        -0.1535329669713974,
                        0.017380638048052788,
                        -0.0208909772336483,
                        0.11655628681182861,
                        0.02959752269089222,
                        0.07888184487819672,
                        -0.08802714198827744,
                        0.06509031355381012,
                        -0.021190781146287918,
                        -0.11174966394901276,
                        0.0573761872947216,
                        0.0069411504082381725,
                        -0.22233788669109344,
                        -0.05695665255188942,
                        -0.06607986986637115,
                        -0.06854916363954544,
                        -0.06811071932315826,
                        0.07454431056976318,
                        -0.004695902578532696,
                        0.005123402923345566,
                        -0.10534614324569702,
                        0.06276801973581314,
                        0.014741103164851665,
                        -0.03365769982337952,
                        -0.06038360297679901,
                        -0.09518879652023315,
                        -0.016291284933686256,
                        -0.11340012401342392,
                        0.1739877462387085,
                        0.0705341249704361,
                        -0.16286183893680573,
                        0.04250868782401085,
                        0.06079376861453056,
                        -0.03983162343502045,
                        -0.1625502109527588,
                        0.06951712816953659,
                        0.025981370359659195,
                        -0.06100555881857872,
                        -0.05897931754589081,
                        0.03696439415216446,
                        0.06731031090021133,
                        -0.16756917536258698,
                        0.1461702585220337,
                        -0.095388263463974,
                        -0.014365894719958305,
                        0.13160736858844757,
                        0.24329277873039246,
                        -0.09752795845270157,
                        -0.12174472957849503,
                        0.01746942475438118,
                        0.01969141513109207,
                        0.03923874348402023,
                        0.08696922659873962,
                        0.14571230113506317,
                        0.1623954027891159,
                        0.05033799633383751,
                        0.022300269454717636,
                        0.05438674986362457,
                        0.09310388565063477,
                        -0.05561697110533714,
                        0.023006096482276917,
                        -0.22754763066768646,
                        0.06833047419786453,
                        0.14039826393127441,
                        0.08948718756437302,
                        -0.02230951376259327,
                        -0.05600768327713013,
                        -0.0671551525592804,
                        -0.02984343282878399,
                        0.026117410510778427,
                        0.06133609265089035,
                        -0.06197314336895943,
                        0.009377136826515198,
                        -0.014684573747217655,
                        0.08151985704898834,
                        -0.07004091143608093,
                        -0.03886536881327629,
                        0.14926989376544952
                    ],
                    [
                        -0.08635794371366501,
                        -0.0935966968536377,
                        -0.03416600078344345,
                        -0.23021391034126282,
                        0.11697695404291153,
                        0.11215248703956604,
                        -0.025271035730838776,
                        -0.03512444719672203,
                        -0.03200765699148178,
                        0.0832623839378357,
                        0.2123388648033142,
                        -0.07331906259059906,
                        0.0971078872680664,
                        0.03732312098145485,
                        0.03604461997747421,
                        -0.10120388120412827,
                        0.018093634396791458,
                        -0.001239071600139141,
                        0.0799211636185646,
                        -0.09653403609991074,
                        0.027976110577583313,
                        0.07461708039045334,
                        -0.18911464512348175,
                        0.05481324717402458,
                        -0.06284395605325699,
                        0.02762499451637268,
                        -0.019515521824359894,
                        0.18023307621479034,
                        0.1809895634651184,
                        0.04501510038971901,
                        -0.16836178302764893,
                        0.08844152837991714,
                        -0.0026154164224863052,
                        0.2908705472946167,
                        0.05053258687257767,
                        -0.1757727414369583,
                        0.20553508400917053,
                        0.12043660134077072,
                        0.012093449011445045,
                        0.2333909422159195,
                        0.14794039726257324,
                        -0.0076330071315169334,
                        -0.048196256160736084,
                        -0.1066574901342392,
                        -0.0007071522995829582,
                        0.049353186041116714,
                        0.16648545861244202,
                        0.04076598584651947,
                        -0.09175270795822144,
                        0.09407738596200943,
                        -0.12405207753181458,
                        -0.07037866115570068,
                        0.02823314443230629,
                        0.08712582290172577,
                        -0.1551937609910965,
                        -0.16380402445793152,
                        0.0191733967512846,
                        0.022615239024162292,
                        0.06734031438827515,
                        0.022729741409420967,
                        -0.06732326745986938,
                        0.049868158996105194,
                        0.017350345849990845,
                        -0.03702542558312416,
                        -0.1517554223537445,
                        0.03234919160604477,
                        0.005463696084916592,
                        0.21631202101707458,
                        -0.08883631974458694,
                        0.06557897478342056,
                        -0.032002709805965424,
                        0.1338336169719696,
                        0.03814658895134926,
                        -0.14607205986976624,
                        -0.026556987315416336,
                        0.09673800319433212,
                        0.02425013855099678,
                        0.048844896256923676,
                        -0.04173446446657181,
                        -0.09328131377696991,
                        -0.10311241447925568,
                        -0.09077496081590652,
                        -0.10786900669336319,
                        0.09791690856218338,
                        -0.05517343431711197,
                        0.057177938520908356,
                        0.06868892163038254,
                        -0.06664949655532837,
                        -0.0986953154206276,
                        -0.05876218155026436,
                        -0.1101888120174408,
                        -0.005940090864896774,
                        0.013184155337512493,
                        0.022382955998182297,
                        0.10581692308187485,
                        -0.03845546767115593
                    ],
                    [
                        -0.0066455029882490635,
                        -0.03567744418978691,
                        -0.12793101370334625,
                        -0.04692385345697403,
                        0.052717916667461395,
                        -0.022077761590480804,
                        -0.09099938720464706,
                        -0.08903097361326218,
                        -0.1516888588666916,
                        0.22199749946594238,
                        -0.0032747869845479727,
                        -0.003256901167333126,
                        -0.025073077529668808,
                        0.007318822201341391,
                        0.14669477939605713,
                        -0.05757980793714523,
                        -0.07396837323904037,
                        -0.04603142291307449,
                        -0.12634225189685822,
                        0.009638933464884758,
                        0.015924574807286263,
                        0.05165788531303406,
                        -0.009914176538586617,
                        -0.24123845994472504,
                        0.08485153317451477,
                        0.009981850162148476,
                        -0.055977463722229004,
                        0.07783076912164688,
                        0.02816547080874443,
                        -0.09160913527011871,
                        0.2191406935453415,
                        -0.14542651176452637,
                        -0.16332808136940002,
                        -0.136344313621521,
                        -0.01310256402939558,
                        0.15490975975990295,
                        -0.0738544911146164,
                        0.1933305561542511,
                        -0.05657713860273361,
                        -0.018763938918709755,
                        -0.08817882090806961,
                        -0.08741336315870285,
                        0.023833343759179115,
                        0.0939474031329155,
                        0.04168492928147316,
                        0.06312482804059982,
                        -0.053642384707927704,
                        -0.027107952162623405,
                        -0.07709955424070358,
                        0.02954721823334694,
                        -0.11433146893978119,
                        -0.0721672773361206,
                        0.07126850634813309,
                        -0.014464139938354492,
                        0.23619507253170013,
                        -0.01318143866956234,
                        -0.09132198989391327,
                        -0.04559486359357834,
                        0.08982057124376297,
                        0.12107225507497787,
                        -0.05336470529437065,
                        0.014284106902778149,
                        -0.02638217993080616,
                        0.04581581801176071,
                        0.03992237150669098,
                        -0.03261246532201767,
                        -0.1691516786813736,
                        0.06429025530815125,
                        -0.024750472977757454,
                        -0.15545812249183655,
                        -0.021262353286147118,
                        0.2168116271495819,
                        0.032012682408094406,
                        -0.2560080289840698,
                        -0.0009042146848514676,
                        -0.15083426237106323,
                        0.14150576293468475,
                        -0.11908543854951859,
                        0.06849028170108795,
                        -0.06258261203765869,
                        0.07323972135782242,
                        -0.019949162378907204,
                        -0.1871311068534851,
                        -0.058484744280576706,
                        0.07922981679439545,
                        -0.07491583377122879,
                        -0.0069730160757899284,
                        0.10676676779985428,
                        -0.20123127102851868,
                        -0.08960283547639847,
                        -0.20588533580303192,
                        0.00017027842113748193,
                        0.07705692946910858,
                        -0.027077391743659973,
                        -0.04624108225107193,
                        -0.02768782153725624
                    ],
                    [
                        -0.16709911823272705,
                        -0.12732090055942535,
                        0.14578643441200256,
                        -0.07725850492715836,
                        -0.032602857798337936,
                        -0.015483967028558254,
                        -0.11819639056921005,
                        -0.021494749933481216,
                        -0.06222209334373474,
                        -0.08217687904834747,
                        0.031180167570710182,
                        -0.06303676962852478,
                        0.14697545766830444,
                        0.14565907418727875,
                        0.09421435743570328,
                        0.01819366216659546,
                        0.17476525902748108,
                        0.013203768990933895,
                        -0.11137167364358902,
                        -0.07733044773340225,
                        -0.09268703311681747,
                        -0.02057875320315361,
                        0.09673868119716644,
                        0.06041741371154785,
                        -0.15350258350372314,
                        0.06528439372777939,
                        -0.1592617630958557,
                        -0.010916294530034065,
                        0.12222547084093094,
                        0.033821046352386475,
                        -0.12423548102378845,
                        -0.11051123589277267,
                        -0.024182956665754318,
                        -0.23920764029026031,
                        0.12792345881462097,
                        -0.0634881854057312,
                        -0.05307477340102196,
                        0.014638854190707207,
                        -0.17861250042915344,
                        0.1529739946126938,
                        -0.02764417603611946,
                        -0.006426264997571707,
                        -0.03852500766515732,
                        -0.03696799278259277,
                        0.06350518763065338,
                        0.03965858370065689,
                        -0.013514133170247078,
                        -0.0310456994920969,
                        0.03768276423215866,
                        -0.112444669008255,
                        -0.06050209328532219,
                        0.21136154234409332,
                        0.015285057947039604,
                        0.03781961649656296,
                        0.06276257336139679,
                        0.015898985788226128,
                        -0.10252182185649872,
                        -0.03815724700689316,
                        -0.1503812074661255,
                        0.12845395505428314,
                        0.06770163029432297,
                        0.046778593212366104,
                        0.009506339207291603,
                        -0.1299569010734558,
                        -0.016742894425988197,
                        -0.06283695995807648,
                        -0.12146811187267303,
                        -0.02205144241452217,
                        -0.06245735287666321,
                        0.04157819598913193,
                        -0.05011868476867676,
                        -0.1924598664045334,
                        0.0033984677866101265,
                        0.022652866318821907,
                        0.22422362864017487,
                        -0.030757566913962364,
                        -0.11671373248100281,
                        -0.026685969904065132,
                        -0.0753227099776268,
                        0.03991992399096489,
                        0.03717869520187378,
                        -0.035050369799137115,
                        -0.1489761918783188,
                        0.0970289558172226,
                        -0.07296966016292572,
                        -0.09685458242893219,
                        -0.23113825917243958,
                        -0.09853827953338623,
                        0.06155669689178467,
                        -0.03307194262742996,
                        -0.09593451023101807,
                        0.20418837666511536,
                        -0.04950851574540138,
                        -0.25031477212905884,
                        -0.008403509855270386,
                        0.1268966943025589
                    ],
                    [
                        0.041246578097343445,
                        0.20185978710651398,
                        0.05166173726320267,
                        -0.14842094480991364,
                        -0.045261312276124954,
                        -0.04831051453948021,
                        -0.020884260535240173,
                        0.1392175257205963,
                        -0.36506375670433044,
                        0.12397782504558563,
                        -0.03487237170338631,
                        0.25296610593795776,
                        -0.1360967755317688,
                        -0.049201685935258865,
                        0.002183980541303754,
                        -0.08053724467754364,
                        0.23674961924552917,
                        -0.028337568044662476,
                        -0.028820227831602097,
                        0.11774742603302002,
                        0.15264694392681122,
                        0.007976316846907139,
                        -0.12097921967506409,
                        0.007575268857181072,
                        -0.18163001537322998,
                        0.01904270052909851,
                        -0.09823397547006607,
                        -0.0688643753528595,
                        -0.13489188253879547,
                        -0.006766207050532103,
                        0.030735109001398087,
                        0.09700160473585129,
                        0.08899085968732834,
                        0.12196561694145203,
                        -0.0640530213713646,
                        -0.06965342909097672,
                        -0.10020999610424042,
                        0.09966777265071869,
                        -0.11942308396100998,
                        -0.08332177251577377,
                        0.16271649301052094,
                        -0.08787623792886734,
                        -0.11379154026508331,
                        0.037438925355672836,
                        0.11553173512220383,
                        -0.04218193143606186,
                        -0.135890930891037,
                        -0.07468393445014954,
                        0.001294511603191495,
                        0.04491773992776871,
                        -0.062440209090709686,
                        0.09381719678640366,
                        0.15983587503433228,
                        0.01238675881177187,
                        -0.018651092424988747,
                        0.08136790245771408,
                        -0.13463778793811798,
                        0.0605897530913353,
                        -0.24575583636760712,
                        -0.0382697656750679,
                        0.00014416547492146492,
                        -0.02654513157904148,
                        -0.07743526995182037,
                        -0.09445445984601974,
                        0.03002634458243847,
                        0.030034173280000687,
                        0.12292186170816422,
                        0.11076263338327408,
                        0.041262537240982056,
                        0.06260395050048828,
                        0.050126805901527405,
                        0.01683514006435871,
                        0.0006622830405831337,
                        -0.08382479846477509,
                        0.025391429662704468,
                        0.09639911353588104,
                        0.027171125635504723,
                        -0.04192352667450905,
                        0.021154483780264854,
                        0.003974800929427147,
                        0.12852226197719574,
                        0.041377484798431396,
                        0.1632767915725708,
                        0.05453648418188095,
                        0.08937079459428787,
                        -0.025316474959254265,
                        -0.0682084858417511,
                        -0.12290541082620621,
                        -0.10469695180654526,
                        0.0029062647372484207,
                        0.0817875862121582,
                        -0.021141257137060165,
                        0.07716763019561768,
                        -0.044804006814956665,
                        0.07671350985765457,
                        -0.09152044355869293
                    ],
                    [
                        0.020210035145282745,
                        -0.04721730574965477,
                        -0.006678906735032797,
                        -0.13266931474208832,
                        -0.03756780922412872,
                        -0.003061524126678705,
                        -0.0017082716803997755,
                        0.2026825100183487,
                        -0.06257016211748123,
                        0.10270777344703674,
                        0.013701715506613255,
                        0.0342215895652771,
                        0.12214202433824539,
                        0.05616316944360733,
                        0.11727602034807205,
                        0.18770232796669006,
                        -0.09807850420475006,
                        0.09260735660791397,
                        0.008814144879579544,
                        0.1316143423318863,
                        0.1160769909620285,
                        0.07893794029951096,
                        -0.16253535449504852,
                        0.07266897708177567,
                        -0.17449817061424255,
                        -0.15335476398468018,
                        0.11694931983947754,
                        -0.12249463051557541,
                        -0.15837934613227844,
                        -0.06485588103532791,
                        0.02600637450814247,
                        -0.10823147743940353,
                        -0.10589877516031265,
                        -0.043124351650476456,
                        0.09316014498472214,
                        -0.09986269474029541,
                        -0.005877705756574869,
                        -0.04512597247958183,
                        0.08015545457601547,
                        -0.07266104966402054,
                        -0.12630178034305573,
                        0.06983407586812973,
                        0.09865091741085052,
                        -0.09365751594305038,
                        0.014465676620602608,
                        0.11134868115186691,
                        -0.008804886601865292,
                        0.13776947557926178,
                        -0.06844925880432129,
                        -0.02005932107567787,
                        -0.03125507012009621,
                        0.1853678822517395,
                        -0.16804814338684082,
                        0.009983397088944912,
                        0.11866553127765656,
                        -0.007212907075881958,
                        -0.13655921816825867,
                        0.010929321870207787,
                        0.16568848490715027,
                        0.08200480788946152,
                        0.03476570174098015,
                        0.0878642201423645,
                        0.016243211925029755,
                        0.054105859249830246,
                        -0.13205595314502716,
                        0.009912658482789993,
                        -0.03925451263785362,
                        0.05977475643157959,
                        0.09742837399244308,
                        0.04203186556696892,
                        -0.09048311412334442,
                        0.07154816389083862,
                        -0.12876948714256287,
                        0.09381645172834396,
                        0.05770600959658623,
                        0.17445801198482513,
                        0.05318872258067131,
                        -0.02778683416545391,
                        -0.03475363180041313,
                        -0.08835345506668091,
                        -0.17202310264110565,
                        -0.2367466539144516,
                        0.21358466148376465,
                        -0.28444236516952515,
                        0.016745125874876976,
                        0.09373930096626282,
                        -0.07039824873209,
                        -0.06985608488321304,
                        0.018085936084389687,
                        -0.045248374342918396,
                        -0.03618244454264641,
                        0.09479540586471558,
                        0.015399891883134842,
                        0.007049457635730505,
                        -0.1129661276936531,
                        -0.05262361839413643
                    ],
                    [
                        0.07059065997600555,
                        -0.09075313806533813,
                        -0.18543168902397156,
                        -0.08501345664262772,
                        0.06445784121751785,
                        0.03462032228708267,
                        -0.0066149793565273285,
                        0.06550168991088867,
                        -0.10673452913761139,
                        -0.015413659624755383,
                        0.0308382511138916,
                        -0.1004292219877243,
                        0.058796510100364685,
                        0.21372419595718384,
                        0.048026490956544876,
                        0.017543012276291847,
                        0.11609435081481934,
                        0.0005943085998296738,
                        0.12155316770076752,
                        0.06049227714538574,
                        0.09901688992977142,
                        0.05036625638604164,
                        -0.060478147119283676,
                        -0.07552433013916016,
                        0.16456913948059082,
                        0.026665646582841873,
                        0.008791055530309677,
                        0.021373027935624123,
                        0.0010034935548901558,
                        0.18540310859680176,
                        0.00614798441529274,
                        -0.10481090098619461,
                        -0.06136101111769676,
                        0.09800131618976593,
                        -0.18607303500175476,
                        0.10295426100492477,
                        0.13248029351234436,
                        0.03687223419547081,
                        -0.07439664751291275,
                        -0.02997402288019657,
                        0.1464751809835434,
                        0.02909017913043499,
                        -0.016314595937728882,
                        -0.06220133602619171,
                        -0.13421890139579773,
                        0.018458185717463493,
                        -0.05893917381763458,
                        0.13322773575782776,
                        -0.023281853646039963,
                        -0.11936475336551666,
                        -0.016849536448717117,
                        0.15602342784404755,
                        -0.017840273678302765,
                        0.0015210267156362534,
                        -0.038456957787275314,
                        0.2403363138437271,
                        -0.04877682030200958,
                        -0.018032856285572052,
                        -0.06758510321378708,
                        0.030159592628479004,
                        0.01319354772567749,
                        -0.13004404306411743,
                        -0.002458981703966856,
                        0.20421242713928223,
                        -0.2226662039756775,
                        0.07954387366771698,
                        -0.03249267861247063,
                        -0.21725504100322723,
                        -0.18648487329483032,
                        -0.1126803383231163,
                        0.03900911286473274,
                        -0.056984882801771164,
                        -0.016957439482212067,
                        0.15270031988620758,
                        -0.001262769103050232,
                        0.003923600539565086,
                        -0.05192781239748001,
                        0.005222572945058346,
                        0.20742450654506683,
                        0.00748826377093792,
                        0.1523343026638031,
                        0.12278001010417938,
                        0.0444427952170372,
                        -0.06551240384578705,
                        0.013230548240244389,
                        -0.04901908338069916,
                        -0.052484072744846344,
                        -0.06777055561542511,
                        0.10218237340450287,
                        -0.1220514252781868,
                        -0.17324717342853546,
                        -0.17925280332565308,
                        -0.1989031732082367,
                        0.02910684049129486,
                        0.0958218201994896,
                        -0.020898420363664627
                    ],
                    [
                        -0.04745578020811081,
                        0.08172862231731415,
                        -0.1452275514602661,
                        0.19369490444660187,
                        -0.013990365900099277,
                        0.002199440961703658,
                        0.03451363742351532,
                        0.03189957141876221,
                        0.04942453280091286,
                        -0.004150982014834881,
                        0.0774143636226654,
                        -0.0342700369656086,
                        -0.0007633580826222897,
                        0.027312062680721283,
                        -0.11770788580179214,
                        -0.1579868048429489,
                        -0.23638416826725006,
                        0.0068584950640797615,
                        -0.049464475363492966,
                        -0.06016489490866661,
                        -0.13030311465263367,
                        0.1043027713894844,
                        -0.22843845188617706,
                        -0.11379740387201309,
                        -0.19986984133720398,
                        0.21988245844841003,
                        0.02755853161215782,
                        -0.05332242324948311,
                        0.04404284805059433,
                        0.01810896210372448,
                        0.13464291393756866,
                        0.1152450293302536,
                        0.02557399682700634,
                        -0.05863243713974953,
                        -0.051560740917921066,
                        0.07929086685180664,
                        0.012830302119255066,
                        -0.0342499241232872,
                        0.0030547273345291615,
                        0.08691022545099258,
                        0.2297629714012146,
                        -0.06309407204389572,
                        0.18345783650875092,
                        0.11241836100816727,
                        0.06586842238903046,
                        0.030049975961446762,
                        0.12065930664539337,
                        0.09657227247953415,
                        -0.04944436624646187,
                        -0.0628923624753952,
                        0.11817267537117004,
                        -0.1001480296254158,
                        0.010789278894662857,
                        0.1205991879105568,
                        0.013545721769332886,
                        -0.010886238887906075,
                        -0.15622946619987488,
                        0.03454082831740379,
                        -0.07179071754217148,
                        -0.02615445852279663,
                        0.05879555270075798,
                        -0.07995942234992981,
                        -0.017894405871629715,
                        0.1595131903886795,
                        -0.1252966970205307,
                        -0.01597018539905548,
                        -0.15514925122261047,
                        -0.08466682583093643,
                        0.0688151940703392,
                        0.1135481521487236,
                        -0.009566018357872963,
                        -0.1036468967795372,
                        -0.061383794993162155,
                        0.008261335082352161,
                        -0.017838923260569572,
                        0.1497841328382492,
                        -0.10159702599048615,
                        0.09505212306976318,
                        0.03953060880303383,
                        0.07316970080137253,
                        -0.09328299760818481,
                        0.028666485100984573,
                        -0.018911486491560936,
                        0.02067985013127327,
                        0.1518496870994568,
                        -0.0678551122546196,
                        -0.18417787551879883,
                        -0.005266532301902771,
                        -0.16128432750701904,
                        0.03091477043926716,
                        0.09457042813301086,
                        0.04104791581630707,
                        0.0032650362700223923,
                        -0.2078438699245453,
                        -0.14236390590667725,
                        -0.179569274187088
                    ],
                    [
                        -0.04587778449058533,
                        0.057569172233343124,
                        -0.005695089232176542,
                        -0.020295795053243637,
                        0.20602744817733765,
                        -0.23618170619010925,
                        -0.05921794846653938,
                        -0.004005196504294872,
                        -0.013050190173089504,
                        -0.08681309223175049,
                        -0.1691267490386963,
                        0.009755334816873074,
                        0.06806435436010361,
                        0.10459395498037338,
                        0.05318306386470795,
                        -0.03353697434067726,
                        0.10348575562238693,
                        0.065910205245018,
                        0.006055152043700218,
                        -0.06015520915389061,
                        0.07718942314386368,
                        0.007648208644241095,
                        -0.1993153989315033,
                        -0.09663090854883194,
                        -0.050702717155218124,
                        0.031253036111593246,
                        -0.17298302054405212,
                        -0.05776943266391754,
                        0.013558927923440933,
                        -0.036398228257894516,
                        0.09833711385726929,
                        0.13450023531913757,
                        -0.12574517726898193,
                        -0.06609717011451721,
                        -0.04353939741849899,
                        0.030922146514058113,
                        0.07485312223434448,
                        0.014980321750044823,
                        -0.022625863552093506,
                        -0.05272730439901352,
                        -0.18874718248844147,
                        0.1418093591928482,
                        -0.17037010192871094,
                        -0.20542249083518982,
                        0.017072878777980804,
                        -0.10830995440483093,
                        0.11794893443584442,
                        0.09371361881494522,
                        -0.09128418564796448,
                        0.009669298306107521,
                        -0.023722417652606964,
                        -0.1742691993713379,
                        -0.18715833127498627,
                        0.0754878893494606,
                        0.0064976694993674755,
                        -0.14559116959571838,
                        -0.01159342285245657,
                        -0.11558737605810165,
                        -0.017684655264019966,
                        0.11653624475002289,
                        0.013087484985589981,
                        -0.09416913986206055,
                        -0.15938466787338257,
                        0.08267147839069366,
                        0.09671206027269363,
                        0.15334452688694,
                        0.056379906833171844,
                        -0.1479477882385254,
                        0.0461784265935421,
                        0.2496960312128067,
                        0.15255354344844818,
                        0.013461005873978138,
                        0.011812018230557442,
                        -0.03297017514705658,
                        0.003673209808766842,
                        -0.025025974959135056,
                        -0.0411527156829834,
                        -0.1151246502995491,
                        -0.0761888325214386,
                        0.012731876224279404,
                        0.0945802703499794,
                        -0.12424420565366745,
                        -0.036090001463890076,
                        0.06708802282810211,
                        -0.09105952829122543,
                        0.029061295092105865,
                        -0.1533297300338745,
                        0.0424165241420269,
                        -0.030879592522978783,
                        0.20436786115169525,
                        0.05333965644240379,
                        -0.11960332095623016,
                        -0.09683118015527725,
                        0.168221116065979,
                        -0.02657013200223446,
                        0.03516967594623566
                    ],
                    [
                        0.05421271547675133,
                        0.04299778491258621,
                        0.09291310608386993,
                        0.00783916749060154,
                        -0.05177624896168709,
                        -0.08576608449220657,
                        0.11336026340723038,
                        0.03635768964886665,
                        -0.09834858030080795,
                        -0.007921074517071247,
                        -0.041902005672454834,
                        -0.13308826088905334,
                        0.08881871402263641,
                        0.12168391048908234,
                        -0.12655743956565857,
                        -0.26213422417640686,
                        -0.20801493525505066,
                        -0.07602529227733612,
                        -0.13845732808113098,
                        -0.06478758901357651,
                        0.017843548208475113,
                        0.034182868897914886,
                        0.11714505404233932,
                        -0.10960887372493744,
                        -0.07819176465272903,
                        -0.017052065581083298,
                        -0.11112067103385925,
                        -0.059120941907167435,
                        0.13083882629871368,
                        -0.07765781134366989,
                        -0.04691210389137268,
                        -0.15174110233783722,
                        0.009645724669098854,
                        0.1468672752380371,
                        -0.08257506787776947,
                        0.00387820927426219,
                        0.1795876920223236,
                        -0.04198011755943298,
                        0.01554729975759983,
                        -0.061511676758527756,
                        -0.07879354804754257,
                        -0.08605319261550903,
                        0.031960491091012955,
                        -0.19102126359939575,
                        -0.08445879071950912,
                        0.08942001312971115,
                        -0.06703164428472519,
                        -0.2399277687072754,
                        -0.015204298309981823,
                        -0.053536057472229004,
                        0.04023146629333496,
                        0.20244432985782623,
                        -0.1642308533191681,
                        -0.04660068824887276,
                        -0.20123548805713654,
                        0.1621861755847931,
                        -0.02678009867668152,
                        0.01312701590359211,
                        -0.13024786114692688,
                        -0.03314996138215065,
                        0.04354510083794594,
                        0.11307421326637268,
                        -0.10216797143220901,
                        -0.002908981405198574,
                        -0.046149156987667084,
                        -0.10769098252058029,
                        0.03909435123205185,
                        0.11797259002923965,
                        0.1867516040802002,
                        -0.021393395960330963,
                        -0.032711438834667206,
                        0.04045448824763298,
                        0.16919425129890442,
                        -0.19531892240047455,
                        -0.13593776524066925,
                        -0.04845327511429787,
                        -0.10316690057516098,
                        -0.05129210278391838,
                        0.049893368035554886,
                        -0.03491871431469917,
                        0.004477995447814465,
                        -0.1062702089548111,
                        0.03729579597711563,
                        -0.06366683542728424,
                        0.06322707235813141,
                        0.08247927576303482,
                        -0.05285771191120148,
                        0.17554837465286255,
                        0.03315440192818642,
                        -0.0047687869518995285,
                        0.060010235756635666,
                        -0.05518459156155586,
                        -0.12091351300477982,
                        0.009402713738381863,
                        -0.11616519838571548,
                        0.07681204378604889
                    ],
                    [
                        -0.10705018788576126,
                        -0.14460554718971252,
                        0.05198671296238899,
                        0.06831087917089462,
                        0.15500427782535553,
                        -0.19006562232971191,
                        0.16261780261993408,
                        -0.13354678452014923,
                        0.098370261490345,
                        -0.021957654505968094,
                        0.05826329067349434,
                        -0.12198539078235626,
                        -0.021848585456609726,
                        0.0971606895327568,
                        -0.10161413252353668,
                        -0.2389865517616272,
                        0.1711796522140503,
                        -0.027144767343997955,
                        -0.04437512904405594,
                        0.01043761521577835,
                        0.06090356409549713,
                        0.1156514585018158,
                        0.12157343327999115,
                        0.01304650865495205,
                        -0.04234660044312477,
                        -0.18253396451473236,
                        0.20175911486148834,
                        -0.09015554934740067,
                        -0.19396927952766418,
                        0.009939146228134632,
                        0.22566404938697815,
                        -0.08924967050552368,
                        -0.0708341971039772,
                        0.04379916563630104,
                        0.11247659474611282,
                        -0.019700273871421814,
                        -0.11366795003414154,
                        0.09342699497938156,
                        0.09612177312374115,
                        0.09994897246360779,
                        0.1154618114233017,
                        -0.017057577148079872,
                        -0.20658335089683533,
                        0.07919982820749283,
                        0.08817246556282043,
                        -0.12757663428783417,
                        -0.05621110647916794,
                        0.014797559008002281,
                        -0.06395000219345093,
                        0.07904133945703506,
                        0.0035277316346764565,
                        -0.10240061581134796,
                        0.031887419521808624,
                        0.02339503914117813,
                        -0.08012638241052628,
                        0.09486979991197586,
                        0.01757817715406418,
                        0.15270380675792694,
                        0.048480551689863205,
                        0.0277846809476614,
                        0.1003410816192627,
                        0.07248710840940475,
                        -0.06612414121627808,
                        -0.07675083726644516,
                        -0.13599073886871338,
                        -0.09346567839384079,
                        -0.0962192714214325,
                        -0.04365620017051697,
                        0.01665259525179863,
                        -0.0011045740684494376,
                        0.15693427622318268,
                        -0.1499302089214325,
                        -0.015824519097805023,
                        0.038689907640218735,
                        -0.047050703316926956,
                        0.06239638477563858,
                        0.12298455834388733,
                        -0.09857147186994553,
                        -0.08686487376689911,
                        -0.21046094596385956,
                        -0.06671413779258728,
                        0.05991198867559433,
                        0.12241197377443314,
                        0.10423102974891663,
                        0.029468275606632233,
                        0.13087569177150726,
                        -0.08724012225866318,
                        0.06502065062522888,
                        0.01428176462650299,
                        -0.0676618441939354,
                        -0.12895020842552185,
                        0.0781588926911354,
                        -0.0390014611184597,
                        0.026597823947668076,
                        -0.02199958637356758,
                        0.006875528953969479
                    ],
                    [
                        0.021976405754685402,
                        0.16842502355575562,
                        -0.08333827555179596,
                        0.08635599911212921,
                        -0.011624586768448353,
                        0.04205353930592537,
                        -0.04875926300883293,
                        -0.061406560242176056,
                        0.08247630298137665,
                        0.08501704782247543,
                        0.019909726455807686,
                        -0.09737788140773773,
                        0.14517277479171753,
                        -0.08540016412734985,
                        0.012393311597406864,
                        -0.08244793862104416,
                        -0.056359682232141495,
                        -0.043643150478601456,
                        0.17415939271450043,
                        -0.029668347910046577,
                        0.29407066106796265,
                        -0.024439213797450066,
                        0.018199728801846504,
                        0.038558050990104675,
                        0.1556548923254013,
                        -0.03103204257786274,
                        -0.008347224444150925,
                        0.0147123197093606,
                        0.021870385855436325,
                        0.0756387934088707,
                        -0.12057162821292877,
                        -0.14988374710083008,
                        0.012802118435502052,
                        0.010318420827388763,
                        -0.10494749248027802,
                        0.10989994555711746,
                        0.0007804670603945851,
                        0.14402465522289276,
                        0.019271301105618477,
                        0.1202194094657898,
                        0.04571632668375969,
                        0.03972874581813812,
                        -0.062959223985672,
                        -0.09072313457727432,
                        -0.052378520369529724,
                        0.08259899169206619,
                        -0.011470266617834568,
                        -0.18736429512500763,
                        -0.20755749940872192,
                        -0.001184200868010521,
                        0.1291954517364502,
                        -0.04248937591910362,
                        -0.07679256051778793,
                        -0.06709467619657516,
                        0.0995590090751648,
                        -0.14288944005966187,
                        0.025152703747153282,
                        0.01666625402867794,
                        -0.05464310199022293,
                        0.18412666022777557,
                        0.03273285552859306,
                        -0.13503298163414001,
                        0.14055074751377106,
                        -0.2305428683757782,
                        0.14200949668884277,
                        -0.044562894850969315,
                        0.08127038180828094,
                        0.03636663407087326,
                        -0.07275520265102386,
                        0.07322240620851517,
                        -0.00878063403069973,
                        -0.06326133757829666,
                        -0.011818191967904568,
                        0.13112644851207733,
                        0.029551750048995018,
                        0.0726034864783287,
                        0.0004421330231707543,
                        -0.0008556635002605617,
                        0.09414345771074295,
                        0.031639743596315384,
                        0.10058174282312393,
                        0.010660785250365734,
                        0.04311417043209076,
                        -0.017607156187295914,
                        0.183249369263649,
                        0.05496916174888611,
                        -0.26024454832077026,
                        -0.02044866979122162,
                        0.01831051893532276,
                        -0.09935683012008667,
                        0.07766612619161606,
                        0.23681072890758514,
                        0.15139690041542053,
                        0.14541715383529663,
                        -0.12562662363052368,
                        -0.12735307216644287
                    ],
                    [
                        0.08125488460063934,
                        -0.011013481765985489,
                        0.13238215446472168,
                        0.12775935232639313,
                        0.12842562794685364,
                        0.13133367896080017,
                        0.06186741590499878,
                        0.0536416657269001,
                        0.005940511357039213,
                        0.006621147971600294,
                        0.13086412847042084,
                        -0.032656632363796234,
                        0.04199450463056564,
                        -0.011541909538209438,
                        0.10129516571760178,
                        -0.07516996562480927,
                        -0.04565814509987831,
                        0.21163052320480347,
                        0.0368851013481617,
                        0.09868013858795166,
                        0.029490197077393532,
                        -0.21665959060192108,
                        -0.03595232591032982,
                        -0.021684259176254272,
                        0.17758536338806152,
                        0.12515319883823395,
                        -0.07325170189142227,
                        -0.007715982384979725,
                        -0.012805886566638947,
                        0.1307385116815567,
                        0.05812237039208412,
                        -0.1168988049030304,
                        -0.015406687743961811,
                        -0.021656613796949387,
                        0.10003092885017395,
                        0.09339538961648941,
                        0.014917947351932526,
                        -0.06670429557561874,
                        -0.12535743415355682,
                        -0.14342887699604034,
                        0.1510811746120453,
                        -0.1789848953485489,
                        0.00516798160970211,
                        -0.18922951817512512,
                        0.13423223793506622,
                        0.03900438919663429,
                        0.08709230273962021,
                        0.06056387722492218,
                        -0.07807078212499619,
                        0.07607558369636536,
                        0.07912135124206543,
                        -0.2202589064836502,
                        0.13931195437908173,
                        0.21529096364974976,
                        0.012563462369143963,
                        0.15130199491977692,
                        -0.12720811367034912,
                        -0.02067270129919052,
                        -0.029766863211989403,
                        0.059665579348802567,
                        0.06935503333806992,
                        0.053157906979322433,
                        -0.043215278536081314,
                        0.032567232847213745,
                        -0.061617255210876465,
                        -0.12543877959251404,
                        0.08001497387886047,
                        0.012723885476589203,
                        0.07984251528978348,
                        -0.03722773492336273,
                        -0.027308423072099686,
                        0.11478264629840851,
                        0.14794087409973145,
                        0.0763230249285698,
                        -0.08387434482574463,
                        -0.13811500370502472,
                        0.036966729909181595,
                        -0.11623343825340271,
                        -0.13027618825435638,
                        0.05345426872372627,
                        0.07778933644294739,
                        -0.1069222092628479,
                        0.07501410692930222,
                        -0.046058643609285355,
                        -0.21228158473968506,
                        0.13793246448040009,
                        0.07642906159162521,
                        -0.18725791573524475,
                        0.09605415165424347,
                        0.02273033931851387,
                        0.07311268150806427,
                        0.16898120939731598,
                        0.04828045517206192,
                        -0.0706784650683403,
                        -0.016478512436151505,
                        0.04114244133234024
                    ],
                    [
                        0.027111219242215157,
                        0.07056731730699539,
                        0.1010943204164505,
                        -0.18274597823619843,
                        0.0945376381278038,
                        -0.05150233209133148,
                        -0.0589851513504982,
                        -0.028406420722603798,
                        0.19120532274246216,
                        -0.1126551404595375,
                        0.037031784653663635,
                        -0.06250512599945068,
                        -0.1474701166152954,
                        -0.07813107222318649,
                        0.12285830825567245,
                        -0.012907793745398521,
                        0.0031037675216794014,
                        -0.07131930440664291,
                        -0.01317831501364708,
                        0.06870454549789429,
                        0.15934056043624878,
                        0.025793438777327538,
                        0.19656360149383545,
                        -0.11135972291231155,
                        0.1446208953857422,
                        0.22811353206634521,
                        -0.08971060067415237,
                        -0.11733704060316086,
                        -0.12578073143959045,
                        -0.07954760640859604,
                        -0.043775010854005814,
                        -0.07505594193935394,
                        0.059084001928567886,
                        -0.08960624039173126,
                        0.026747900992631912,
                        0.06551459431648254,
                        0.12371711432933807,
                        0.03090703673660755,
                        0.16554471850395203,
                        0.032575689256191254,
                        -0.1107114776968956,
                        0.011816286481916904,
                        0.12606406211853027,
                        -0.09447792172431946,
                        0.0350479856133461,
                        -0.15387561917304993,
                        -0.0208982452750206,
                        0.09122443944215775,
                        0.021919112652540207,
                        0.1639460325241089,
                        0.0759020745754242,
                        0.01882994920015335,
                        0.07235707342624664,
                        0.08527065813541412,
                        0.02368083782494068,
                        0.026188241317868233,
                        -0.07201451808214188,
                        0.06702208518981934,
                        -0.205417662858963,
                        -0.1390683501958847,
                        -0.1197517067193985,
                        0.016318297013640404,
                        0.0700141191482544,
                        -0.03932194039225578,
                        -0.13264437019824982,
                        0.04049651697278023,
                        -0.10045649111270905,
                        0.0731532946228981,
                        -0.19686535000801086,
                        0.09576086699962616,
                        -0.00750796077772975,
                        0.03409382700920105,
                        -0.03765946626663208,
                        -0.17571121454238892,
                        -0.04294012486934662,
                        -0.016027173027396202,
                        -0.17993953824043274,
                        0.1148548498749733,
                        -0.021291308104991913,
                        -0.0917612686753273,
                        -0.17130929231643677,
                        0.05322481319308281,
                        0.10761452466249466,
                        -0.16888193786144257,
                        0.08200538158416748,
                        -0.08170556277036667,
                        -0.0896935686469078,
                        -0.0974947139620781,
                        -0.02210051752626896,
                        0.2224496603012085,
                        -0.1268332600593567,
                        0.06090587005019188,
                        -0.005967570934444666,
                        0.049478914588689804,
                        0.06977483630180359,
                        -0.030963795259594917
                    ],
                    [
                        0.15438780188560486,
                        -0.019324559718370438,
                        -0.030669433996081352,
                        0.005382806994020939,
                        0.03230427950620651,
                        -0.07933559268712997,
                        -0.028068209066987038,
                        -0.058995239436626434,
                        -0.14989423751831055,
                        -0.09460300207138062,
                        -0.18701636791229248,
                        0.08929617702960968,
                        0.08642441034317017,
                        -0.15975868701934814,
                        0.10265873372554779,
                        -0.1416618376970291,
                        0.00437652412801981,
                        0.0920623391866684,
                        -0.18968355655670166,
                        -0.0915975496172905,
                        0.07665083557367325,
                        -0.030536316335201263,
                        0.07519978284835815,
                        0.1955542266368866,
                        0.1505586951971054,
                        -0.13058769702911377,
                        -0.04949480667710304,
                        -0.11100845038890839,
                        0.07740045338869095,
                        0.07649033516645432,
                        -0.015580490231513977,
                        0.004617725033313036,
                        -0.06617840379476547,
                        -0.04773777350783348,
                        -0.021887177601456642,
                        0.05164019390940666,
                        0.09326893091201782,
                        -0.09670136123895645,
                        0.15529629588127136,
                        0.06781917810440063,
                        -0.09625139087438583,
                        -0.15890945494174957,
                        -0.0027763452380895615,
                        0.010902566835284233,
                        0.12527936697006226,
                        0.28015226125717163,
                        0.04761340841650963,
                        -0.0012118984013795853,
                        0.0845220535993576,
                        -0.05766664072871208,
                        -0.09204863011837006,
                        -0.04218703880906105,
                        -0.04819212108850479,
                        0.12169007956981659,
                        0.03394477814435959,
                        -0.04134749248623848,
                        0.07697298377752304,
                        0.08730927109718323,
                        -0.16196613013744354,
                        -0.11417119204998016,
                        -0.12324700504541397,
                        -0.07403501868247986,
                        0.06263125687837601,
                        0.12818683683872223,
                        0.00571220088750124,
                        0.13149574398994446,
                        -0.20334701240062714,
                        -0.07102923840284348,
                        0.10471402108669281,
                        0.05293302237987518,
                        -0.13346688449382782,
                        0.07759040594100952,
                        0.06298533827066422,
                        0.07636646926403046,
                        0.013117940165102482,
                        0.02701609767973423,
                        0.16659384965896606,
                        0.1361824870109558,
                        -0.10787580907344818,
                        -0.08540062606334686,
                        -0.08931499719619751,
                        0.031962186098098755,
                        0.08323846012353897,
                        0.23905980587005615,
                        0.052807532250881195,
                        0.012695685029029846,
                        -0.04116184636950493,
                        -0.10273096710443497,
                        0.06626597791910172,
                        -0.18009771406650543,
                        -0.04076908901333809,
                        -0.040712494403123856,
                        -0.05223054066300392,
                        0.0011616391129791737,
                        0.036425068974494934,
                        -0.15210269391536713
                    ],
                    [
                        -0.08567579835653305,
                        -0.008735952898859978,
                        0.04753578454256058,
                        -0.08241971582174301,
                        0.002359260804951191,
                        -0.0726223886013031,
                        0.11071587353944778,
                        -0.006231898907572031,
                        -0.07102075964212418,
                        2.406863495707512e-05,
                        -0.06005573272705078,
                        -0.055798083543777466,
                        0.07427258789539337,
                        -0.036121152341365814,
                        -0.22688962519168854,
                        0.01078815758228302,
                        -0.02319711074233055,
                        -0.07882627099752426,
                        0.20162655413150787,
                        0.004185456782579422,
                        -0.1477215588092804,
                        -0.15693162381649017,
                        0.16852359473705292,
                        -0.01094653457403183,
                        -0.03774425759911537,
                        -0.0038447463884949684,
                        -0.06237688660621643,
                        -0.2630983591079712,
                        -0.01702626794576645,
                        0.05072934180498123,
                        -0.06138021871447563,
                        0.07586240768432617,
                        -0.1321379393339157,
                        0.031570401042699814,
                        -0.08645372837781906,
                        0.053853340446949005,
                        -0.04858354851603508,
                        -0.08447876572608948,
                        0.011164914816617966,
                        0.08034835755825043,
                        0.029160726815462112,
                        0.13669289648532867,
                        -0.09593163430690765,
                        -0.15768282115459442,
                        0.17929749190807343,
                        0.14206813275814056,
                        0.15581873059272766,
                        0.04491136595606804,
                        0.18305589258670807,
                        0.0647658184170723,
                        -0.012667689472436905,
                        0.016517458483576775,
                        0.04980925843119621,
                        -0.04147033765912056,
                        0.18766410648822784,
                        0.06648457050323486,
                        -0.09733528643846512,
                        0.07093249261379242,
                        0.1410781443119049,
                        -0.09824640303850174,
                        -0.10107868909835815,
                        -0.18967139720916748,
                        0.023526126518845558,
                        0.0678410530090332,
                        -0.06834744662046432,
                        -0.04748428985476494,
                        -0.07993833720684052,
                        0.048284683376550674,
                        -0.020212186500430107,
                        -0.06576862931251526,
                        -0.010494961403310299,
                        0.05293264612555504,
                        -0.08037223666906357,
                        -0.07178650051355362,
                        -0.020575731992721558,
                        0.07099009305238724,
                        -0.07872152328491211,
                        -0.09153080731630325,
                        0.26684489846229553,
                        0.09825579822063446,
                        0.06674796342849731,
                        -0.08372548222541809,
                        0.009632069617509842,
                        0.1470826268196106,
                        0.08817918598651886,
                        0.1892005056142807,
                        0.034116022288799286,
                        -0.08510693907737732,
                        -0.1058579683303833,
                        0.051776155829429626,
                        -0.08560507744550705,
                        0.03645908832550049,
                        0.21536900103092194,
                        0.051371630281209946,
                        -0.01109859999269247,
                        0.19812899827957153
                    ],
                    [
                        -0.003267486346885562,
                        -0.22723165154457092,
                        -0.27058446407318115,
                        0.18237005174160004,
                        0.17572779953479767,
                        0.03224321827292442,
                        0.17056147754192352,
                        -0.11073058098554611,
                        -0.047204889357089996,
                        -0.010993820615112782,
                        -0.10527186095714569,
                        -0.026690170168876648,
                        -0.028658173978328705,
                        -0.1030866727232933,
                        0.09207004308700562,
                        -0.05164608731865883,
                        -0.025001952424645424,
                        -0.09701255708932877,
                        0.025713134557008743,
                        0.056635696440935135,
                        -0.07375530153512955,
                        0.032417118549346924,
                        -0.09015438705682755,
                        0.0036060940474271774,
                        0.0998348668217659,
                        -0.03802608326077461,
                        -0.026794102042913437,
                        -0.03133402019739151,
                        -0.03953448683023453,
                        -0.10979283601045609,
                        0.025811778381466866,
                        0.05180550366640091,
                        0.1482953280210495,
                        -0.049938514828681946,
                        -0.03467418998479843,
                        -0.12961849570274353,
                        0.19151131808757782,
                        0.006448478437960148,
                        -0.10658425092697144,
                        -0.07525581121444702,
                        -0.05602345988154411,
                        0.12985220551490784,
                        -0.05661716312170029,
                        0.22810442745685577,
                        0.08168429881334305,
                        -0.11872905492782593,
                        0.1094738095998764,
                        0.04926818981766701,
                        -0.04659543186426163,
                        -0.04293179139494896,
