{
    "in_shape": [
        null,
        null,
        2
    ],
    "layers": [
        {
            "type": "gru",
            "activation": "tanh",
            "shape": [
                null,
                null,
                8
            ],
            "weights": [
                [
                    [
                        -0.16312852501869202,
                        -0.23625873029232025,
                        -0.1380481719970703,
                        -0.4656544327735901,
                        0.3895843029022217,
                        0.07219952344894409,
                        -0.2456248551607132,
                        -0.4478244483470917,
                        -0.2785281240940094,
                        0.07805633544921875,
                        -0.32709234952926636,
                        -0.054213881492614746,
                        -0.3136935234069824,
                        0.24112427234649658,
                        0.08485180139541626,
                        0.3037571310997009,
                        0.24022257328033447,
                        -0.34582048654556274,
                        0.32930314540863037,
                        0.20116662979125977,
                        -0.2857709527015686,
                        -0.39543575048446655,
                        0.2548696994781494,
                        -0.08955886960029602
                    ],
                    [
                        0.2176247239112854,
                        -0.257645845413208,
                        -0.4465201497077942,
                        -0.4567772448062897,
                        0.0650562047958374,
                        -0.05582740902900696,
                        0.33232706785202026,
                        -0.19365167617797852,
                        -0.04619935154914856,
                        0.16172277927398682,
                        0.17323577404022217,
                        -0.20922905206680298,
                        -0.46665647625923157,
                        0.07738614082336426,
                        -0.4509892165660858,
                        -0.46558767557144165,
                        0.18218517303466797,
                        0.06515538692474365,
                        0.43634843826293945,
                        0.04636979103088379,
                        0.35356414318084717,
                        0.18214231729507446,
                        -0.45420095324516296,
                        -0.4182792901992798
                    ]
                ],
                [
                    [
                        -0.12085545063018799,
                        -0.14213211834430695,
                        -0.06394904851913452,
                        0.22468142211437225,
                        0.47750893235206604,
                        -0.060529276728630066,
                        -0.31439509987831116,
                        0.07500768452882767,
                        -0.07876859605312347,
                        0.03486078232526779,
                        0.10933393985033035,
                        0.1835664063692093,
                        0.12387890368700027,
                        0.0049093798734247684,
                        0.026018917560577393,
                        0.2377280741930008,
                        0.24107220768928528,
                        -0.27182090282440186,
                        -0.10283035039901733,
                        -0.006879277992993593,
                        -0.39531195163726807,
                        -0.32266366481781006,
                        0.09123573452234268,
                        -0.19367316365242004
                    ],
                    [
                        -0.03951476141810417,
                        -0.05171217396855354,
                        -0.2098378688097,
                        -0.26400265097618103,
                        0.09926076978445053,
                        0.12463134527206421,
                        0.1408519148826599,
                        0.26755768060684204,
                        -0.21688173711299896,
                        0.14148108661174774,
                        -0.28987786173820496,
                        -0.22498749196529388,
                        -0.2211122363805771,
                        -0.2408822625875473,
                        -0.28679612278938293,
                        0.07747399061918259,
                        -0.2650488317012787,
                        -0.2279731184244156,
                        0.052900489419698715,
                        0.37137287855148315,
                        -0.19834378361701965,
                        0.07185471802949905,
                        0.2210346907377243,
                        -0.10978269577026367
                    ],
                    [
                        0.14488129317760468,
                        0.05884280428290367,
                        -0.3653944134712219,
                        -0.18039359152317047,
                        -0.08469806611537933,
                        -0.26870399713516235,
                        0.3782297968864441,
                        0.12795722484588623,
                        0.229860320687294,
                        0.08423949778079987,
                        -0.05433988943696022,
                        0.09923368692398071,
                        0.052684664726257324,
                        -0.17402426898479462,
                        -0.10361102223396301,
                        -0.18528969585895538,
                        0.32289400696754456,
                        -0.2685661315917969,
                        0.14771442115306854,
                        -0.38271036744117737,
                        0.026196638122200966,
                        -0.25820910930633545,
                        0.08804948627948761,
                        -0.0063074082136154175
                    ],
                    [
                        -0.05058717727661133,
                        0.2681754529476166,
                        0.14956586062908173,
                        0.03628579154610634,
                        0.060590170323848724,
                        -0.3068864941596985,
                        0.2922653555870056,
                        0.14084449410438538,
                        0.25548821687698364,
                        0.0012577418237924576,
                        0.21536339819431305,
                        0.0331871435046196,
                        0.3272697627544403,
                        0.12138094007968903,
                        -0.07193959504365921,
                        0.28146785497665405,
                        -0.34461358189582825,
                        -0.014402478002011776,
                        0.3008888363838196,
                        0.09238162636756897,
                        -0.34699347615242004,
                        0.14599695801734924,
                        -0.10558448731899261,
                        0.0939708724617958
                    ],
                    [
                        -0.44673898816108704,
                        0.06714628636837006,
                        0.08213894814252853,
                        -0.16279000043869019,
                        -0.24834564328193665,
                        -0.30434319376945496,
                        -0.002448558807373047,
                        0.14771181344985962,
                        -0.144875168800354,
                        0.03271801024675369,
                        0.023471064865589142,
                        0.4739841818809509,
                        -0.1577262133359909,
                        -0.07876481860876083,
                        0.036522235721349716,
                        0.12810151278972626,
                        -0.20371167361736298,
                        0.1756397783756256,
                        -0.06985984742641449,
                        0.07001625001430511,
                        0.2287108451128006,
                        -0.32402151823043823,
                        0.07499519735574722,
                        -0.21305756270885468
                    ],
                    [
                        -0.1842409074306488,
                        0.1769963949918747,
                        -0.2631451189517975,
                        0.11638796329498291,
                        0.116490937769413,
                        -0.16681742668151855,
                        -0.2411084771156311,
                        -0.1980947107076645,
                        0.08965029567480087,
                        0.03602546453475952,
                        -0.34694433212280273,
                        0.07430493831634521,
                        -0.2843610942363739,
                        0.23557479679584503,
                        0.18046531081199646,
                        -0.07254451513290405,
                        0.1068168357014656,
                        0.04362744837999344,
                        0.5808776021003723,
                        0.1655268669128418,
                        0.006662875413894653,
                        0.060899797827005386,
                        0.05958680063486099,
                        0.13533064723014832
                    ],
                    [
                        -0.00979568436741829,
                        -0.1600836217403412,
                        0.0825427770614624,
                        -0.04152079299092293,
                        -0.08845119923353195,
                        -0.11504018306732178,
                        -0.11603115499019623,
                        0.35766464471817017,
                        0.15295368432998657,
                        -0.017791297286748886,
                        0.37236687541007996,
                        0.020153433084487915,
                        -0.46489864587783813,
                        -0.03521600365638733,
                        0.16928315162658691,
                        0.13681155443191528,
                        0.15700633823871613,
                        -0.05095896124839783,
                        -0.029111536219716072,
                        -0.11635080724954605,
                        -0.0807008296251297,
                        0.3603008985519409,
                        0.355256587266922,
                        0.2675923705101013
                    ],
                    [
                        -0.061312273144721985,
                        -0.22555848956108093,
                        -0.03278975188732147,
                        0.4330325722694397,
                        0.02101432904601097,
                        0.18851470947265625,
                        0.164010152220726,
                        0.12255790084600449,
                        0.0006645685061812401,
                        -0.03864698112010956,
                        0.2383962869644165,
                        -0.16322600841522217,
                        -0.19264715909957886,
                        -0.12922334671020508,
                        -0.35229185223579407,
                        -0.005038409493863583,
                        -0.005262215621769428,
                        0.4253709614276886,
                        0.35958918929100037,
                        -0.0657787024974823,
                        0.011427929624915123,
                        -0.3180466294288635,
                        0.00829705223441124,
                        0.002044564113020897
                    ]
                ],
                [
                    [
                        -0.018939070403575897,
                        -0.00017677483265288174,
                        -0.012175395153462887,
                        -0.1394367665052414,
                        0.009346182458102703,
                        0.03688741847872734,
                        -0.002186367753893137,
                        -0.003333344357088208,
                        -0.04156982898712158,
                        -0.005898833274841309,
                        -0.1296788603067398,
                        -0.04886531084775925,
                        -0.04791265353560448,
                        -0.02862357534468174,
                        -0.12191978842020035,
                        0.031421955674886703,
                        0.048530977219343185,
                        0.023849448189139366,
                        -0.04080890119075775,
                        0.06663700193166733,
                        0.14271627366542816,
                        -0.05868278071284294,
                        -0.0491328202188015,
                        -0.04308828338980675
                    ],
                    [
                        0.0016431035473942757,
                        -0.08131467550992966,
                        -0.02793719433248043,
                        0.10426133126020432,
                        0.006528246682137251,
                        -0.0406704917550087,
                        0.0021182417403906584,
                        -0.021515293046832085,
                        -0.031075825914740562,
                        -0.07008197158575058,
                        0.0554317906498909,
                        -0.034182317554950714,
                        -0.008461504243314266,
                        -0.07987453043460846,
                        0.009078591130673885,
                        -0.02744346857070923,
                        0.022086696699261665,
                        0.0021043317392468452,
                        0.006009213626384735,
                        -0.028658736497163773,
                        -0.04912811145186424,
                        0.07622215151786804,
                        0.010302744805812836,
                        0.02360382489860058
                    ]
                ]
            ]
        },
        {
            "type": "dense",
            "activation": "sigmoid",
            "shape": [
                null,
                null,
                8
            ],
            "weights": [
                [
                    [
                        0.10277557373046875,
                        -0.04309036582708359,
                        0.08792068809270859,
                        0.03535497188568115,
                        0.006992805749177933,
                        -0.8878222107887268,
                        0.36942964792251587,
                        0.23204480111598969
                    ],
                    [
                        -0.3508986830711365,
                        -0.7421318888664246,
                        -0.2511133849620819,
                        0.19251170754432678,
                        0.417989045381546,
                        0.08396677672863007,
                        0.19100865721702576,
                        0.08798862248659134
                    ],
                    [
                        0.4822787046432495,
                        -0.31406235694885254,
                        -0.2272857129573822,
                        -0.4874138832092285,
                        0.09743531793355942,
                        -0.13451191782951355,
                        -0.022812649607658386,
                        -0.5928182005882263
                    ],
                    [
                        -0.4717440903186798,
                        0.42143651843070984,
                        -0.6183629035949707,
                        -0.19320808351039886,
                        -0.03709967061877251,
                        -0.05264994502067566,
                        0.357802152633667,
                        -0.21903391182422638
                    ],
                    [
                        0.11935950070619583,
                        -0.32923319935798645,
                        -0.103276826441288,
                        -0.17238157987594604,
                        -0.7481933832168579,
                        0.23758558928966522,
                        0.39070427417755127,
                        0.2609354555606842
                    ],
                    [
                        0.5993302464485168,
                        0.22171112895011902,
                        -0.2539865970611572,
                        0.4281104803085327,
                        0.2760591208934784,
                        0.2581467628479004,
                        0.4401405453681946,
                        0.08536672592163086
                    ],
                    [
                        -0.15114887058734894,
                        -0.07602422684431076,
                        0.29176953434944153,
                        0.5354338884353638,
                        -0.28598299622535706,
                        -0.04751180112361908,
                        0.23078404366970062,
                        -0.6798900961875916
                    ],
                    [
                        -0.1219937801361084,
                        0.08837135136127472,
                        0.5786845088005066,
                        -0.4325553774833679,
                        0.31077009439468384,
                        0.24189184606075287,
                        0.5466806888580322,
                        -0.037129469215869904
                    ]
                ],
                [
                    0.010225817561149597,
                    -0.009118669666349888,
                    0.09083007276058197,
                    0.0319594144821167,
                    0.03514648601412773,
                    -0.007527196314185858,
                    -0.018385281786322594,
                    -0.06093992665410042
                ]
            ]
        },
        {
            "type": "dense",
            "activation": "",
            "shape": [
                null,
                null,
                2
            ],
            "weights": [
                [
                    [
                        -0.3153272867202759,
                        0.46151047945022583
                    ],
                    [
                        0.17544859647750854,
                        0.2194247841835022
                    ],
                    [
                        -0.45259448885917664,
                        0.5180991888046265
                    ],
                    [
                        -0.507861852645874,
                        -0.23717179894447327
                    ],
                    [
                        0.16842393577098846,
                        -0.1617037057876587
                    ],
                    [
                        -0.06638551503419876,
                        0.3212648630142212
                    ],
                    [
                        -0.2892949879169464,
                        -0.47359395027160645
                    ],
                    [
                        -0.5390324592590332,
                        -0.24603545665740967
                    ]
                ],
                [
                    0.059535469859838486,
                    -0.021300924941897392
                ]
            ]
        }
    ]
}