{
    "in_shape": [
        null,
        null,
        1
    ],
    "layers": [
        {
            "type": "lstm",
            "activation": "tanh",
            "shape": [
                null,
                null,
                8
            ],
            "weights": [
                [
                    [
                        -0.07621684670448303,
                        0.19208765029907227,
                        -0.03459346294403076,
                        -0.1551855504512787,
                        0.035427480936050415,
                        -0.09693434834480286,
                        0.3194901943206787,
                        0.1417829394340515,
                        0.42285335063934326,
                        0.10527622699737549,
                        -0.011637240648269653,
                        -0.3616355061531067,
                        -0.16544324159622192,
                        0.4136641025543213,
                        -0.1780804544687271,
                        0.3434984087944031,
                        0.4127349853515625,
                        -0.1252201795578003,
                        0.35933196544647217,
                        0.2959778904914856,
                        -0.02871006727218628,
                        0.2908109426498413,
                        -0.2085847556591034,
                        -0.04653313755989075,
                        -0.35908785462379456,
                        0.1732671856880188,
                        0.17725777626037598,
                        -0.4076892137527466,
                        -0.3580693006515503,
                        0.2404295802116394,
                        0.27166634798049927,
                        0.02239614725112915
                    ]
                ],
                [
                    [
                        0.029156208038330078,
                        -0.008235481567680836,
                        0.02314661256968975,
                        -0.4290710985660553,
                        -0.14394602179527283,
                        -0.28272873163223267,
                        0.04391156882047653,
                        -0.11601778119802475,
                        -0.3779297471046448,
                        0.17327043414115906,
                        -0.28009915351867676,
                        -0.03855356574058533,
                        0.11051932722330093,
                        0.09421367943286896,
                        0.13201762735843658,
                        -0.0166091900318861,
                        -0.0769101083278656,
                        -0.3230988085269928,
                        0.01924217864871025,
                        -0.06482242047786713,
                        -0.03131713345646858,
                        0.10312364995479584,
                        0.17440812289714813,
                        -0.18075573444366455,
                        -0.21037985384464264,
                        -0.06175575032830238,
                        -0.023569636046886444,
                        -0.08736231923103333,
                        -0.025357326492667198,
                        -0.39904913306236267,
                        0.023323312401771545,
                        0.023121191188693047
                    ],
                    [
                        0.10640080273151398,
                        0.034392669796943665,
                        0.27033957839012146,
                        -0.11905495822429657,
                        0.3156956434249878,
                        0.23025226593017578,
                        -0.1692071110010147,
                        -0.07996528595685959,
                        -0.15786424279212952,
                        -0.06338556110858917,
                        -0.05523758381605148,
                        0.42778706550598145,
                        -0.09942086786031723,
                        0.1497703492641449,
                        0.1027071624994278,
                        0.019766710698604584,
                        -0.13605740666389465,
                        0.09165938198566437,
                        0.11550316959619522,
                        -0.19229735434055328,
                        -0.12349693477153778,
                        -0.12607014179229736,
                        -0.008884793147444725,
                        -0.20834757387638092,
                        0.08893848955631256,
                        0.26983848214149475,
                        -0.1403627097606659,
                        -0.34351646900177,
                        0.2505555748939514,
                        0.06562002748250961,
                        -0.017870545387268066,
                        -0.12880010902881622
                    ],
                    [
                        -0.053071800619363785,
                        -0.4552510678768158,
                        -0.08456536382436752,
                        0.0583818256855011,
                        -0.3153297007083893,
                        0.23290634155273438,
                        0.12992069125175476,
                        -0.0017451988533139229,
                        0.15933464467525482,
                        0.12834693491458893,
                        -0.2961408793926239,
                        -0.023401202633976936,
                        0.27387312054634094,
                        0.08246678113937378,
                        -0.009174969047307968,
                        -0.2822941541671753,
                        -0.3164852559566498,
                        0.06777734309434891,
                        -0.11884131282567978,
                        -0.09350452572107315,
                        -0.16445182263851166,
                        -0.24202820658683777,
                        0.11416103690862656,
                        -0.10741626471281052,
                        0.09752874076366425,
                        0.0885901153087616,
                        0.1450478583574295,
                        0.05200472101569176,
                        0.14270147681236267,
                        0.09237869083881378,
                        0.08082132786512375,
                        -0.052644386887550354
                    ],
                    [
                        0.11545639485120773,
                        -0.14273416996002197,
                        -0.009776240214705467,
                        -0.18217141926288605,
                        0.2514151334762573,
                        -0.05472034960985184,
                        0.29467809200286865,
                        -0.06411625444889069,
                        -0.20868676900863647,
                        0.13996762037277222,
                        0.09727133810520172,
                        -0.04332846403121948,
                        -0.10958444327116013,
                        0.1441183090209961,
                        0.07668361812829971,
                        -0.29959288239479065,
                        0.12721014022827148,
                        0.09471598267555237,
                        -0.15059861540794373,
                        -0.004691505338996649,
                        0.26845166087150574,
                        -0.08989177644252777,
                        -0.036939121782779694,
                        0.43945032358169556,
                        -0.05009205639362335,
                        0.4044731855392456,
                        0.03684043511748314,
                        0.1872141808271408,
                        0.14272433519363403,
                        -0.0003348328173160553,
                        0.12871776521205902,
                        0.10504094511270523
                    ],
                    [
                        0.21261942386627197,
                        -0.18525509536266327,
                        -0.24750453233718872,
                        0.2085362672805786,
                        -0.015029780566692352,
                        0.011838521808385849,
                        -0.05942153558135033,
                        0.24580714106559753,
                        -0.1540440320968628,
                        -0.392619788646698,
                        0.007865916937589645,
                        -0.11545269936323166,
                        0.09843289852142334,
                        0.0758233293890953,
                        0.2288718968629837,
                        0.03635070100426674,
                        0.31657397747039795,
                        -0.3723268508911133,
                        -0.1364138275384903,
                        -0.13892334699630737,
                        -0.0117112398147583,
                        -0.08758271485567093,
                        0.08432178199291229,
                        0.022977404296398163,
                        0.1976902186870575,
                        -0.05841267481446266,
                        -0.2787778675556183,
                        -0.04546848684549332,
                        0.2636137902736664,
                        -0.020018234848976135,
                        0.08070936799049377,
                        -0.010534917935729027
                    ],
                    [
                        0.1406586468219757,
                        -0.06672856211662292,
                        0.187190979719162,
                        0.02561206743121147,
                        0.2159290462732315,
                        0.23229822516441345,
                        0.3793254792690277,
                        -0.05931089073419571,
                        0.008505452424287796,
                        0.2641109824180603,
                        0.07296739518642426,
                        -0.19326311349868774,
                        -0.1555672287940979,
                        0.03924143686890602,
                        0.046889908611774445,
                        0.10130172222852707,
                        -0.10126057267189026,
                        -0.16400599479675293,
                        0.10099411010742188,
                        0.029196208342909813,
                        0.030599752441048622,
                        -0.22445416450500488,
                        -0.01832856982946396,
                        -0.008626123890280724,
                        0.18529920279979706,
                        -0.4191015958786011,
                        -0.08921907842159271,
                        0.10704798996448517,
                        0.13573822379112244,
                        -0.13769593834877014,
                        -0.40826091170310974,
                        -0.08930530399084091
                    ],
                    [
                        0.03699073940515518,
                        0.3243658244609833,
                        -0.14230720698833466,
                        0.1106591746211052,
                        -0.16564743220806122,
                        0.2105879932641983,
                        0.09825111925601959,
                        -0.05763399600982666,
                        0.04755695164203644,
                        0.0766720399260521,
                        -0.04644767940044403,
                        0.017458666115999222,
                        0.2224721610546112,
                        0.37074658274650574,
                        0.24344076216220856,
                        0.10664069652557373,
                        0.17918695509433746,
                        0.024093925952911377,
                        0.09917505085468292,
                        0.07892026007175446,
                        0.2836572527885437,
                        -0.02855132892727852,
                        0.17893657088279724,
                        -0.21111048758029938,
                        0.17140282690525055,
                        0.3507995009422302,
                        0.04788137227296829,
                        0.09078846126794815,
                        -0.2613573968410492,
                        -0.03271865099668503,
                        -0.2626926004886627,
                        -0.0004699878045357764
                    ],
                    [
                        -0.2519758939743042,
                        0.07763071358203888,
                        -0.12687848508358002,
                        0.14049816131591797,
                        0.11840200424194336,
                        -0.04980188608169556,
                        -0.049657221883535385,
                        -0.22906136512756348,
                        -0.0905592143535614,
                        0.06959263980388641,
                        -0.08454763889312744,
                        -0.256069540977478,
                        -0.020993374288082123,
                        0.3717241585254669,
                        -0.08636291325092316,
                        0.07135511189699173,
                        0.16826754808425903,
                        0.40936562418937683,
                        0.08469199389219284,
                        0.13602092862129211,
                        -0.30660611391067505,
                        -0.0783471092581749,
                        0.3341675102710724,
                        0.11246775090694427,
                        -0.0030813291668891907,
                        -0.15578968822956085,
                        -0.1849486529827118,
                        -0.10340097546577454,
                        0.18465866148471832,
                        -0.09687697142362595,
                        0.15158678591251373,
                        0.06785574555397034
                    ]
                ],
                [
                    0.06834252923727036,
                    0.0034707088489085436,
                    -0.004480254370719194,
                    -0.026323368772864342,
                    0.040966253727674484,
                    0.01175036933273077,
                    0.05682962015271187,
                    -0.08109528571367264,
                    1.0,
                    1.0,
                    1.0,
                    1.0,
                    1.0,
                    1.0,
                    1.0,
                    1.0,
                    0.06834252923727036,
                    0.0034707088489085436,
                    -0.004480254370719194,
                    -0.026323368772864342,
                    0.040966253727674484,
                    0.01175036933273077,
                    0.05682962015271187,
                    -0.08109528571367264,
                    0.015942877158522606,
                    -0.052536774426698685,
                    -0.000917341560125351,
                    -0.024476366117596626,
                    0.020734548568725586,
                    -0.03237312659621239,
                    -0.05059238150715828,
                    0.025879455730319023
                ]
            ]
        },
        {
            "type": "dense",
            "activation": "sigmoid",
            "shape": [
                null,
                null,
                8
            ],
            "weights": [
                [
                    [
                        -0.0016870498657226562,
                        0.11127525568008423,
                        0.07250575721263885,
                        -0.2428162842988968,
                        -0.806824803352356,
                        0.14715011417865753,
                        0.19913636147975922,
                        -0.45948144793510437
                    ],
                    [
                        0.1376497894525528,
                        -0.6829218864440918,
                        -0.10842395573854446,
                        0.013584734871983528,
                        -0.38657131791114807,
                        -0.3460651636123657,
                        -0.4467865526676178,
                        0.1841551512479782
                    ],
                    [
                        -0.0725104957818985,
                        0.07064613699913025,
                        -0.27467864751815796,
                        -0.19229699671268463,
                        0.02684495598077774,
                        -0.7827343940734863,
                        0.5137419700622559,
                        0.0004932470619678497
                    ],
                    [
                        0.07400545477867126,
                        -0.013923995196819305,
                        0.6240346431732178,
                        0.3778107166290283,
                        -0.2572987675666809,
                        -0.07457286864519119,
                        0.38677993416786194,
                        0.49072039127349854
                    ],
                    [
                        0.3075728118419647,
                        0.15081913769245148,
                        -0.010119504295289516,
                        -0.7412714958190918,
                        -0.04600055515766144,
                        0.1609383225440979,
                        -0.013123191893100739,
                        0.552156925201416
                    ],
                    [
                        0.8769095540046692,
                        -0.1867799460887909,
                        0.01885957270860672,
                        0.0866551399230957,
                        0.18887537717819214,
                        0.03493309020996094,
                        0.23562407493591309,
                        -0.30962079763412476
                    ],
                    [
                        -0.176489919424057,
                        -0.46043580770492554,
                        -0.47564759850502014,
                        0.08142052590847015,
                        -0.031735435128211975,
                        0.4617110788822174,
                        0.5194979310035706,
                        0.1997946798801422
                    ],
                    [
                        0.27494531869888306,
                        0.49640345573425293,
                        -0.5398341417312622,
                        0.4444262981414795,
                        -0.30639129877090454,
                        -0.007272947579622269,
                        -0.1470641940832138,
                        0.2711026668548584
                    ]
                ],
                [
                    0.04631970077753067,
                    0.006609092932194471,
                    0.07502441853284836,
                    0.06424235552549362,
                    -0.06143057346343994,
                    0.0457785502076149,
                    -0.011276286095380783,
                    -0.003248299704864621
                ]
            ]
        },
        {
            "type": "dense",
            "activation": "",
            "shape": [
                null,
                null,
                1
            ],
            "weights": [
                [
                    [
                        -0.6780163049697876
                    ],
                    [
                        0.4703630208969116
                    ],
                    [
                        -0.0953388512134552
                    ],
                    [
                        0.33141028881073
                    ],
                    [
                        -0.11940599232912064
                    ],
                    [
                        0.06036389619112015
                    ],
                    [
                        -0.41445934772491455
                    ],
                    [
                        0.10223518311977386
                    ]
                ],
                [
                    -0.029294023290276527
                ]
            ]
        }
    ]
}