{
    "in_shape": [
        null,
        null,
        1
    ],
    "layers": [
        {
            "type": "lstm",
            "activation": "tanh",
            "shape": [
                null,
                null,
                32
            ],
            "weights": [
                [
                    [
                        -0.007292404770851135,
                        -0.17042025923728943,
                        0.1837887465953827,
                        0.025952547788619995,
                        -0.021348923444747925,
                        -0.201869398355484,
                        -0.021773800253868103,
                        0.06932780146598816,
                        -0.20621144771575928,
                        -0.029240161180496216,
                        0.06491273641586304,
                        0.1600007712841034,
                        -0.1632433384656906,
                        0.10391697287559509,
                        0.20954713225364685,
                        0.1026662290096283,
                        -0.1678534299135208,
                        -0.19719508290290833,
                        0.055672913789749146,
                        0.02128542959690094,
                        -0.1402588188648224,
                        0.11254262924194336,
                        0.17840170860290527,
                        -0.1673111766576767,
                        -0.20386676490306854,
                        -0.1326654851436615,
                        0.04635480046272278,
                        -0.19668810069561005,
                        0.14304488897323608,
                        0.1650294065475464,
                        0.027281776070594788,
                        -0.05926793813705444,
                        0.1689804196357727,
                        0.0443691611289978,
                        0.16902336478233337,
                        -0.20462395250797272,
                        0.20377904176712036,
                        0.12362977862358093,
                        0.059201598167419434,
                        0.12760695815086365,
                        -0.1747296005487442,
                        0.13287171721458435,
                        -0.12420977652072906,
                        0.11344867944717407,
                        0.1738888919353485,
                        -0.18207070231437683,
                        0.0437474250793457,
                        0.05228647589683533,
                        -0.13134802877902985,
                        -0.056374356150627136,
                        0.08592203259468079,
                        0.0798579752445221,
                        -0.1790180802345276,
                        -0.05290631949901581,
                        -0.1687617003917694,
                        -0.16817864775657654,
                        0.09661680459976196,
                        0.15935057401657104,
                        -0.20470093190670013,
                        -0.20792025327682495,
                        -0.13975632190704346,
                        -0.03964461386203766,
                        -0.07066196203231812,
                        0.12205928564071655,
                        -0.054256051778793335,
                        -0.14810295403003693,
                        0.06885901093482971,
                        -0.048999786376953125,
                        -0.13869893550872803,
                        0.003060385584831238,
                        0.15353378653526306,
                        0.04717904329299927,
                        -0.16799066960811615,
                        -0.20610496401786804,
                        -0.18899817764759064,
                        -0.15226292610168457,
                        -0.034275949001312256,
                        0.1744551658630371,
                        -0.15188875794410706,
                        0.12254559993743896,
                        0.06205585598945618,
                        0.036631494760513306,
                        0.021291449666023254,
                        -0.004634052515029907,
                        -0.09859397262334824,
                        -0.15746094286441803,
                        0.17485779523849487,
                        -0.04285828769207001,
                        0.1990147829055786,
                        -0.14970839023590088,
                        0.14033424854278564,
                        0.029924944043159485,
                        -0.03170953691005707,
                        -0.17801570892333984,
                        0.08710998296737671,
                        0.20129990577697754,
                        -0.07609321177005768,
                        0.1932905614376068,
                        0.18283194303512573,
                        -0.06522268056869507,
                        -0.05890369415283203,
                        0.18084049224853516,
                        0.19933056831359863,
                        0.15853452682495117,
                        -0.13113628327846527,
                        -0.13182148337364197,
                        0.0645599365234375,
                        -0.05691666901111603,
                        -0.17173010110855103,
                        -0.0001623779535293579,
                        -0.04324984550476074,
                        -0.1829032152891159,
                        -0.0860736221075058,
                        -0.15157926082611084,
                        0.018812239170074463,
                        -0.19495585560798645,
                        0.034044042229652405,
                        -0.04204776883125305,
                        0.07438090443611145,
                        0.08782657980918884,
                        0.03862500190734863,
                        0.051188260316848755,
                        -0.143016055226326,
                        -0.07885465025901794,
                        0.09553173184394836,
                        0.05837634205818176,
                        -0.052941903471946716,
                        -0.201405867934227
                    ]
                ],
                [
                    [
                        -0.05506432056427002,
                        0.07068414241075516,
                        0.17644238471984863,
                        0.04052765294909477,
                        0.06401817500591278,
                        -0.20782840251922607,
                        -0.13307000696659088,
                        -0.10096602886915207,
                        -0.014113018289208412,
                        0.0016344264149665833,
                        0.0408310703933239,
                        -0.03129924461245537,
                        0.12010863423347473,
                        -0.02744770422577858,
                        -0.037500809878110886,
                        -0.0035269581712782383,
                        0.0450996533036232,
                        -0.034006521105766296,
                        0.1942722350358963,
                        -0.04026736691594124,
                        -0.008113957941532135,
                        -0.07730843126773834,
                        -0.014591108076274395,
                        0.027019094675779343,
                        0.04572354257106781,
                        0.02445945516228676,
                        -0.026193132624030113,
                        -0.13053326308727264,
                        0.0796678438782692,
                        0.08484521508216858,
                        -0.1495046615600586,
                        -0.03313624486327171,
                        -0.06331010907888412,
                        -0.15392741560935974,
                        0.18241117894649506,
                        0.025041071698069572,
                        -0.008396817371249199,
                        -0.031236333772540092,
                        0.012144351378083229,
                        -0.007220576051622629,
                        -0.11765317618846893,
                        -0.05020800605416298,
                        -0.0628502294421196,
                        -0.003819364355877042,
                        -0.024464242160320282,
                        0.09501397609710693,
                        0.062369294464588165,
                        0.020929375663399696,
                        -0.047482993453741074,
                        -0.02937459386885166,
                        -0.03857676684856415,
                        0.022110367193818092,
                        -0.08156104385852814,
                        -0.006697395350784063,
                        0.10169941186904907,
                        -0.07695421576499939,
                        -0.19746644794940948,
                        0.026586614549160004,
                        -0.12524984776973724,
                        -0.08478432148694992,
                        -0.014530754648149014,
                        0.09203702956438065,
                        0.02259276621043682,
                        -0.03367125988006592,
                        0.12923072278499603,
                        -0.04180161654949188,
                        0.038299765437841415,
                        -0.014652563259005547,
                        -0.13097640872001648,
                        -0.019941309466958046,
                        0.20030255615711212,
                        -0.0008975601522251964,
                        -0.0988793671131134,
                        0.012259584851562977,
                        0.03048969991505146,
                        -0.028462542220950127,
                        0.03738788887858391,
                        -0.1309889853000641,
                        0.09718402475118637,
                        -0.10994613915681839,
                        0.14982442557811737,
                        0.1297568380832672,
                        -0.06604382395744324,
                        -0.0023310487158596516,
                        0.11103104054927826,
                        -0.06343439966440201,
                        -0.06638696789741516,
                        -0.015554245561361313,
                        0.020647535100579262,
                        0.11915349215269089,
                        0.1287771612405777,
                        0.019242264330387115,
                        -0.020059803500771523,
                        -0.1822090744972229,
                        -0.0012192137073725462,
                        0.06983108073472977,
                        -0.06246953830122948,
                        0.03389613330364227,
                        0.13545115292072296,
                        0.1153184324502945,
                        -0.12179253995418549,
                        0.16473506391048431,
                        0.003931140527129173,
                        0.04498836398124695,
                        -0.054913077503442764,
                        0.05874559283256531,
                        -0.06631803512573242,
                        -0.04094143956899643,
                        -0.062175482511520386,
                        -0.0014144041342660785,
                        0.059635065495967865,
                        -0.09017372876405716,
                        -0.09122966974973679,
                        0.010144824162125587,
                        0.013653531670570374,
                        0.018296651542186737,
                        -0.0010766078485175967,
                        -0.10977876931428909,
                        0.07727520167827606,
                        -0.07966412603855133,
                        -0.24591615796089172,
                        0.06972768902778625,
                        0.030341217294335365,
                        0.14787206053733826,
                        0.11841752380132675,
                        0.048431675881147385,
                        0.13597813248634338,
                        -0.173630952835083
                    ],
                    [
                        -0.09233707189559937,
                        -0.0498577319085598,
                        0.016123536974191666,
                        0.030253389850258827,
                        -0.05003330856561661,
                        0.07393677532672882,
                        -0.08407627046108246,
                        -0.034865446388721466,
                        -0.2027922123670578,
                        -0.06117027997970581,
                        -0.04415036365389824,
                        -0.08914519846439362,
                        -0.012941758148372173,
                        0.026275530457496643,
                        0.13505485653877258,
                        0.004739344120025635,
                        -0.09664132446050644,
                        0.03216660022735596,
                        -0.0062727127224206924,
                        -0.04966980591416359,
                        -0.21928440034389496,
                        -0.22936059534549713,
                        0.04047893360257149,
                        0.15077081322669983,
                        -0.046887241303920746,
                        0.16312429308891296,
                        -0.12988856434822083,
                        0.0841137021780014,
                        -0.06676659733057022,
                        -0.003114934079349041,
                        0.03258403018116951,
                        -0.09285812824964523,
                        0.1124676838517189,
                        0.10660479217767715,
                        -0.07763627171516418,
                        0.11951431632041931,
                        0.014217155054211617,
                        0.021642670035362244,
                        -0.16461095213890076,
                        0.03296160325407982,
                        -0.0994204431772232,
                        0.0625704750418663,
                        0.0032471027225255966,
                        0.13479989767074585,
                        0.1298360377550125,
                        -0.11871881783008575,
                        0.00625492911785841,
                        0.054676175117492676,
                        -0.01913161389529705,
                        0.09125544875860214,
                        -0.043390046805143356,
                        -0.059253934770822525,
                        0.007994085550308228,
                        -0.013713262975215912,
                        -0.10746999830007553,
                        0.02085336670279503,
                        -0.061815906316041946,
                        0.06966406852006912,
                        0.025310348719358444,
                        -0.06397256255149841,
                        0.15927040576934814,
                        -0.026564687490463257,
                        0.0876828283071518,
                        -0.027290044352412224,
                        -0.015408939681947231,
                        -0.06386230140924454,
                        0.07493067532777786,
                        -0.05161742866039276,
                        0.007303088903427124,
                        0.23675517737865448,
                        0.020163796842098236,
                        0.1529599279165268,
                        -0.001437935046851635,
                        -0.0024533141404390335,
                        0.04712219163775444,
                        -0.20552806556224823,
                        -0.1642208695411682,
                        -0.09948959201574326,
                        0.11547710001468658,
                        -0.16801153123378754,
                        0.04198209196329117,
                        0.07274408638477325,
                        -0.06917352974414825,
                        0.06994391232728958,
                        0.08237073570489883,
                        -0.05471029877662659,
                        -0.10834386199712753,
                        -0.042518846690654755,
                        0.09378138184547424,
                        0.05662558600306511,
                        -0.040791209787130356,
                        -0.033602289855480194,
                        -0.03630135580897331,
                        0.07278866320848465,
                        0.027620766311883926,
                        -0.13436424732208252,
                        -0.005489130970090628,
                        0.07665952295064926,
                        -0.0101668955758214,
                        0.020957689732313156,
                        0.12685607373714447,
                        0.0954597070813179,
                        0.021116843447089195,
                        0.14106795191764832,
                        -0.0356607623398304,
                        -0.07771308720111847,
                        0.029478324577212334,
                        -0.0792544037103653,
                        0.13620541989803314,
                        0.012054295279085636,
                        -0.05364900454878807,
                        0.028424972668290138,
                        0.0457112118601799,
                        0.10479399561882019,
                        0.06538554280996323,
                        0.06812138110399246,
                        -0.025460170581936836,
                        0.03483622148633003,
                        -0.016562610864639282,
                        0.006603703368455172,
                        0.0772324800491333,
                        0.08689651638269424,
                        -0.05571133270859718,
                        0.16958220303058624,
                        -0.14702174067497253,
                        -0.0446714423596859,
                        -0.004767538048326969,
                        0.041709013283252716
                    ],
                    [
                        -0.05174484848976135,
                        -0.045404739677906036,
                        -0.07027550786733627,
                        0.10218646377325058,
                        0.08222346752882004,
                        -0.10213106870651245,
                        -0.008599849417805672,
                        -0.05741144344210625,
                        0.03726616129279137,
                        -0.015189004130661488,
                        -0.10527382791042328,
                        0.06849492341279984,
                        -0.07264421135187149,
                        0.01733851432800293,
                        0.018212340772151947,
                        -0.21667510271072388,
                        -0.10559923201799393,
                        -0.08079702407121658,
                        -0.0025998642668128014,
                        -0.07310379296541214,
                        -0.02251623384654522,
                        0.002555940765887499,
                        0.04024497792124748,
                        -0.06123817712068558,
                        0.005681588780134916,
                        0.13537852466106415,
                        0.09329348802566528,
                        0.03643385320901871,
                        -0.06403086334466934,
                        0.08943679928779602,
                        0.1993769407272339,
                        -0.026920417323708534,
                        -0.029709363356232643,
                        0.05191280320286751,
                        -0.006965814158320427,
                        0.09350135177373886,
                        -0.120692178606987,
                        -0.2008354365825653,
                        0.0675203800201416,
                        -0.05180877819657326,
                        0.015147115103900433,
                        -0.09248913079500198,
                        0.12033098936080933,
                        0.02304208278656006,
                        -0.1234387531876564,
                        0.02950724959373474,
                        -0.09810344129800797,
                        0.16971264779567719,
                        -0.023503322154283524,
                        0.2494301050901413,
                        -0.054594285786151886,
                        -0.1465003490447998,
                        -0.005557995289564133,
                        0.13329975306987762,
                        0.15927810966968536,
                        0.03156415373086929,
                        0.05121362954378128,
                        -0.003683852730318904,
                        -0.034348659217357635,
                        -0.03614884987473488,
                        -0.031993575394153595,
                        -0.057306721806526184,
                        0.06639987975358963,
                        -0.11782651394605637,
                        -0.05616147816181183,
                        0.08688175678253174,
                        0.025311004370450974,
                        0.04280447959899902,
                        -0.1092953234910965,
                        0.08080793172121048,
                        -0.15031152963638306,
                        0.053817883133888245,
                        0.016541773453354836,
                        0.08755864202976227,
                        0.07562486827373505,
                        0.1086774468421936,
                        -0.04599715769290924,
                        0.016453880816698074,
                        0.11783658713102341,
                        -0.08521592617034912,
                        -0.05463783070445061,
                        -0.03934839367866516,
                        -0.06317292153835297,
                        -0.08401460945606232,
                        0.041574764996767044,
                        0.0009814540389925241,
                        -0.06535211205482483,
                        0.04475608095526695,
                        -0.007284087128937244,
                        0.041125379502773285,
                        0.08477815985679626,
                        0.0005172840901650488,
                        0.001911934930831194,
                        0.03900686651468277,
                        -0.060280125588178635,
                        0.19461604952812195,
                        -0.10547921061515808,
                        -0.013140466064214706,
                        -0.108863964676857,
                        0.1775117814540863,
                        0.02228965237736702,
                        0.03786271810531616,
                        0.08174221217632294,
                        -0.15401655435562134,
                        -0.07829470932483673,
                        -0.15574784576892853,
                        -0.08045767992734909,
                        -0.03538393974304199,
                        -0.129878431558609,
                        -0.0003533215494826436,
                        -0.015658391639590263,
                        0.09181110560894012,
                        0.10981664806604385,
                        0.10594382137060165,
                        -0.14084909856319427,
                        -0.16070173680782318,
                        -0.01368189137428999,
                        -0.021971633657813072,
                        -0.016940973699092865,
                        0.08960870653390884,
                        -0.05892859026789665,
                        -0.009107864461839199,
                        -0.07092678546905518,
                        -0.06804197281599045,
                        0.1273975670337677,
                        -0.13698996603488922,
                        0.09097160398960114,
                        0.021886564791202545
                    ],
                    [
                        0.028940487653017044,
                        -0.09486202895641327,
                        -0.06822723150253296,
                        -0.041198331862688065,
                        0.05034560337662697,
                        -0.06799958646297455,
                        -0.021344736218452454,
                        0.10795275121927261,
                        -0.1327223777770996,
                        -0.057923316955566406,
                        0.1774684339761734,
                        0.029261769726872444,
                        -0.13732759654521942,
                        -0.22182098031044006,
                        -0.014520153403282166,
                        -0.06158113107085228,
                        -0.04499426856637001,
                        0.12783071398735046,
                        0.008247477933764458,
                        -0.017937757074832916,
                        0.004328261129558086,
                        -0.02192039042711258,
                        0.09283856302499771,
                        0.0816560760140419,
                        0.04719710722565651,
                        0.15089541673660278,
                        0.05292562022805214,
                        0.08603855222463608,
                        0.028501925989985466,
                        0.03652321174740791,
                        -0.11804940551519394,
                        -0.0318351648747921,
                        0.062375541776418686,
                        0.002859143540263176,
                        0.020195383578538895,
                        0.11343114823102951,
                        0.11597533524036407,
                        0.02822957932949066,
                        0.008689023554325104,
                        0.009188780561089516,
                        0.15564130246639252,
                        0.09144958853721619,
                        0.05695810168981552,
                        0.047366198152303696,
                        -0.05408509820699692,
                        -0.030248459428548813,
                        0.05511181056499481,
                        -0.03228294476866722,
                        0.01666184887290001,
                        -0.07531517744064331,
                        -0.012302202172577381,
                        -0.19517961144447327,
                        -0.010644029825925827,
                        -0.2860855758190155,
                        0.10197208821773529,
                        0.04879061132669449,
                        0.03348008543252945,
                        -0.04871056601405144,
                        0.01555551216006279,
                        0.120870441198349,
                        -0.10067024827003479,
                        -0.0752342939376831,
                        -0.2285325676202774,
                        -0.06815540045499802,
                        0.16540640592575073,
                        0.03889203816652298,
                        0.028249414637684822,
                        -0.04935676231980324,
                        -0.09639618545770645,
                        -0.13764500617980957,
                        -0.07748501002788544,
                        0.07466917484998703,
                        -0.005377043504267931,
                        -0.042042169719934464,
                        0.005158532410860062,
                        0.10148946195840836,
                        0.047522615641355515,
                        0.10841145366430283,
                        0.09740803390741348,
                        0.007286861538887024,
                        -0.03248344734311104,
                        0.020029006525874138,
                        -0.042463406920433044,
                        -0.09957977384328842,
                        0.0168768297880888,
                        -0.1047825962305069,
                        -0.033312804996967316,
                        -0.11684108525514603,
                        0.03152003884315491,
                        0.1606331467628479,
                        0.015070946887135506,
                        0.08193977177143097,
                        -0.009127067402005196,
                        0.0724177286028862,
                        0.00725527061149478,
                        -0.017052477225661278,
                        -0.002933280076831579,
                        0.05455733835697174,
                        0.1163928285241127,
                        -0.019159240648150444,
                        0.06703556329011917,
                        0.018431130796670914,
                        0.07768625766038895,
                        0.07149669528007507,
                        -0.0593864880502224,
                        -0.05471089482307434,
                        0.1154622882604599,
                        -0.028673812747001648,
                        0.06056410074234009,
                        -0.1941956728696823,
                        0.29011812806129456,
                        -0.012658638879656792,
                        0.08725232630968094,
                        -0.12498699128627777,
                        -0.026645900681614876,
                        0.0058890036307275295,
                        -0.09148650616407394,
                        -0.05297299101948738,
                        0.05790877342224121,
                        0.11309495568275452,
                        -0.05053073167800903,
                        -0.03537479043006897,
                        -0.046948812901973724,
                        -0.08549114316701889,
                        -0.07611984014511108,
                        0.0907280221581459,
                        0.025046074762940407,
                        0.0073928553611040115
                    ],
                    [
                        0.17078430950641632,
                        0.008546694181859493,
                        -0.019336096942424774,
                        0.08071883022785187,
                        0.013864971697330475,
                        0.08664180338382721,
                        -0.03107304498553276,
                        -0.09486168622970581,
                        -0.10011318325996399,
                        0.07514448463916779,
                        0.00624215928837657,
                        0.004916421137750149,
                        -0.09856178611516953,
                        0.07432136684656143,
                        0.022436823695898056,
                        -0.07379595190286636,
                        -0.02631796896457672,
                        0.025124870240688324,
                        -0.0033706650137901306,
                        -0.01807650737464428,
                        0.08455774188041687,
                        0.02069569006562233,
                        0.09868983924388885,
                        -0.14347802102565765,
                        0.04986828193068504,
                        0.16874484717845917,
                        0.020510271191596985,
                        -0.015505284070968628,
                        0.0551886260509491,
                        -0.09420860558748245,
                        0.04543439298868179,
                        0.08253894001245499,
                        -0.09312490373849869,
                        0.0038530100136995316,
                        -0.2103867083787918,
                        -0.04661373794078827,
                        0.006265928037464619,
                        -0.08664414286613464,
                        0.010901996865868568,
                        0.05131189152598381,
                        -0.045990876853466034,
                        0.06929673254489899,
                        -0.0431416891515255,
                        -0.0019193226471543312,
                        0.027903810143470764,
                        -0.021091699600219727,
                        0.01590316742658615,
                        0.013617390766739845,
                        -0.034118447452783585,
                        -0.054849132895469666,
                        -0.014047651551663876,
                        0.12156284600496292,
                        -0.009334987960755825,
                        0.012675169855356216,
                        0.09556420892477036,
                        -0.14063729345798492,
                        -0.0004489794373512268,
                        -0.14535881578922272,
                        0.07271099090576172,
                        0.07266883552074432,
                        -0.02377907559275627,
                        0.0883069634437561,
                        0.09391327202320099,
                        0.12518879771232605,
                        0.11293666809797287,
                        0.05023784562945366,
                        -0.02886330895125866,
                        0.16679346561431885,
                        -0.08094894886016846,
                        0.046392977237701416,
                        -0.07831336557865143,
                        -0.09052351117134094,
                        0.10624640434980392,
                        -0.29916781187057495,
                        0.09025964140892029,
                        -0.158695787191391,
                        -0.05000812187790871,
                        0.05361730977892876,
                        -0.07566088438034058,
                        -0.11937054246664047,
                        -0.10564036667346954,
                        -0.02701565809547901,
                        -0.016656506806612015,
                        0.012982092797756195,
                        0.11907859146595001,
                        -0.012185581028461456,
                        -0.08644263446331024,
                        -0.011630505323410034,
                        -0.08132137358188629,
                        0.05417152866721153,
                        0.09464588016271591,
                        0.02526908554136753,
                        -0.040560971945524216,
                        0.042934492230415344,
                        -0.02521280013024807,
                        0.026680346578359604,
                        -0.11958740651607513,
                        0.07278872281312943,
                        -0.027547279372811317,
                        0.07682719081640244,
                        0.011096187867224216,
                        -0.058209680020809174,
                        -0.11666308343410492,
                        -0.11176549643278122,
                        0.06490178406238556,
                        -0.011612523347139359,
                        0.07083424180746078,
                        0.07880325615406036,
                        0.15764346718788147,
                        0.013899892568588257,
                        0.1098087802529335,
                        -0.2634764015674591,
                        -0.15076559782028198,
                        -0.08399839699268341,
                        -0.13263632357120514,
                        0.05963859707117081,
                        0.032565608620643616,
                        -0.12467470020055771,
                        -0.10831616818904877,
                        -0.011271027848124504,
                        0.02352864481508732,
                        -0.10453066974878311,
                        -0.07514747232198715,
                        0.2331695407629013,
                        0.057126641273498535,
                        0.06338763236999512,
                        0.0420168936252594,
                        0.07731951773166656
                    ],
                    [
                        0.02372717671096325,
                        0.04355044290423393,
                        0.22781457006931305,
                        -0.014755703508853912,
                        0.04498225077986717,
                        0.13683342933654785,
                        0.03705502673983574,
                        0.11269347369670868,
                        -0.049993012100458145,
                        0.04063030332326889,
                        0.16561992466449738,
                        0.18061070144176483,
                        -0.12885789573192596,
                        -0.013384914956986904,
                        -0.11034077405929565,
                        -0.033144090324640274,
                        -0.13689245283603668,
                        0.04771094769239426,
                        -0.054557427763938904,
                        0.02500196173787117,
                        -0.009851355105638504,
                        0.13099245727062225,
                        -0.06684587895870209,
                        -0.048300161957740784,
                        0.014168107882142067,
                        -0.02021491900086403,
                        -0.07507967203855515,
                        -0.09753689169883728,
                        -0.14099657535552979,
                        -0.06517688930034637,
                        -0.039917297661304474,
                        -0.06353731453418732,
                        0.013301030732691288,
                        0.029990453273057938,
                        -0.0714348703622818,
                        0.016825247555971146,
                        -0.031038781628012657,
                        -0.07926883548498154,
                        0.0006683643441647291,
                        -0.09347934275865555,
                        0.020760847255587578,
                        0.020259078592061996,
                        0.1494816690683365,
                        -0.055503036826848984,
                        0.21269042789936066,
                        0.0385407991707325,
                        -0.0308995321393013,
                        -0.01824040152132511,
                        0.03924141824245453,
                        -0.12300047278404236,
                        0.003163573332130909,
                        -0.14075320959091187,
                        0.004752750042825937,
                        0.15970778465270996,
                        0.056463200598955154,
                        -0.07424469292163849,
                        0.03955703228712082,
                        0.004293168429285288,
                        -0.01595316082239151,
                        0.11093568801879883,
                        0.03535004332661629,
                        -0.1052117571234703,
                        0.0935303196310997,
                        0.10571857541799545,
                        -0.07886310666799545,
                        0.058908767998218536,
                        -0.05268198251724243,
                        -0.08921383321285248,
                        0.048474084585905075,
                        0.11325253546237946,
                        0.08412063121795654,
                        0.06483117491006851,
                        -0.09153112024068832,
                        -0.005648417863994837,
                        0.14457854628562927,
                        -0.07181642949581146,
                        0.12056459486484528,
                        -0.038896456360816956,
                        0.04537332057952881,
                        0.11736610531806946,
                        0.057473838329315186,
                        0.04103871434926987,
                        0.06800493597984314,
                        -0.1097651794552803,
                        -0.05011368542909622,
                        -0.1747649610042572,
                        -0.13902892172336578,
                        -0.04187384620308876,
                        0.020918581634759903,
                        -0.030488766729831696,
                        0.04075770080089569,
                        -0.007073401939123869,
                        -0.10244633257389069,
                        0.01769808679819107,
                        -0.051864538341760635,
                        -0.09037625044584274,
                        -0.1539161205291748,
                        -0.036816325038671494,
                        0.21023209393024445,
                        -0.12258365750312805,
                        -0.03932292386889458,
                        0.09313736110925674,
                        -0.0435987189412117,
                        -0.19489054381847382,
                        0.15862959623336792,
                        -0.050712984055280685,
                        0.1459527462720871,
                        -0.11142857372760773,
                        -0.11174526065587997,
                        -0.02072237618267536,
                        -0.010797694325447083,
                        -0.07813974469900131,
                        0.07260050624608994,
                        0.15727268159389496,
                        -0.005161897744983435,
                        -0.0023732585832476616,
                        -0.04036376252770424,
                        0.07241715490818024,
                        -0.026425112038850784,
                        -0.07215139269828796,
                        0.027030562981963158,
                        0.03198632970452309,
                        0.01864030212163925,
                        -0.03428753837943077,
                        0.03613302856683731,
                        -0.026908989995718002,
                        0.04968824237585068,
                        -0.17026151716709137
                    ],
                    [
                        -0.017662834376096725,
                        -0.028973480686545372,
                        -0.003346288576722145,
                        0.037005264312028885,
                        -0.10691775381565094,
                        0.02363697439432144,
                        -0.11068244278430939,
                        0.11866234242916107,
                        -0.11624053865671158,
                        0.12204344570636749,
                        0.012215178459882736,
                        0.13616140186786652,
                        0.027689559385180473,
                        0.07703263312578201,
                        -0.050776295363903046,
                        -0.025572139769792557,
                        -0.09177093952894211,
                        -0.06703612953424454,
                        0.018556153401732445,
                        -0.14261628687381744,
                        0.1864875704050064,
                        0.001261948375031352,
                        -0.06381607800722122,
                        -0.03807254508137703,
                        -0.04450426995754242,
                        0.14951902627944946,
                        -0.06593985110521317,
                        -0.037674129009246826,
                        0.021312275901436806,
                        0.005383721552789211,
                        -0.1662786453962326,
                        0.10104634612798691,
                        -0.0478617399930954,
                        -0.1380544751882553,
                        -0.1728617399930954,
                        0.04474432393908501,
                        -0.03734796494245529,
                        0.13029460608959198,
                        0.048143357038497925,
                        -0.044695090502500534,
                        0.051944952458143234,
                        0.012695064768195152,
                        0.08329889178276062,
                        -0.0748867392539978,
                        -0.08893685787916183,
                        -0.057787928730249405,
                        -0.0960344672203064,
                        0.058837492018938065,
                        0.21791818737983704,
                        -0.020552940666675568,
                        0.3252612054347992,
                        0.0700259804725647,
                        0.04947146028280258,
                        -0.0004909901763312519,
                        0.04812499135732651,
                        0.12569840252399445,
                        -0.07234498858451843,
                        0.013614571653306484,
                        -0.010027395561337471,
                        -0.0321618914604187,
                        -0.19667072594165802,
                        -0.002071369905024767,
                        0.07370532304048538,
                        0.08306270837783813,
                        0.047022704035043716,
                        0.005141106899827719,
                        0.0071039097383618355,
                        0.020652467384934425,
                        0.0021774896886199713,
                        0.1304091513156891,
                        -0.13499364256858826,
                        -0.01927216164767742,
                        -0.0042506493628025055,
                        0.10937342792749405,
                        -0.0193192008882761,
                        -0.12151014059782028,
                        -0.07864996790885925,
                        0.03309668228030205,
                        0.03560377657413483,
                        -0.011950794607400894,
                        -0.0013290150091052055,
                        0.01937507465481758,
                        -0.07224166393280029,
                        -0.09332659840583801,
                        0.029078064486384392,
                        0.08786766976118088,
                        -0.1268245130777359,
                        0.04242682084441185,
                        0.12895025312900543,
                        -0.01927555724978447,
                        -0.13096100091934204,
                        -0.05799439549446106,
                        0.061545997858047485,
                        -0.02186979353427887,
                        0.05084036663174629,
                        0.03673546761274338,
                        -0.001942527829669416,
                        0.019791949540376663,
                        -0.0680684894323349,
                        0.0476686954498291,
                        0.11816943436861038,
                        0.08598749339580536,
                        0.055217210203409195,
                        0.06020571291446686,
                        -0.10332992672920227,
                        0.11538340896368027,
                        -0.08358979225158691,
                        0.040103279054164886,
                        0.007833333685994148,
                        -0.11159033328294754,
                        -0.030899234116077423,
                        -0.01439614500850439,
                        -0.03878287598490715,
                        -0.07451747357845306,
                        0.10904192179441452,
                        0.07339178770780563,
                        0.1352798342704773,
                        0.1397421956062317,
                        -0.10289418697357178,
                        -0.15211905539035797,
                        -0.09642849117517471,
                        0.04963541775941849,
                        -0.037006620317697525,
                        -0.19833233952522278,
                        -0.023498088121414185,
                        0.02279323898255825,
                        0.027946505695581436,
                        -0.12394851446151733
                    ],
                    [
                        0.017985399812459946,
                        -0.17536765336990356,
                        0.027430234476923943,
                        0.04420976713299751,
                        0.013377177529036999,
                        0.08310830593109131,
                        -0.07271154224872589,
                        -0.03314276039600372,
                        0.04970033839344978,
                        -0.07798336446285248,
                        0.10100502520799637,
                        -0.17102299630641937,
                        -0.09311200678348541,
                        -0.00092278141528368,
                        0.021171070635318756,
                        0.08014325797557831,
                        -0.14507891237735748,
                        -0.19333748519420624,
                        -3.432622179389e-05,
                        0.03955892100930214,
                        0.015469692647457123,
                        0.10818877816200256,
                        -0.14419734477996826,
                        0.059754628688097,
                        -0.06382951140403748,
                        0.023704010993242264,
                        -0.04890231043100357,
                        0.049942128360271454,
                        -0.09980584681034088,
                        -0.13490965962409973,
                        0.05742594599723816,
                        0.09635554254055023,
                        -0.09264732897281647,
                        -0.01774602010846138,
                        -0.030313845723867416,
                        0.1149221733212471,
                        -0.15877923369407654,
                        -0.01574580930173397,
                        0.04944239556789398,
                        -0.15712293982505798,
                        -0.23094134032726288,
                        0.15684466063976288,
                        -0.02768823876976967,
                        0.0631784200668335,
                        -0.03382061794400215,
                        -0.029555916786193848,
                        0.08537837117910385,
                        -0.015335125848650932,
                        -0.05471189320087433,
                        -0.18077048659324646,
                        0.13137178122997284,
                        0.08253788948059082,
                        0.031037727370858192,
                        -0.0325261726975441,
                        0.08615706115961075,
                        -0.04108382761478424,
                        0.01708373799920082,
                        -0.08284676820039749,
                        0.05786547809839249,
                        0.009579874575138092,
                        0.054062359035015106,
                        0.025628305971622467,
                        0.1545034945011139,
                        -0.10287286341190338,
                        0.04994213208556175,
                        -0.08486057817935944,
                        0.10665179789066315,
                        -0.05197229981422424,
                        -0.1630985140800476,
                        -0.03664209693670273,
                        0.06450387835502625,
                        0.19187860190868378,
                        0.1088363453745842,
                        0.1729215532541275,
                        0.04923978075385094,
                        0.06067287549376488,
                        -0.10147331655025482,
                        -0.09850788116455078,
                        -0.023615462705492973,
                        0.07645773142576218,
                        0.1342008411884308,
                        0.03823070228099823,
                        0.058337029069662094,
                        0.044810350984334946,
                        -0.06696436554193497,
                        -0.11014197766780853,
                        0.011276491917669773,
                        0.007647911086678505,
                        0.013681902550160885,
                        -0.0028084968216717243,
                        -0.029186250641942024,
                        -0.09454593062400818,
                        0.04673198238015175,
                        0.08044086396694183,
                        0.018318939954042435,
                        0.088907390832901,
                        0.02946150116622448,
                        -0.1416490375995636,
                        -0.0909719467163086,
                        0.03316885232925415,
                        0.038554176688194275,
                        -0.026688020676374435,
                        0.04310016706585884,
                        0.011640800163149834,
                        0.017079992219805717,
                        0.10861852765083313,
                        -0.009111890569329262,
                        -0.0583672896027565,
                        -0.08581230044364929,
                        0.0893200933933258,
                        0.107208251953125,
                        -0.13585025072097778,
                        0.035755425691604614,
                        -0.09046467393636703,
                        0.02129387855529785,
                        -0.010932725854218006,
                        -0.08204854279756546,
                        -0.09772084653377533,
                        0.04255073517560959,
                        0.13017384707927704,
                        0.031317874789237976,
                        -0.04898298159241676,
                        0.06506137549877167,
                        -0.11932152509689331,
                        0.11212067306041718,
                        0.15827108919620514,
                        -0.05831890180706978,
                        0.12826168537139893
                    ],
                    [
                        -0.0712939202785492,
                        0.12114094197750092,
                        0.06776505708694458,
                        0.07576023042201996,
                        0.1509464681148529,
                        -0.04759594798088074,
                        0.036617353558540344,
                        0.025123722851276398,
                        0.01832810416817665,
                        0.017725450918078423,
                        0.09121261537075043,
                        -0.16662195324897766,
                        -0.08096924424171448,
                        0.020447658374905586,
                        -0.09621046483516693,
                        0.10923326015472412,
                        -0.11244656145572662,
                        0.17512133717536926,
                        0.06630443036556244,
                        0.07074597477912903,
                        0.02045164257287979,
                        -0.020952515304088593,
                        -0.03213370218873024,
                        -0.11573011428117752,
                        0.07569363713264465,
                        0.028936319053173065,
                        0.11802071332931519,
                        0.0008291853591799736,
                        0.11025745421648026,
                        0.182639017701149,
                        0.10695250332355499,
                        0.12037929147481918,
                        -0.006065185647457838,
                        0.08778223395347595,
                        0.10849736630916595,
                        0.010155600495636463,
                        -0.10062011331319809,
                        0.09586379677057266,
                        -0.044595830142498016,
                        0.007626323029398918,
                        -0.021825067698955536,
                        -0.04205916076898575,
                        -0.06130435690283775,
                        0.009539123624563217,
                        0.004115420393645763,
                        -0.09603011608123779,
                        -0.0466885045170784,
                        0.12836319208145142,
                        0.05546317622065544,
                        0.06585629284381866,
                        0.04878460615873337,
                        0.10303518921136856,
                        -0.012350624427199364,
                        -0.07859718799591064,
                        -0.036078788340091705,
                        -0.026033150032162666,
                        -0.07292680442333221,
                        0.03953590244054794,
                        -0.02046535722911358,
                        0.06896503269672394,
                        -0.12233862280845642,
                        0.0596616193652153,
                        -0.13305921852588654,
                        0.049292296171188354,
                        -0.01915174536406994,
                        -0.043169546872377396,
                        -0.0890967845916748,
                        -0.011765099130570889,
                        0.06467413902282715,
                        0.119198739528656,
                        -0.09322667866945267,
                        0.020712709054350853,
                        -0.019636332988739014,
                        0.22630508244037628,
                        -0.1735953688621521,
                        -0.18380224704742432,
                        -0.015007434412837029,
                        -0.21534623205661774,
                        -0.06441966444253922,
                        0.13768844306468964,
                        -0.011705341748893261,
                        -0.058408334851264954,
                        0.05747813731431961,
                        0.07582806795835495,
                        0.027730727568268776,
                        -0.03566130995750427,
                        -0.037831515073776245,
                        -0.06060729920864105,
                        -0.12635865807533264,
                        0.2059735804796219,
                        0.02355356514453888,
                        -0.026741983368992805,
                        -0.08797191083431244,
                        0.027899395674467087,
                        0.033750273287296295,
                        -0.06050630658864975,
                        -0.06317781656980515,
                        0.13577911257743835,
                        -0.04749830439686775,
                        -0.13886050879955292,
                        -0.004279184155166149,
                        -0.05332081764936447,
                        0.06515998393297195,
                        0.031041018664836884,
                        0.07129848003387451,
                        -0.12498597055673599,
                        -0.04546098783612251,
                        0.053244758397340775,
                        -0.03567834198474884,
                        0.005741172935813665,
                        -0.08429143577814102,
                        -0.1252966821193695,
                        0.017551088705658913,
                        0.031395018100738525,
                        -0.15311260521411896,
                        0.08282668143510818,
                        -0.20129543542861938,
                        0.05492161959409714,
                        -0.0533302016556263,
                        0.007529331836849451,
                        0.02393563836812973,
                        -0.0037569315172731876,
                        -0.144170343875885,
                        -0.12273217737674713,
                        0.12970641255378723,
                        0.08385930210351944,
                        0.057644739747047424,
                        0.06692788004875183
                    ],
                    [
                        -0.11628621071577072,
                        0.12909093499183655,
                        -0.032795250415802,
                        0.04883803427219391,
                        0.04394494369626045,
                        -0.026894008740782738,
                        0.01683029718697071,
                        -0.030384624376893044,
                        -0.044105593115091324,
                        0.045050960034132004,
                        0.005662745330482721,
                        -0.02476304955780506,
                        0.09065274149179459,
                        -0.019856687635183334,
                        -0.04765257239341736,
                        -0.010758484713733196,
                        -0.008676474913954735,
                        -0.007206278387457132,
                        0.03616295009851456,
                        0.17122937738895416,
                        -0.028421297669410706,
                        0.11847399920225143,
                        -0.019042449072003365,
                        0.11079190671443939,
                        0.1819506734609604,
                        0.08904096484184265,
                        -0.0029323629569262266,
                        -0.07341838628053665,
                        0.012140342965722084,
                        0.0888027474284172,
                        0.17201608419418335,
                        -0.023579811677336693,
                        0.09940042346715927,
                        0.029780276119709015,
                        -0.1337570995092392,
                        -0.05952569097280502,
                        -0.0004090667935088277,
                        -0.03689975664019585,
                        0.05395832657814026,
                        0.07084974646568298,
                        0.012328955344855785,
                        0.04998302459716797,
                        -0.013901506550610065,
                        -0.08446308225393295,
                        -0.002134244656190276,
                        -0.15509381890296936,
                        0.09912606328725815,
                        -0.06269287317991257,
                        0.02528630569577217,
                        -0.128091499209404,
                        -0.10426618903875351,
                        -0.020335761830210686,
                        0.2169846147298813,
                        -0.030987486243247986,
                        -0.08829936385154724,
                        -0.0899813249707222,
                        -0.04386487975716591,
                        -0.18759118020534515,
                        0.03688090294599533,
                        0.03998955711722374,
                        -0.03295793756842613,
                        0.056524574756622314,
                        -0.008291075937449932,
                        -0.002331135328859091,
                        0.006853664293885231,
                        0.1165134534239769,
                        0.05437582731246948,
                        0.12361063808202744,
                        0.06424479186534882,
                        -0.02213761769235134,
                        0.00025075487792491913,
                        0.1406455785036087,
                        -0.09027350693941116,
                        0.179152250289917,
                        0.084274522960186,
                        -0.05761473625898361,
                        0.05038788914680481,
                        0.0050712525844573975,
                        0.12847915291786194,
                        0.10161672532558441,
                        -0.1444573998451233,
                        0.05604133754968643,
                        -0.04236532002687454,
                        -0.08739975094795227,
                        0.03636755049228668,
                        0.08095279335975647,
                        -0.13153639435768127,
                        0.2641504108905792,
                        -0.058312151581048965,
                        -0.0754982978105545,
                        0.07302705198526382,
                        0.060288187116384506,
                        0.05947349965572357,
                        -0.013974685221910477,
                        0.15509141981601715,
                        -0.03599248453974724,
                        0.01757732592523098,
                        -0.09458547085523605,
                        0.09591906517744064,
                        0.06908545643091202,
                        0.0941932201385498,
                        -0.10197563469409943,
                        0.1163865402340889,
                        0.07028479874134064,
                        -0.0796872079372406,
                        0.12427907437086105,
                        0.049880124628543854,
                        0.04108468443155289,
                        0.07327717542648315,
                        0.27652961015701294,
                        0.041111283004283905,
                        0.07026386260986328,
                        -0.07122114300727844,
                        0.07489974796772003,
                        0.010902145877480507,
                        -0.06936899572610855,
                        -0.007305779494345188,
                        0.03186897933483124,
                        0.017634060233831406,
                        0.021857673302292824,
                        -0.10291975736618042,
                        -0.08379446715116501,
                        0.05878401920199394,
                        -0.019305549561977386,
                        -0.12436212599277496,
                        0.03201549872756004,
                        0.18413160741329193,
                        -0.03799216449260712
                    ],
                    [
                        0.04481077566742897,
                        -0.022801682353019714,
                        0.04022453352808952,
                        -0.10508417338132858,
                        -0.029886312782764435,
                        0.14082974195480347,
                        -0.20716869831085205,
                        0.05978214740753174,
                        -0.025267453864216805,
                        -0.03816507011651993,
                        0.1467248946428299,
                        -0.05213461071252823,
                        0.13641348481178284,
                        0.14921613037586212,
                        -0.10385618358850479,
                        -0.06813357025384903,
                        -0.03603789582848549,
                        -0.10919953137636185,
                        0.029783867299556732,
                        -0.06541335582733154,
                        0.08256214112043381,
                        0.025194136425852776,
                        -0.1442776620388031,
                        -0.06538251787424088,
                        0.012159854173660278,
                        -0.060513392090797424,
                        -0.03127380833029747,
                        -0.02275991439819336,
                        0.10883849859237671,
                        -0.0393511988222599,
                        -0.05210087448358536,
                        -0.05575229600071907,
                        0.027798766270279884,
                        0.033091943711042404,
                        -0.06020677834749222,
                        0.03485564514994621,
                        0.10321953892707825,
                        0.03475932404398918,
                        0.15377263724803925,
                        0.023844383656978607,
                        -0.02637377753853798,
                        0.04051586613059044,
                        -0.06134721636772156,
                        0.05169440433382988,
                        0.0717516764998436,
                        0.10417187213897705,
                        0.004755235277116299,
                        0.004152028821408749,
                        0.12298659980297089,
                        0.19162075221538544,
                        -0.1857628971338272,
                        0.089520163834095,
                        0.07205171138048172,
                        -0.08240401744842529,
                        0.07809068262577057,
                        -0.09707751125097275,
                        -0.018099728971719742,
                        -0.0796099305152893,
                        -0.02141767181456089,
                        0.13073943555355072,
                        0.10351535677909851,
                        0.0992504209280014,
                        0.07879061251878738,
                        -0.032901227474212646,
                        -0.10912978649139404,
                        0.07074382901191711,
                        0.06708025187253952,
                        -0.09322472661733627,
                        0.0073897745460271835,
                        -0.03589973226189613,
                        -0.03664141520857811,
                        -0.08590449392795563,
                        -0.168548583984375,
                        -0.039072051644325256,
                        -0.14241139590740204,
                        0.06997819989919662,
                        -0.06526215374469757,
                        0.08206179738044739,
                        0.004395401105284691,
                        0.010673056356608868,
                        0.08023862540721893,
                        -0.005772425793111324,
                        -0.004926448687911034,
                        0.008464543148875237,
                        -0.17434731125831604,
                        0.12407302111387253,
                        -0.06111636385321617,
                        -0.0211129579693079,
                        0.047020431607961655,
                        0.04423880949616432,
                        -0.01859981194138527,
                        0.024917662143707275,
                        0.03142986446619034,
                        0.11113108694553375,
                        0.24681945145130157,
                        0.10214461386203766,
                        -0.029516637325286865,
                        -0.007338155992329121,
                        0.0678313672542572,
                        -0.08447778224945068,
                        0.05592374503612518,
                        0.01513134315609932,
                        0.07369302213191986,
                        0.10908625274896622,
                        -0.02394503727555275,
                        -0.06382416933774948,
                        0.1307453066110611,
                        0.053983982652425766,
                        -0.04270565137267113,
                        0.006228121928870678,
                        -0.015351768583059311,
                        0.16432437300682068,
                        0.22832056879997253,
                        0.027807841077446938,
                        -0.15866735577583313,
                        0.11173032969236374,
                        0.0534391812980175,
                        -0.04283929243683815,
                        -0.07231961190700531,
                        0.02318616397678852,
                        -0.045636922121047974,
                        0.04765293747186661,
                        -0.10196113586425781,
                        0.15959575772285461,
                        0.1429746150970459,
                        0.038182929158210754,
                        0.07307493686676025,
                        0.09793299436569214
                    ],
                    [
                        0.004106658976525068,
                        0.0557258203625679,
                        0.06732458621263504,
                        0.06218625605106354,
                        0.021135585382580757,
                        0.08743269741535187,
                        -0.024163667112588882,
                        0.1678391993045807,
                        -0.036627478897571564,
                        0.1951403170824051,
                        -0.07133560627698898,
                        0.11263813823461533,
                        -0.04481133818626404,
                        -0.046099621802568436,
                        0.0076669612899422646,
                        -0.020387958735227585,
                        -0.02107369713485241,
                        0.07394113391637802,
                        0.05247975140810013,
                        0.18217092752456665,
                        -0.05393685773015022,
                        0.020489346235990524,
                        0.0773419663310051,
                        -0.007983610033988953,
                        0.00034697348019108176,
                        0.07779161632061005,
                        -0.09744524955749512,
                        0.07331226021051407,
                        -0.12795045971870422,
                        -0.027391474694013596,
                        0.09364840388298035,
                        -0.1529371589422226,
                        0.12302082031965256,
                        -0.06891277432441711,
                        -0.06451579928398132,
                        -0.009103463031351566,
                        0.06902121007442474,
                        -0.1393837183713913,
                        0.057101473212242126,
                        -0.027950961142778397,
                        -0.10908954590559006,
                        -0.0033901147544384003,
                        0.03443816304206848,
                        0.006548998411744833,
                        0.06386549770832062,
                        0.07541225105524063,
                        -0.06647296249866486,
                        0.15934762358665466,
                        0.033649757504463196,
                        -0.1191510483622551,
                        0.10590118169784546,
                        0.12251301109790802,
                        -0.09156806766986847,
                        -0.011195963248610497,
                        -0.061159782111644745,
                        0.020610947161912918,
                        0.023377522826194763,
                        0.0856579840183258,
                        -0.13091006875038147,
                        0.12659141421318054,
                        0.01391306146979332,
                        0.040385108441114426,
                        -0.03363250195980072,
                        0.00210933038033545,
                        0.13319148123264313,
                        -0.017639348283410072,
                        -0.06080835685133934,
                        0.12297601252794266,
                        -0.01944887451827526,
                        -0.10294988006353378,
                        -0.029018359258770943,
                        -0.014828010462224483,
                        0.126359224319458,
                        0.1243489608168602,
                        -0.1112692579627037,
                        0.043114107102155685,
                        -0.14247667789459229,
                        0.08012264221906662,
                        -0.02312207780778408,
                        -0.06529317051172256,
                        0.12305296957492828,
                        -0.11696627736091614,
                        -0.09107638150453568,
                        0.03910493105649948,
                        -0.1821957677602768,
                        0.17608626186847687,
                        0.04259258136153221,
                        -0.13231855630874634,
                        -0.09882362931966782,
                        0.09849733859300613,
                        0.08881174772977829,
                        -0.04077519476413727,
                        0.017437340691685677,
                        0.030354298651218414,
                        -0.013589376583695412,
                        -0.08908270299434662,
                        -0.05488745868206024,
                        0.020191174000501633,
                        -0.003029464278370142,
                        -0.12695716321468353,
                        -0.011269285343587399,
                        0.027897750958800316,
                        -0.03686273843050003,
                        0.00470071891322732,
                        -0.14709816873073578,
                        0.04483729228377342,
                        -0.010071838274598122,
                        0.13446448743343353,
                        -0.041918251663446426,
                        0.0883639007806778,
                        -0.07950149476528168,
                        0.022929683327674866,
                        -0.00375854829326272,
                        0.02903280407190323,
                        0.019422538578510284,
                        -0.203592911362648,
                        0.104737289249897,
                        -0.06544015556573868,
                        0.18140475451946259,
                        0.17708979547023773,
                        -0.04323989525437355,
                        0.16782158613204956,
                        -0.02658374235033989,
                        0.11264451593160629,
                        -0.010776749812066555,
                        0.1336461752653122,
                        -0.014069896191358566,
                        -0.12068863213062286
                    ],
                    [
                        -0.055740147829055786,
                        0.11767293512821198,
                        -0.008439702913165092,
                        0.12262777984142303,
                        0.049984436482191086,
                        0.04215714707970619,
                        -0.010840199887752533,
                        -0.05352857708930969,
                        0.05525847524404526,
                        0.036675527691841125,
                        0.02483881637454033,
                        0.09146901220083237,
                        -0.12370938062667847,
                        0.058379314839839935,
                        0.07652314752340317,
                        -0.053091857582330704,
                        0.0339251384139061,
                        -0.1298438012599945,
                        0.08675824105739594,
                        0.07081377506256104,
                        -0.13537728786468506,
                        -0.08240290731191635,
                        0.07240615040063858,
                        -0.11753308773040771,
                        -0.1206347867846489,
                        -0.02144506946206093,
                        -0.07664564251899719,
                        0.05329616367816925,
                        0.022199923172593117,
                        0.009871503338217735,
                        0.09342316538095474,
                        -0.11198964715003967,
                        0.1158732995390892,
                        -0.12060309201478958,
                        0.10504692792892456,
                        0.08787797391414642,
                        -0.030457166954874992,
                        0.22231268882751465,
                        0.1490134745836258,
                        0.02081841044127941,
                        -0.049646440893411636,
                        -0.024568891152739525,
                        0.003481256542727351,
                        0.06205948069691658,
                        -0.09719803929328918,
                        0.1429915428161621,
                        0.022497981786727905,
                        -0.16761133074760437,
                        0.06185229495167732,
                        0.2161789834499359,
                        -0.1220562532544136,
                        -0.1020989939570427,
                        0.01084598433226347,
                        -0.05368242785334587,
                        0.14848090708255768,
                        0.028279604390263557,
                        -0.016826067119836807,
                        0.05059807002544403,
                        0.01846969500184059,
                        0.13367322087287903,
                        0.13666899502277374,
                        -0.023370880633592606,
                        0.06066735088825226,
                        0.03965732455253601,
                        -0.00668302970007062,
                        -0.00963772926479578,
                        -0.06116590276360512,
                        -0.05370345711708069,
                        0.03420513868331909,
                        -0.03305007889866829,
                        0.0037742285057902336,
                        -0.029290232807397842,
                        0.06559030711650848,
                        -0.03147871792316437,
                        0.1828981637954712,
                        -0.09154921770095825,
                        0.02933572232723236,
                        -0.0755191296339035,
                        -0.060130905359983444,
                        0.18563537299633026,
                        -0.14127559959888458,
                        0.07136797904968262,
                        -0.045280732214450836,
                        0.055612459778785706,
                        -0.05665720999240875,
                        0.06819906830787659,
                        -0.058926746249198914,
                        0.055463068187236786,
                        -0.041089192032814026,
                        0.12890368700027466,
                        -0.031404513865709305,
                        0.002796747488901019,
                        0.2955711781978607,
                        -0.055069681257009506,
                        -0.029172364622354507,
                        -0.16260136663913727,
                        -0.10922344774007797,
                        -0.023098373785614967,
                        -0.05105933919548988,
                        -0.02391006425023079,
                        -0.026956096291542053,
                        -0.08007141202688217,
                        0.09216334670782089,
                        -0.07714203000068665,
                        -0.06400861591100693,
                        0.0854712724685669,
                        -0.04694913327693939,
                        0.031971611082553864,
                        -0.01307590864598751,
                        -0.020116236060857773,
                        0.11396415531635284,
                        -0.14225894212722778,
                        0.021572159603238106,
                        0.040818486362695694,
                        0.13644996285438538,
                        0.040633425116539,
                        0.0604681633412838,
                        0.04126204550266266,
                        -0.036534830927848816,
                        -0.06324874609708786,
                        -0.03910918906331062,
                        -0.048423122614622116,
                        -0.08077593147754669,
                        -0.04137241095304489,
                        -0.04819861054420471,
                        0.15302447974681854,
                        -0.16447268426418304,
                        -0.017072690650820732
                    ],
                    [
                        0.10572975128889084,
                        0.022366667166352272,
                        -0.09198631346225739,
                        -0.06834336370229721,
                        0.08354146033525467,
                        0.0920492485165596,
                        0.12212221324443817,
                        -0.01725034788250923,
                        0.08509913831949234,
                        0.08286017924547195,
                        -0.06888144463300705,
                        -0.07787096500396729,
                        -0.0337127223610878,
                        -0.04100720211863518,
                        -0.23050753772258759,
                        -0.08800899982452393,
                        0.23880743980407715,
                        -0.15707240998744965,
                        0.012423571199178696,
                        0.009575179778039455,
                        -0.0026408748235553503,
                        0.025571998208761215,
                        -0.08230481296777725,
                        -0.13016223907470703,
                        -0.05700746178627014,
                        0.04815501347184181,
                        -0.012881132774055004,
                        -0.002849181182682514,
                        -0.1249145120382309,
                        0.007517729885876179,
                        -0.08562339842319489,
                        -0.03919413685798645,
                        0.06254255771636963,
                        0.0570911169052124,
                        0.026911310851573944,
                        0.16055996716022491,
                        -0.02700309082865715,
                        -0.03378988802433014,
                        0.08378534018993378,
                        -0.09475918114185333,
                        0.0916309803724289,
                        -0.018485089763998985,
                        -0.00862178485840559,
                        0.08292485028505325,
                        -0.04094446077942848,
                        0.06264572590589523,
                        -0.024264901876449585,
                        0.01766425557434559,
                        0.09873422980308533,
                        0.010268012061715126,
                        0.03543297201395035,
                        -0.043606605380773544,
                        0.003489451017230749,
                        0.17857548594474792,
                        -0.004475951194763184,
                        -0.04110858216881752,
                        0.07412955909967422,
                        0.03519759327173233,
                        0.07085032761096954,
                        0.08084511756896973,
                        0.0351475365459919,
                        0.08216914534568787,
                        -0.004955725744366646,
                        -0.01088617742061615,
                        0.016096491366624832,
                        0.015583058819174767,
                        0.13147559762001038,
                        0.03199779987335205,
                        0.06302172690629959,
                        -0.15657873451709747,
                        0.2002510130405426,
                        0.16609975695610046,
                        -0.06040453538298607,
                        0.07252847403287888,
                        -0.07454714924097061,
                        -0.1187298372387886,
                        0.01791953667998314,
                        -0.10143693536520004,
                        0.22982817888259888,
                        -0.05040798708796501,
                        -0.1217673122882843,
                        -0.1644856184720993,
                        0.0001532617025077343,
                        0.0712292417883873,
                        0.12154635787010193,
                        0.13560685515403748,
                        0.0428953655064106,
                        -0.25724905729293823,
                        0.006323722191154957,
                        0.05406176298856735,
                        0.049330905079841614,
                        -0.010541237890720367,
                        -0.0734403133392334,
                        0.1765749603509903,
                        0.11368884146213531,
                        -0.08296340703964233,
                        -0.0340203195810318,
                        0.06016223132610321,
                        -0.025965502485632896,
                        0.06579142808914185,
                        0.05332770198583603,
                        0.037761446088552475,
                        -0.10901468992233276,
                        0.10581585764884949,
                        -0.017973892390727997,
                        0.03080640733242035,
                        -0.11102989315986633,
                        -0.03206612914800644,
                        0.0465218648314476,
                        -0.0008438454824499786,
                        0.06474356353282928,
                        -0.002159431576728821,
                        -0.10634881258010864,
                        -0.01313171535730362,
                        -0.06179174408316612,
                        0.12679177522659302,
                        -0.04667366296052933,
                        -0.0586448572576046,
                        -0.08384902775287628,
                        -0.05875827372074127,
                        0.015991657972335815,
                        -0.10431601852178574,
                        0.11443622410297394,
                        -0.04966612160205841,
                        -0.06641329079866409,
                        -0.06935948133468628,
                        -0.025956526398658752,
                        -0.10390796512365341
                    ],
                    [
                        -0.016283150762319565,
                        -0.09446891397237778,
                        0.050727348774671555,
                        -0.10411077737808228,
                        0.024774570018053055,
                        0.03964291140437126,
                        0.06726401299238205,
                        -0.03955899924039841,
                        -0.01174036506563425,
                        -0.036790572106838226,
                        -0.010954913683235645,
                        0.07168333232402802,
                        -0.045347172766923904,
                        -0.11254419386386871,
                        -0.08957183361053467,
                        -0.0066257985308766365,
                        -0.10720990598201752,
                        -0.018121374770998955,
                        0.006309335120022297,
                        -0.06970334053039551,
                        0.09741097688674927,
                        0.0845966562628746,
                        0.06596381217241287,
                        -0.04780252277851105,
                        -0.176467627286911,
                        -0.09100886434316635,
                        -0.08478536456823349,
                        -0.03745568171143532,
                        0.08089032769203186,
                        0.08365092426538467,
                        0.028495175763964653,
                        0.08034374564886093,
                        0.07644995301961899,
                        0.03364482522010803,
                        0.049822449684143066,
                        0.1124807596206665,
                        0.13856202363967896,
                        -0.019374843686819077,
                        0.09382645040750504,
                        0.10840852558612823,
                        -0.04926587641239166,
                        0.17295315861701965,
                        0.009238667786121368,
                        0.1689903885126114,
                        0.17526407539844513,
                        -0.09601243585348129,
                        -0.0665535181760788,
                        -0.035327013581991196,
                        -0.03916926309466362,
                        -0.09478435665369034,
                        -0.06231222674250603,
                        -0.07032553106546402,
                        -0.046382371336221695,
                        0.013985899277031422,
                        -0.007695620413869619,
                        0.20444580912590027,
                        -0.09633155167102814,
                        -0.0225626640021801,
                        -0.08571667224168777,
                        0.0296698659658432,
                        0.017929093912243843,
                        0.02418038621544838,
                        -0.05573394522070885,
                        0.18647675216197968,
                        -0.05258581042289734,
                        -0.0373859666287899,
                        0.10269825905561447,
                        0.19831861555576324,
                        -0.06269242614507675,
                        -0.02741522714495659,
                        -0.08644893020391464,
                        0.043310701847076416,
                        0.19812847673892975,
                        0.05136141926050186,
                        -0.0007376021239906549,
                        0.15560831129550934,
                        -0.05891833454370499,
                        -0.02192699909210205,
                        0.07215283811092377,
                        0.16780583560466766,
                        -0.024465246126055717,
                        0.001678143860772252,
                        0.009634732268750668,
                        0.06568332761526108,
                        0.06958155333995819,
                        0.015056279487907887,
                        0.021263981238007545,
                        -0.03761803358793259,
                        -0.04254673421382904,
                        -0.06363407522439957,
                        -0.09036067873239517,
                        0.08179134875535965,
                        0.043521273881196976,
                        -0.1585628241300583,
                        -0.001875198562629521,
                        0.059025734663009644,
                        -0.07580965757369995,
                        0.10015538334846497,
                        -0.15235012769699097,
                        -0.023079706355929375,
                        -0.08366689085960388,
                        8.917110972106457e-05,
                        -0.08711043745279312,
                        0.06284191459417343,
                        -0.008857841603457928,
                        0.095157690346241,
                        -0.13877202570438385,
                        -0.0026483156252652407,
                        -0.10603462904691696,
                        0.07542404532432556,
                        0.052709273993968964,
                        -0.054858118295669556,
                        0.12145166099071503,
                        0.09327422082424164,
                        -0.0013700684066861868,
                        0.09602431952953339,
                        0.013332567177712917,
                        0.02470076084136963,
                        0.06505217403173447,
                        -0.1769866645336151,
                        0.014322525821626186,
                        -0.014770982787013054,
                        -0.03720252960920334,
                        0.14991669356822968,
                        -0.06325723975896835,
                        -0.14120282232761383,
                        0.269929438829422,
                        0.08724356442689896
                    ],
                    [
                        0.015031347051262856,
                        -0.013384775258600712,
                        0.03643561154603958,
                        -0.042414456605911255,
                        0.009045638144016266,
                        0.09868466109037399,
                        -0.11827221512794495,
                        -0.04250307008624077,
                        -0.04979385808110237,
                        -0.04230416566133499,
                        0.004981089383363724,
                        -0.04001076892018318,
                        0.04924575611948967,
                        -0.016917018219828606,
                        -0.14450359344482422,
                        0.04154041036963463,
                        -0.09466156363487244,
                        0.15952536463737488,
                        -0.001303787576034665,
                        -0.22215688228607178,
                        0.03553173318505287,
                        -0.08771713823080063,
                        0.11174901574850082,
                        -0.10788492858409882,
                        -0.19585737586021423,
                        -0.0956421047449112,
                        0.015049779787659645,
                        0.05632774904370308,
                        -0.02625620737671852,
                        0.07124056667089462,
                        0.005831167101860046,
                        0.006171326618641615,
                        0.10873845219612122,
                        -0.15150494873523712,
                        0.001065562479197979,
                        -0.053432315587997437,
                        -0.12876394391059875,
                        0.02635410986840725,
                        -0.044621340930461884,
                        0.0011658205185085535,
                        -0.1202988401055336,
                        0.11907964199781418,
                        -0.03480321168899536,
                        0.09169520437717438,
                        0.029917124658823013,
                        0.03210650756955147,
                        0.11400333046913147,
                        -0.07424522936344147,
                        -0.010053874924778938,
                        0.05143222585320473,
                        -0.07946062833070755,
                        0.03918588533997536,
                        0.03551867976784706,
                        0.03399938717484474,
                        0.046248599886894226,
                        0.02535645104944706,
                        0.0877671018242836,
                        0.06633448600769043,
                        -0.14052684605121613,
                        0.18271073698997498,
                        -0.251919150352478,
                        0.055195264518260956,
                        -0.05448666214942932,
                        0.1194777861237526,
                        -0.09812802076339722,
                        -0.07323584705591202,
                        -0.12055116146802902,
                        -0.01846393384039402,
                        0.022115934640169144,
                        0.06419423967599869,
                        0.17095302045345306,
                        -0.18521861732006073,
                        0.1707845777273178,
                        0.04457838833332062,
                        0.005324410740286112,
                        0.08939110487699509,
                        0.028404179960489273,
                        0.12355274707078934,
                        0.05303771048784256,
                        -0.11518364399671555,
                        0.011540357023477554,
                        0.04582485556602478,
                        0.06381986290216446,
                        0.01479983702301979,
                        0.005148500204086304,
                        -0.043927863240242004,
                        -0.04870890453457832,
                        -0.03448161110281944,
                        0.08485648781061172,
                        -0.07027138024568558,
                        0.11750835180282593,
                        -0.005632526706904173,
                        0.04445517063140869,
                        0.14741188287734985,
                        0.024544186890125275,
                        -0.026473715901374817,
                        0.07696949690580368,
                        -0.009840348735451698,
                        0.023097552359104156,
                        0.17326559126377106,
                        0.05589348077774048,
                        -0.07867928594350815,
                        0.06140412762761116,
                        0.012411538511514664,
                        -0.059446971863508224,
                        -0.12606631219387054,
                        0.030674712732434273,
                        -0.11943496018648148,
                        0.0954030305147171,
                        0.22929060459136963,
                        0.0044575403444468975,
                        0.07650050520896912,
                        -0.14719322323799133,
                        0.10095637291669846,
                        -0.016596809029579163,
                        -0.0960393100976944,
                        -0.05552658438682556,
                        -0.06662152707576752,
