{
    "in_shape": [
        null,
        null,
        2
    ],
    "layers": [
        {
            "type": "lstm",
            "activation": "tanh",
            "shape": [
                null,
                null,
                8
            ],
            "weights": [
                [
                    [
                        -0.02177909016609192,
                        0.3250907361507416,
                        0.2971639931201935,
                        -0.19005070626735687,
                        0.3229888379573822,
                        -0.0767616331577301,
                        0.19563528895378113,
                        -0.027069419622421265,
                        -0.08990940451622009,
                        -0.3639730215072632,
                        -0.3436436057090759,
                        -0.41603612899780273,
                        0.2286553680896759,
                        -0.1921813189983368,
                        -0.03794074058532715,
                        -0.2675533890724182,
                        -0.01832440495491028,
                        -0.1526956856250763,
                        0.3180352747440338,
                        0.20731624960899353,
                        0.23591163754463196,
                        -0.23593661189079285,
                        0.13187137246131897,
                        0.2592866122722626,
                        -0.33654385805130005,
                        -0.15331023931503296,
                        0.026825129985809326,
                        -0.0875074565410614,
                        0.19878950715065002,
                        -0.0490531325340271,
                        0.032977521419525146,
                        0.3486568033695221
                    ],
                    [
                        -0.1985817849636078,
                        0.027978122234344482,
                        0.2798819839954376,
                        -0.019534409046173096,
                        0.38864102959632874,
                        -0.23129168152809143,
                        -0.2073182761669159,
                        0.23250427842140198,
                        -0.2533469796180725,
                        0.3446687161922455,
                        -0.18357132375240326,
                        -0.3340894281864166,
                        0.004254430532455444,
                        0.19706591963768005,
                        -0.01837289333343506,
                        -0.026293396949768066,
                        0.11162599921226501,
                        -0.3354351222515106,
                        0.16982343792915344,
                        -0.3590955436229706,
                        -0.06284487247467041,
                        -0.001994699239730835,
                        0.06996786594390869,
                        -0.3389989733695984,
                        0.20653757452964783,
                        0.282671719789505,
                        -0.027791827917099,
                        0.3912796080112457,
                        0.2627532184123993,
                        0.11574772000312805,
                        -0.13263407349586487,
                        -0.1023067831993103
                    ]
                ],
                [
                    [
                        -0.18822550773620605,
                        -0.05025149881839752,
                        -0.08334596455097198,
                        -0.24922756850719452,
                        0.02985038049519062,
                        0.04789495840668678,
                        0.19863083958625793,
                        0.20175692439079285,
                        -0.16462139785289764,
                        0.17504644393920898,
                        0.29124367237091064,
                        0.4043808877468109,
                        -0.25101572275161743,
                        0.15646667778491974,
                        -0.16737456619739532,
                        -0.0882701575756073,
                        0.18152298033237457,
                        0.21941296756267548,
                        -0.2432163655757904,
                        0.23074832558631897,
                        -0.12411750853061676,
                        -0.03003460355103016,
                        -0.035239219665527344,
                        -0.14439991116523743,
                        -0.01202927902340889,
                        -0.12943711876869202,
                        0.03563540056347847,
                        0.0023107770830392838,
                        -0.20749515295028687,
                        -0.2744500935077667,
                        -0.09912140667438507,
                        -0.04457796737551689
                    ],
                    [
                        0.07232501357793808,
                        0.047194164246320724,
                        -0.0006581689231097698,
                        -0.163955420255661,
                        -0.4459688365459442,
                        -0.01743760146200657,
                        0.1805378496646881,
                        -0.05698655545711517,
                        0.0668027475476265,
                        -0.16366489231586456,
                        0.1703554391860962,
                        -0.08208143711090088,
                        0.11711608618497849,
                        0.18702279031276703,
                        0.034366074949502945,
                        0.24598272144794464,
                        0.21360671520233154,
                        0.16722887754440308,
                        -0.030265139415860176,
                        0.18379966914653778,
                        0.009959964081645012,
                        -0.05308246985077858,
                        -0.12691114842891693,
                        0.4824426472187042,
                        -0.08936423808336258,
                        0.1737888902425766,
                        0.12141847610473633,
                        -0.2487572729587555,
                        0.17376099526882172,
                        -0.07603960484266281,
                        0.17122116684913635,
                        -0.11431638896465302
                    ],
                    [
                        0.11151815950870514,
                        0.004808751400560141,
                        -0.06031721830368042,
                        0.0007777269929647446,
                        -0.16409334540367126,
                        -0.08822562545537949,
                        0.03276922181248665,
                        0.20506592094898224,
                        0.34533873200416565,
                        -0.041531093418598175,
                        0.07881689071655273,
                        0.03844494745135307,
                        -0.29611027240753174,
                        -0.13632053136825562,
                        0.317142516374588,
                        0.23420865833759308,
                        -0.16252073645591736,
                        0.002436574548482895,
                        0.15476907789707184,
                        0.12556682527065277,
                        -0.05323738232254982,
                        0.10542106628417969,
                        0.2942328453063965,
                        -0.24533338844776154,
                        -0.043316591531038284,
                        0.007051168940961361,
                        -0.16313835978507996,
                        0.14313443005084991,
                        -0.006441263481974602,
                        -0.25336122512817383,
                        0.3900947570800781,
                        -0.15300500392913818
                    ],
                    [
                        -0.22335931658744812,
                        -0.021542511880397797,
                        0.06441473960876465,
                        -0.11388026177883148,
                        0.17447736859321594,
                        -0.1380358785390854,
                        -0.016056105494499207,
                        0.016737831756472588,
                        0.10777782648801804,
                        -0.05254789814352989,
                        -0.11339092999696732,
                        -0.03191029280424118,
                        0.021360278129577637,
                        -0.22052009403705597,
                        0.08052343130111694,
                        -0.022116219624876976,
                        0.025690631940960884,
                        0.6686211824417114,
                        0.10124169290065765,
                        0.18956205248832703,
                        -0.1765965223312378,
                        0.07526086270809174,
                        0.1408635526895523,
                        0.11967888474464417,
                        0.18343113362789154,
                        0.13786542415618896,
                        -0.16122113168239594,
                        -0.01523538026958704,
                        0.002618979662656784,
                        0.2545829117298126,
                        -0.010281572118401527,
                        0.2991076707839966
                    ],
                    [
                        0.22046896815299988,
                        0.1528322845697403,
                        -0.1042640209197998,
                        0.10432559251785278,
                        -0.13013038039207458,
                        0.21519263088703156,
                        0.057356301695108414,
                        -0.004129964858293533,
                        0.047759924083948135,
                        0.39932912588119507,
                        -0.02174779772758484,
                        0.14266064763069153,
                        0.2746376693248749,
                        -0.08367685973644257,
                        0.10373139381408691,
                        0.04553414508700371,
                        -0.05389585345983505,
                        0.23782332241535187,
                        -0.12044276297092438,
                        0.033987801522016525,
                        -0.0482097789645195,
                        -0.18392957746982574,
                        0.09378430247306824,
                        0.09001229703426361,
                        -0.0783572793006897,
                        0.07608415186405182,
                        0.05549401044845581,
                        0.5327989459037781,
                        0.07378902286291122,
                        0.15886114537715912,
                        -0.174405038356781,
                        -0.27155372500419617
                    ],
                    [
                        -0.16143494844436646,
                        0.1753905862569809,
                        -0.24697913229465485,
                        0.13392303884029388,
                        -0.08697862178087234,
                        -0.18002721667289734,
                        0.23200887441635132,
                        0.06752042472362518,
                        0.15315678715705872,
                        0.094596266746521,
                        0.13834631443023682,
                        -0.19074571132659912,
                        0.298178106546402,
                        -0.08758006244897842,
                        -0.2041483223438263,
                        -0.12214542180299759,
                        0.1218871995806694,
                        0.19045980274677277,
                        0.09460615366697311,
                        -0.39794543385505676,
                        0.057969193905591965,
                        0.3755914866924286,
                        0.12254182249307632,
                        -0.1420029252767563,
                        -0.08068333566188812,
                        0.06572133302688599,
                        0.01723325625061989,
                        -0.14904896914958954,
                        -0.14365337789058685,
                        -0.1623767614364624,
                        -0.09369708597660065,
                        -0.19390380382537842
                    ],
                    [
                        -0.194275364279747,
                        -0.12347210198640823,
                        0.27473026514053345,
                        0.10381848365068436,
                        0.2004406601190567,
                        0.08772234618663788,
                        0.07516804337501526,
                        0.2628348469734192,
                        0.1250884234905243,
                        -0.13715976476669312,
                        0.24702899158000946,
                        0.05488957464694977,
                        0.2670382559299469,
                        -0.1207314059138298,
                        0.13750919699668884,
                        0.35984668135643005,
                        0.07345840334892273,
                        -0.11301769316196442,
                        0.025143027305603027,
                        0.026608437299728394,
                        0.14405037462711334,
                        -0.33229750394821167,
                        0.04599977657198906,
                        -0.11397676914930344,
                        -0.06140800192952156,
                        0.20051665604114532,
                        -0.16811296343803406,
                        -0.17974920570850372,
                        -0.12720227241516113,
                        0.03109016641974449,
                        -0.3193228542804718,
                        -0.12617750465869904
                    ],
                    [
                        -0.002196638146415353,
                        -0.09145733714103699,
                        0.24390201270580292,
                        -0.11126760393381119,
                        0.07707344740629196,
                        0.1964084655046463,
                        -0.22727519273757935,
                        0.04934065043926239,
                        0.04603084549307823,
                        0.18261905014514923,
                        -0.015780849382281303,
                        -0.024395903572440147,
                        0.11790937930345535,
                        -0.1928459107875824,
                        -0.020759515464305878,
                        -0.045236147940158844,
                        0.31145045161247253,
                        -0.19607315957546234,
                        0.18269775807857513,
                        -0.1015797108411789,
                        -0.45516452193260193,
                        0.13597498834133148,
                        0.0729006752371788,
                        0.37824907898902893,
                        0.11432097107172012,
                        -0.15943065285682678,
                        -0.1773296445608139,
                        0.03171094134449959,
                        -0.0908132866024971,
                        -0.2814536690711975,
                        0.026819372549653053,
                        -0.13769352436065674
                    ]
                ],
                [
                    0.05114039406180382,
                    -0.09635498374700546,
                    -0.06366142630577087,
                    0.05023840069770813,
                    -0.038302477449178696,
                    -0.013331281952559948,
                    0.0266144759953022,
                    -0.09157851338386536,
                    1.0,
                    1.0,
                    1.0,
                    1.0,
                    1.0,
                    1.0,
                    1.0,
                    1.0,
                    0.05114039406180382,
                    -0.09635498374700546,
                    -0.06366142630577087,
                    0.05023840069770813,
                    -0.038302477449178696,
                    -0.013331281952559948,
                    0.0266144759953022,
                    -0.09157851338386536,
                    0.06359326094388962,
                    -0.10674667358398438,
                    -0.07070071250200272,
                    -0.039574746042490005,
                    -0.0043930783867836,
                    -0.021514585241675377,
                    -0.053139299154281616,
                    -0.01110915094614029
                ]
            ]
        },
        {
            "type": "dense",
            "activation": "sigmoid",
            "shape": [
                null,
                null,
                8
            ],
            "weights": [
                [
                    [
                        0.18143713474273682,
                        -0.14039842784404755,
                        0.08483688533306122,
                        0.27590951323509216,
                        -0.2877908945083618,
                        -0.6305810213088989,
                        -0.280754029750824,
                        -0.5520566701889038
                    ],
                    [
                        0.31210604310035706,
                        -0.09251729398965836,
                        0.017010722309350967,
                        0.022669557482004166,
                        -0.6993265151977539,
                        0.4460256099700928,
                        0.4018244445323944,
                        -0.20920749008655548
                    ],
                    [
                        0.0964890569448471,
                        -0.3705046474933624,
                        -0.5351240634918213,
                        0.12384093552827835,
                        0.13994526863098145,
                        0.4565337300300598,
                        -0.5236369967460632,
                        -0.22252723574638367
                    ],
                    [
                        -0.4395982325077057,
                        -0.5003566145896912,
                        0.31913211941719055,
                        0.44821473956108093,
                        0.25192034244537354,
                        0.14945805072784424,
                        0.34466132521629333,
                        -0.22149915993213654
                    ],
                    [
                        -0.19992810487747192,
                        -0.0669805184006691,
                        -0.6074874997138977,
                        -0.3720407783985138,
                        0.11754022538661957,
                        -0.25826147198677063,
                        0.49711400270462036,
                        -0.3470591604709625
                    ],
                    [
                        -0.7436816692352295,
                        -0.037450410425662994,
                        -0.13288544118404388,
                        -0.0506318062543869,
                        -0.5652210116386414,
                        -0.042875051498413086,
                        -0.25760069489479065,
                        0.194014772772789
                    ],
                    [
                        0.016087036579847336,
                        -0.4642220735549927,
                        0.41885626316070557,
                        -0.7453861236572266,
                        0.011799339205026627,
                        0.033466678112745285,
                        -0.18264140188694,
                        -0.13631151616573334
                    ],
                    [
                        -0.27170032262802124,
                        0.6022518873214722,
                        0.20535358786582947,
                        -0.10270604491233826,
                        0.10789146274328232,
                        0.3209528923034668,
                        -0.14102831482887268,
                        -0.6133617758750916
                    ]
                ],
                [
                    0.008227276615798473,
                    -0.026367172598838806,
                    0.017764676362276077,
                    0.0565778873860836,
                    -0.035042595118284225,
                    -0.013937789015471935,
                    0.07727497071027756,
                    -0.05279606580734253
                ]
            ]
        },
        {
            "type": "dense",
            "activation": "",
            "shape": [
                null,
                null,
                2
            ],
            "weights": [
                [
                    [
                        -0.4666200876235962,
                        -0.083889901638031
                    ],
                    [
                        -0.009129244834184647,
                        -0.21751515567302704
                    ],
                    [
                        -0.3482106328010559,
                        -0.385222852230072
                    ],
                    [
                        -0.225740447640419,
                        0.19614535570144653
                    ],
                    [
                        -0.16709336638450623,
                        0.49626225233078003
                    ],
                    [
                        0.254562646150589,
                        0.3606303632259369
                    ],
                    [
                        0.0422079861164093,
                        0.5746229290962219
                    ],
                    [
                        -0.717961847782135,
                        0.22859960794448853
                    ]
                ],
                [
                    0.017234643921256065,
                    -0.056290484964847565
                ]
            ]
        }
    ]
}