{
    "in_shape": [
        null,
        null,
        2
    ],
    "layers": [
        {
            "type": "lstm",
            "activation": "tanh",
            "shape": [
                null,
                null,
                16
            ],
            "weights": [
                [
                    [
                        0.20275312662124634,
                        0.1542791724205017,
                        0.2229277491569519,
                        -0.1369539350271225,
                        0.23567092418670654,
                        -0.15687187016010284,
                        -0.20714512467384338,
                        0.14534610509872437,
                        -0.17558757960796356,
                        -0.0649556815624237,
                        -0.279328852891922,
                        -0.06084078550338745,
                        -0.03012600541114807,
                        -0.10460491478443146,
                        0.1382434368133545,
                        -0.1047193706035614,
                        0.2101738452911377,
                        -0.2922070026397705,
                        0.30143171548843384,
                        -0.05003929138183594,
                        -0.2602802515029907,
                        0.08301800489425659,
                        -0.12555593252182007,
                        -0.20099277794361115,
                        0.2899262309074402,
                        0.1747305691242218,
                        -0.26382020115852356,
                        -0.08646364510059357,
                        -0.11992453038692474,
                        -0.017587810754776,
                        0.16482841968536377,
                        -0.05463580787181854,
                        -0.012370765209197998,
                        0.15345212817192078,
                        -0.2209850400686264,
                        0.044662922620773315,
                        -0.25001105666160583,
                        0.044598668813705444,
                        -0.02317693829536438,
                        -0.24776341021060944,
                        0.1606343686580658,
                        0.10014274716377258,
                        -0.27089428901672363,
                        0.13144150376319885,
                        0.14520961046218872,
                        0.13819476962089539,
                        -0.28870889544487,
                        0.21757400035858154,
                        0.008566349744796753,
                        0.28256845474243164,
                        0.27420294284820557,
                        -0.28110063076019287,
                        0.2821078300476074,
                        -0.289082407951355,
                        -0.011311233043670654,
                        -0.27823778986930847,
                        -0.28443634510040283,
                        0.2861183285713196,
                        -0.11927331984043121,
                        -0.04295492172241211,
                        0.07104161381721497,
                        0.21688932180404663,
                        0.21728628873825073,
                        0.024373918771743774
                    ],
                    [
                        0.20617854595184326,
                        0.273933470249176,
                        0.10988622903823853,
                        0.16224440932273865,
                        -0.27644819021224976,
                        0.13365969061851501,
                        0.18828779458999634,
                        0.035732537508010864,
                        0.2174365520477295,
                        0.1762591302394867,
                        0.25581687688827515,
                        -0.23813515901565552,
                        0.237460196018219,
                        0.20415133237838745,
                        -0.223760187625885,
                        -0.1590116322040558,
                        -0.041315555572509766,
                        -0.12302418053150177,
                        -0.061022862792015076,
                        0.09485825896263123,
                        -0.011447548866271973,
                        0.2453489899635315,
                        -0.1970110833644867,
                        -0.21913088858127594,
                        -0.24559704959392548,
                        0.17694494128227234,
                        -0.1361171156167984,
                        -0.1590031385421753,
                        -0.01791238784790039,
                        0.11450204253196716,
                        -0.11251279711723328,
                        0.299063503742218,
                        0.018748551607131958,
                        0.10764476656913757,
                        0.26189112663269043,
                        -0.25613516569137573,
                        0.08706891536712646,
                        -0.24795778095722198,
                        0.27449947595596313,
                        -0.03637656569480896,
                        -0.10244065523147583,
                        -0.23043027520179749,
                        -0.13495925068855286,
                        0.2405816912651062,
                        0.13702762126922607,
                        0.16200897097587585,
                        -0.21950052678585052,
                        0.07472354173660278,
                        -0.18416449427604675,
                        -0.1269408017396927,
                        0.10124051570892334,
                        0.1765434443950653,
                        0.24263417720794678,
                        -0.02691429853439331,
                        -0.020044952630996704,
                        -0.2583320140838623,
                        -0.22800728678703308,
                        0.07332262396812439,
                        0.057975053787231445,
                        0.14884385466575623,
                        0.006284832954406738,
                        -0.27973926067352295,
                        -0.29355207085609436,
                        -0.09145447611808777
                    ]
                ],
                [
                    [
                        0.052301883697509766,
                        -0.1071373000741005,
                        0.056485142558813095,
                        -0.05845632031559944,
                        0.060128241777420044,
                        -0.10779085010290146,
                        -0.04242382198572159,
                        -0.014451531693339348,
                        0.02852158062160015,
                        0.07053173333406448,
                        -0.05371670797467232,
                        0.2415780872106552,
                        0.14242611825466156,
                        0.10989155620336533,
                        0.0453495979309082,
                        -0.023292485624551773,
                        0.03582208231091499,
                        0.07966404408216476,
                        -0.1009877547621727,
                        -0.158511221408844,
                        -0.06138493865728378,
                        0.2480091005563736,
                        0.15146000683307648,
                        -0.05066052824258804,
                        0.19607849419116974,
                        0.02555578202009201,
                        0.02659955993294716,
                        0.0385371558368206,
                        0.07569701224565506,
                        0.0755477026104927,
                        0.11326125264167786,
                        0.14124242961406708,
                        0.06043383479118347,
                        0.017661793157458305,
                        0.09432245790958405,
                        -0.020166616886854172,
                        -0.2859899401664734,
                        0.14179354906082153,
                        0.12905430793762207,
                        0.3424530327320099,
                        0.06711254268884659,
                        0.18725702166557312,
                        0.06226859986782074,
                        -0.01936759613454342,
                        -0.02626461163163185,
                        -0.10519645363092422,
                        0.10066822916269302,
                        -0.18975654244422913,
                        0.16210559010505676,
                        0.21967312693595886,
                        0.20239472389221191,
                        0.23456953465938568,
                        -0.10338916629552841,
                        0.022677462548017502,
                        -0.08648791164159775,
                        -0.07198486477136612,
                        -0.09859464317560196,
                        0.08210283517837524,
                        0.038158148527145386,
                        -0.1094297543168068,
                        0.219175323843956,
                        -0.0006128827226348221,
                        0.07405421137809753,
                        -0.10992379486560822
                    ],
                    [
                        0.08723624795675278,
                        0.08650859445333481,
                        0.10237898677587509,
                        0.09170711785554886,
                        -0.0630788505077362,
                        -0.19386014342308044,
                        -0.1619201898574829,
                        0.04011179879307747,
                        0.06409961730241776,
                        0.0548177994787693,
                        0.0736009031534195,
                        0.04821580648422241,
                        -0.04321205988526344,
                        0.09110467880964279,
                        0.015475780703127384,
                        0.016209803521633148,
                        -0.10176865756511688,
                        -0.16562531888484955,
                        0.28722694516181946,
                        -0.10907808691263199,
                        -0.03518533706665039,
                        -0.12549830973148346,
                        0.01777639053761959,
                        -0.06719458103179932,
                        -0.06526529043912888,
                        -0.0818389430642128,
                        0.1129368469119072,
                        0.09457705914974213,
                        0.08881489932537079,
                        -0.17030522227287292,
                        0.03980635851621628,
                        0.27734601497650146,
                        0.09571436792612076,
                        -0.002779875649139285,
                        -0.2909988760948181,
                        -0.2146838903427124,
                        0.03615032136440277,
                        0.1581617146730423,
                        0.21101045608520508,
                        -0.060750313103199005,
                        -0.015811441466212273,
                        -0.09314198791980743,
                        0.10424886643886566,
                        0.06747883558273315,
                        -0.20822271704673767,
                        -0.2508774697780609,
                        0.10266035795211792,
                        0.01659601740539074,
                        -0.2375791370868683,
                        -0.1523807793855667,
                        0.10556438565254211,
                        -0.10186132788658142,
                        -0.012413306161761284,
                        -0.152973473072052,
                        -0.13684320449829102,
                        -0.012940885499119759,
                        -0.20982639491558075,
                        0.06171295791864395,
                        -0.02309611067175865,
                        0.11202489584684372,
                        0.048681069165468216,
                        0.03220696002244949,
                        -0.062479667365550995,
                        -0.03531835973262787
                    ],
                    [
                        0.15130138397216797,
                        -0.07806280255317688,
                        0.074143186211586,
                        0.09046776592731476,
                        0.04651860147714615,
                        -0.00833115167915821,
                        0.06654198467731476,
                        -0.0892656072974205,
                        -0.05578574165701866,
                        0.2319248467683792,
                        0.19573244452476501,
                        -0.02655404433608055,
                        0.0648711621761322,
                        -0.0791434571146965,
                        0.07059296220541,
                        0.0501316599547863,
                        -0.01644180156290531,
                        -0.08589383214712143,
                        0.24259372055530548,
                        -0.013943500816822052,
                        0.3388405442237854,
                        0.007036490365862846,
                        0.10061339288949966,
                        0.04239015281200409,
                        0.11483696103096008,
                        0.08367518335580826,
                        -0.11904241144657135,
                        0.08081715553998947,
                        0.04784783720970154,
                        0.03129161149263382,
                        -0.04939582198858261,
                        -0.22408366203308105,
                        0.18012115359306335,
                        -0.16092826426029205,
                        0.07785861939191818,
                        0.01216885820031166,
                        -0.059427596628665924,
                        -0.08447562903165817,
                        -0.08633237332105637,
                        0.055989522486925125,
                        -0.04294028878211975,
                        -0.19237899780273438,
                        -0.01928940787911415,
                        -0.15464021265506744,
                        -0.18944577872753143,
                        -0.32902076840400696,
                        -0.2408173680305481,
                        -0.01645963452756405,
                        0.1626509130001068,
                        0.09891629219055176,
                        -0.02638540044426918,
                        -0.03288746252655983,
                        0.05116335302591324,
                        -0.03166187182068825,
                        -0.2319284826517105,
                        -0.02927360311150551,
                        0.13230733573436737,
                        -0.10066580772399902,
                        -0.15040312707424164,
                        -0.09398563206195831,
                        -0.011942751705646515,
                        -0.07958997040987015,
                        0.008600033819675446,
                        0.15887750685214996
                    ],
                    [
                        0.25432726740837097,
                        0.0837647020816803,
                        0.08333557844161987,
                        0.08730897307395935,
                        -0.18769671022891998,
                        0.0432422012090683,
                        -0.09582861512899399,
                        0.07327103614807129,
                        0.17149077355861664,
                        0.01014789566397667,
                        0.016847968101501465,
                        0.11699896305799484,
                        -0.15112541615962982,
                        -0.26258164644241333,
                        -0.07306461036205292,
                        0.07546281069517136,
                        -0.15159861743450165,
                        0.054326482117176056,
                        -0.17044615745544434,
                        -0.06240686774253845,
                        0.14648345112800598,
                        -0.2255513072013855,
                        -0.025955930352211,
                        -0.23768974840641022,
                        0.05715560168027878,
                        -0.06147880479693413,
                        -0.06904847919940948,
                        -0.15838956832885742,
                        0.047929443418979645,
                        -0.04728183150291443,
                        0.21037384867668152,
                        0.1332688331604004,
                        0.06739276647567749,
                        -0.14432775974273682,
                        0.10760165750980377,
                        -0.07422778755426407,
                        0.08394864946603775,
                        -0.08734910190105438,
                        -0.04228141903877258,
                        0.0721285492181778,
                        0.08417298644781113,
                        0.05655962973833084,
                        -0.06718586385250092,
                        0.10067634284496307,
                        0.05561501905322075,
                        0.06959658861160278,
                        0.13817214965820312,
                        -0.03536255657672882,
                        -0.21782314777374268,
                        0.06446322053670883,
                        -0.09049812704324722,
                        0.1406920850276947,
                        -0.07595206797122955,
                        0.03006637468934059,
                        -0.08759599924087524,
                        -0.009909061715006828,
                        0.08235672116279602,
                        -0.09846358746290207,
                        0.01693856529891491,
                        -0.19006133079528809,
                        -0.08299268037080765,
                        -0.13858065009117126,
                        0.3130711317062378,
                        0.18862253427505493
                    ],
                    [
                        -0.14064958691596985,
                        -0.06773050129413605,
                        -0.03938406705856323,
                        0.04523015767335892,
                        -0.05760961025953293,
                        -0.1234959214925766,
                        0.040335170924663544,
                        0.020533252507448196,
                        0.21564562618732452,
                        -0.030873015522956848,
                        -0.15034376084804535,
                        0.08780013769865036,
                        0.022737303748726845,
                        0.19619449973106384,
                        0.025239767506718636,
                        -0.01563676819205284,
                        -0.014069611206650734,
                        0.016586193814873695,
                        0.08315437287092209,
                        0.2506831884384155,
                        -0.09324627369642258,
                        -0.34069088101387024,
                        -0.1420324295759201,
                        -0.11259055137634277,
                        0.0033192038536071777,
                        0.09291557967662811,
                        -0.17870336771011353,
                        0.0036310525611042976,
                        -0.12603124976158142,
                        -0.10721831023693085,
                        -0.1214890331029892,
                        -0.053852811455726624,
                        0.07413545250892639,
                        -0.04704642668366432,
                        0.04651490971446037,
                        0.04520208388566971,
                        -0.17503958940505981,
                        0.15033015608787537,
                        0.15493102371692657,
                        -0.17751553654670715,
                        -0.16697564721107483,
                        0.04287246614694595,
                        -0.21690064668655396,
                        0.1620907038450241,
                        -0.09582339227199554,
                        -0.04178715497255325,
                        0.19628123939037323,
                        -0.11380886286497116,
                        0.189955934882164,
                        0.20544373989105225,
                        0.11199475079774857,
                        0.04821090027689934,
                        0.042639125138521194,
                        -0.07796744257211685,
                        0.05664398893713951,
                        0.06206543743610382,
                        0.17462898790836334,
                        -0.1851990967988968,
                        -0.239796444773674,
                        0.002085086889564991,
                        -0.007903208956122398,
                        0.01821846328675747,
                        0.05699373409152031,
                        0.010274605825543404
                    ],
                    [
                        -0.07184423506259918,
                        -0.14921902120113373,
                        0.10498957335948944,
                        -0.13912445306777954,
                        0.21691086888313293,
                        0.03347589448094368,
                        0.03877776116132736,
                        -0.03516719117760658,
                        0.02222851850092411,
                        0.17400911450386047,
                        0.029038328677415848,
                        0.010488437488675117,
                        0.1275634616613388,
                        0.04983052238821983,
                        -0.07335851341485977,
                        -0.19345417618751526,
                        0.13721893727779388,
                        -0.26817235350608826,
                        0.016076285392045975,
                        0.13047583401203156,
                        0.05096703767776489,
                        0.07617262750864029,
                        -0.04485008865594864,
                        0.07005015760660172,
                        -0.1139940395951271,
                        0.016620434820652008,
                        -0.14281658828258514,
                        0.05948003754019737,
                        0.04419054836034775,
                        0.0641925185918808,
                        0.11620388180017471,
                        -0.03981712833046913,
                        -0.04084779694676399,
                        0.018316984176635742,
                        0.0011748741380870342,
                        -0.09224545955657959,
                        0.20097969472408295,
                        -0.4099336862564087,
                        0.27625447511672974,
                        -0.0525597482919693,
                        -0.014140244573354721,
                        0.11995775997638702,
                        -0.0004769987426698208,
                        0.248533695936203,
                        -0.22423946857452393,
                        0.036167338490486145,
                        0.03721106797456741,
                        0.07332789897918701,
                        -0.08638421446084976,
                        -0.10409305989742279,
                        0.08403007686138153,
                        0.13621589541435242,
                        0.08159864693880081,
                        0.015680456534028053,
                        0.046785883605480194,
                        -0.04622761160135269,
                        0.03148103877902031,
                        -0.08326664566993713,
                        0.1311613917350769,
                        -0.08630648255348206,
                        0.09044790267944336,
                        -0.009352218359708786,
                        0.2856033742427826,
                        -0.07731932401657104
                    ],
                    [
                        -0.0927024558186531,
                        0.044450223445892334,
                        0.17518344521522522,
                        -0.2541053891181946,
                        -0.045666586607694626,
                        -0.020932037383317947,
                        -0.12843672931194305,
                        0.08660747110843658,
                        -0.0593416653573513,
                        -0.08785264194011688,
                        -0.030748292803764343,
                        0.015317004173994064,
                        -0.17191028594970703,
                        0.11992328613996506,
                        -0.030471274629235268,
                        -0.1918225735425949,
                        0.06561371684074402,
                        0.2081802785396576,
                        -0.0851656123995781,
                        -0.32115045189857483,
                        -0.021183259785175323,
                        -0.023599881678819656,
                        0.11571840941905975,
                        -0.10820667445659637,
                        0.014188187196850777,
                        -0.15401026606559753,
                        -0.07276175916194916,
                        0.07126918435096741,
                        0.04705239459872246,
                        0.1398276537656784,
                        0.22565577924251556,
                        -0.058627646416425705,
                        0.11311660706996918,
                        0.04154474288225174,
                        -0.17488348484039307,
                        0.12054777145385742,
                        -0.06953994929790497,
                        -0.171381413936615,
                        -0.09296967089176178,
                        -0.31624212861061096,
                        0.13158264756202698,
                        -0.001751292496919632,
                        -0.010353537276387215,
                        0.06254387646913528,
                        -0.149265319108963,
                        -0.030978549271821976,
                        -0.14092998206615448,
                        -0.0063088200986385345,
                        0.032932888716459274,
                        0.07245064526796341,
                        0.023821232840418816,
                        -0.04768388718366623,
                        -0.09161216020584106,
                        -0.1316523551940918,
                        -0.07176457345485687,
                        0.19422341883182526,
                        0.17136216163635254,
                        -0.024065880104899406,
                        -0.14578485488891602,
                        -0.16330866515636444,
                        -0.048843614757061005,
                        0.20151399075984955,
                        -0.0816773772239685,
                        -0.08207376301288605
                    ],
                    [
                        0.095426045358181,
                        -0.03087788075208664,
                        -0.04693371802568436,
                        -0.09532143175601959,
                        -0.028052717447280884,
                        -0.2091723531484604,
                        0.14981304109096527,
                        -0.09269372373819351,
                        -0.06334894150495529,
                        -0.2566111385822296,
                        -0.003987545147538185,
                        -0.0034115128219127655,
                        0.17331886291503906,
                        0.08148972690105438,
                        -0.0033217603340744972,
                        0.03829986974596977,
                        -0.07614361494779587,
                        -0.4573568105697632,
                        -0.049022573977708817,
                        -0.14235033094882965,
                        0.1372177004814148,
                        0.03334428369998932,
                        -0.038494937121868134,
                        -0.1421094834804535,
                        0.029792245477437973,
                        -0.03411169350147247,
                        -0.12732981145381927,
                        -0.198807492852211,
                        0.15785597264766693,
                        -0.15599264204502106,
                        0.03778389096260071,
                        -0.005430595949292183,
                        -0.05029743164777756,
                        0.07209371030330658,
                        -0.06772375106811523,
                        0.19602619111537933,
                        -0.11712918430566788,
                        0.1652875393629074,
                        -0.035817064344882965,
                        0.07874905318021774,
                        0.04866620898246765,
                        -0.10266478359699249,
                        -0.013161951676011086,
                        0.23373566567897797,
                        0.16554567217826843,
                        0.08491479605436325,
                        -0.0903826504945755,
                        0.10022679716348648,
                        0.06494192779064178,
                        -0.10561305284500122,
                        -0.21388600766658783,
                        -0.019967224448919296,
                        0.09378170967102051,
                        -0.05346899852156639,
                        -0.13809043169021606,
                        -0.03181508556008339,
                        0.1062617152929306,
                        -0.10104580223560333,
                        -0.0013573155738413334,
                        -0.11506489664316177,
                        0.034406863152980804,
                        0.10184618085622787,
                        0.017725788056850433,
                        -0.21816891431808472
                    ],
                    [
                        0.1355353593826294,
                        -0.012953674420714378,
                        -0.22157974541187286,
                        -0.28067782521247864,
                        -0.027401141822338104,
                        0.04936620593070984,
                        0.14712458848953247,
                        -0.06489690393209457,
                        -0.10735642164945602,
                        0.12003791332244873,
                        0.040972352027893066,
                        -0.054586734622716904,
                        0.052037905901670456,
                        0.10936882346868515,
                        0.044676728546619415,
                        0.08577851206064224,
                        -0.05385187268257141,
                        0.06017189472913742,
                        0.03340822458267212,
                        -0.1403304487466812,
                        -0.007758509833365679,
                        0.1435759961605072,
                        0.0945938304066658,
                        0.07470802217721939,
                        0.1503055989742279,
                        0.07601877301931381,
                        -0.017253544181585312,
                        0.2663818597793579,
                        -0.08728307485580444,
                        0.10931363701820374,
                        -0.005552181042730808,
                        -0.016475677490234375,
                        -0.02943270094692707,
                        -0.351852685213089,
                        -0.1283416450023651,
                        -0.13539031147956848,
                        0.07509538531303406,
                        0.16936013102531433,
                        -0.09569867700338364,
                        -0.051278889179229736,
                        -0.15737953782081604,
                        0.0855436623096466,
                        -0.019625836983323097,
                        0.070417620241642,
                        0.010210942476987839,
                        0.15305474400520325,
                        0.29002925753593445,
                        0.04095692187547684,
                        -0.06782807409763336,
                        0.07531566172838211,
                        -0.20739445090293884,
                        -0.07507413625717163,
                        0.05639871209859848,
                        -0.33268919587135315,
                        0.03163914754986763,
                        0.025286011397838593,
                        -0.03238623961806297,
                        -0.07413941621780396,
                        0.012016000226140022,
                        0.002455401234328747,
                        -0.0921257957816124,
                        0.06422606855630875,
                        0.2041979879140854,
                        0.01138595212250948
                    ],
                    [
                        0.0019307963084429502,
                        0.13074524700641632,
                        -0.007541485596448183,
                        0.14861848950386047,
                        0.07867361605167389,
                        0.0786491110920906,
                        -0.004498297814279795,
                        -0.2060769647359848,
                        0.002177651273086667,
                        0.004458906129002571,
                        -0.2587815225124359,
                        0.04125399515032768,
                        -0.17041023075580597,
                        -0.014942077919840813,
                        -0.0672777071595192,
                        0.024084502831101418,
                        -0.24147318303585052,
                        -0.010995011776685715,
                        -0.04436299577355385,
                        -0.09539087116718292,
                        -0.0989680290222168,
                        0.3246542811393738,
                        -0.09069851785898209,
                        0.05712474137544632,
                        0.12891605496406555,
                        -0.026246491819620132,
                        -0.15562349557876587,
                        -0.05997198075056076,
                        0.06460002064704895,
                        0.05079857259988785,
                        0.05180364474654198,
                        -0.25334829092025757,
                        -0.06032528355717659,
                        -0.04258517920970917,
                        -0.07814836502075195,
                        -0.2938215732574463,
                        -0.0558173693716526,
                        0.06063094735145569,
                        0.07590342313051224,
                        -0.07802535593509674,
                        -0.19419941306114197,
                        -0.12448573112487793,
                        -0.17294570803642273,
                        0.19626282155513763,
                        0.09480149298906326,
                        -0.00874433945864439,
                        -0.09195446223020554,
                        0.0876726508140564,
                        -0.11011448502540588,
                        -0.10089747607707977,
                        0.26766401529312134,
                        0.07417187094688416,
                        -0.09174356609582901,
                        -0.02463206648826599,
                        0.024018794298171997,
                        -0.14740775525569916,
                        0.05620887130498886,
                        -0.028060561046004295,
                        -0.07346739619970322,
                        -0.1635652631521225,
                        -0.020826544612646103,
                        -0.10358819365501404,
                        -0.2017127424478531,
                        0.07612064480781555
                    ],
                    [
                        0.03924131765961647,
                        -0.09306435286998749,
                        0.14188911020755768,
                        0.06411322206258774,
                        0.2177084982395172,
                        -0.07358056306838989,
                        -0.10757796466350555,
                        -0.11775168776512146,
                        -0.1904454380273819,
                        0.16715344786643982,
                        -0.19167397916316986,
                        0.07498273253440857,
                        0.05370361730456352,
                        0.1501988172531128,
                        -0.07690110057592392,
                        -0.0025035766884684563,
                        -0.06642168015241623,
                        0.0749882161617279,
                        0.09589208662509918,
                        0.03388833999633789,
                        -0.00239854515530169,
                        -0.1725735068321228,
                        0.06472320854663849,
                        -0.049972619861364365,
                        0.05544429272413254,
                        -0.11675098538398743,
                        -0.03942882642149925,
                        -0.055910952389240265,
                        0.010244602337479591,
                        0.062019288539886475,
                        0.018558278679847717,
                        0.05250091105699539,
                        -0.08639124035835266,
                        0.15468987822532654,
                        -0.18325455486774445,
                        -0.056088708341121674,
                        0.11484376341104507,
                        0.10338287800550461,
                        0.02310459315776825,
                        0.1982172429561615,
                        0.20482900738716125,
                        -0.032479748129844666,
                        -0.012151975184679031,
                        -0.02337992750108242,
                        0.11505036056041718,
                        0.09913959354162216,
                        -0.22744189202785492,
                        0.07822677493095398,
                        0.032891079783439636,
                        0.2604990303516388,
                        -0.015417992137372494,
                        -0.20510394871234894,
                        0.08615513145923615,
                        -0.07620561867952347,
                        0.2775839567184448,
                        0.09388458728790283,
                        -0.17909666895866394,
                        -0.32931339740753174,
                        0.04396313056349754,
                        -0.07292792946100235,
                        -0.14316466450691223,
                        -0.10348605364561081,
                        0.08020323514938354,
                        0.10901937633752823
                    ],
                    [
                        -0.18474963307380676,
                        -0.0027817338705062866,
                        -0.1025763601064682,
                        0.07096073776483536,
                        -0.17124693095684052,
                        -0.07588638365268707,
                        -0.09478213638067245,
                        0.11433912813663483,
                        0.201929971575737,
                        0.21421478688716888,
                        0.12917475402355194,
                        -0.07010854780673981,
                        0.1703079789876938,
                        0.031081069260835648,
                        0.16600455343723297,
                        -0.17180775105953217,
                        0.10156019032001495,
                        -0.27867114543914795,
                        -0.12695586681365967,
                        -0.1436157375574112,
                        -0.0068662213161587715,
                        0.0787121057510376,
                        0.07498802244663239,
                        -0.08417994529008865,
                        -0.06191707402467728,
                        -0.13489145040512085,
                        0.25132396817207336,
                        0.18412551283836365,
                        0.19774262607097626,
                        0.03152035176753998,
                        -0.03868676349520683,
                        -0.08311581611633301,
                        0.08884371817111969,
                        0.16236506402492523,
                        -0.03755681589245796,
                        0.05499447509646416,
                        0.031849753111600876,
                        0.0009431522339582443,
                        -0.04664559289813042,
                        0.08823385834693909,
                        -0.12659956514835358,
                        -0.17364300787448883,
                        -0.12081770598888397,
                        0.058134470134973526,
                        0.10033410787582397,
                        0.21422980725765228,
                        0.02346905693411827,
                        0.04833885654807091,
                        -0.052454207092523575,
                        0.20893216133117676,
                        0.10852591693401337,
                        0.06732992827892303,
                        -0.10409674793481827,
                        -0.07627581059932709,
                        0.07071573287248611,
                        0.01117795705795288,
                        0.10511478781700134,
                        -0.004585029557347298,
                        -0.007099901791661978,
                        0.0643363893032074,
                        -0.1359175741672516,
                        -0.08488526940345764,
                        -0.047376614063978195,
                        0.29366016387939453
                    ],
                    [
                        -0.07546066492795944,
                        -0.05765094235539436,
                        -0.21515820920467377,
                        0.2511177361011505,
                        -0.08364589512348175,
                        0.15919028222560883,
                        0.1014435887336731,
                        0.27004560828208923,
                        -0.20180675387382507,
                        0.19360677897930145,
                        0.034389957785606384,
                        -0.0782870203256607,
                        -0.13874533772468567,
                        -0.04754020273685455,
                        -0.021929027512669563,
                        -0.2030678540468216,
                        -0.1703534722328186,
                        0.10922703146934509,
                        -0.05826431140303612,
                        -0.14443175494670868,
                        0.05010303482413292,
                        -0.19179871678352356,
                        0.09617827832698822,
                        0.01087754312902689,
                        -0.023106593638658524,
                        0.08423837274312973,
                        0.07329278439283371,
                        -0.1458766907453537,
                        -0.12036947906017303,
                        0.1251642405986786,
                        0.02694617211818695,
                        -0.19488780200481415,
                        0.08384093642234802,
                        0.08185075223445892,
                        -0.1426921933889389,
                        0.022111866623163223,
                        -0.036095693707466125,
                        0.1315920054912567,
                        0.13413092494010925,
                        0.20274481177330017,
                        0.013374214991927147,
                        0.04651011899113655,
                        0.07799102365970612,
                        0.17699526250362396,
                        0.021379118785262108,
                        -0.00649736262857914,
                        0.047138623893260956,
                        0.15976044535636902,
                        0.13816247880458832,
                        -0.1726929396390915,
                        0.15529993176460266,
                        0.06586729735136032,
                        0.1840725839138031,
                        -0.018866827711462975,
                        -0.16048870980739594,
                        0.05303145572543144,
                        0.041151076555252075,
                        -0.08939871937036514,
                        0.10511849820613861,
                        0.07341742515563965,
                        0.06242535263299942,
                        0.199467271566391,
                        0.09496977180242538,
                        -0.03185006231069565
                    ],
                    [
                        -0.08454716950654984,
                        0.0033158320002257824,
                        0.030778300017118454,
                        0.047193363308906555,
                        -0.06755697727203369,
                        -0.17821739614009857,
                        0.10324963927268982,
                        0.05546107515692711,
                        0.1598113775253296,
                        -0.14196737110614777,
                        -0.17736543715000153,
                        -0.02425186149775982,
                        -0.07201875001192093,
                        -0.09785786271095276,
                        0.2954254746437073,
                        -0.12481223046779633,
                        -0.10381826013326645,
                        -0.03526833653450012,
                        0.055045586079359055,
                        0.11677707731723785,
                        -0.00617169588804245,
                        0.1265498548746109,
                        0.12057903409004211,
                        0.02840168960392475,
                        -0.16712795197963715,
                        -0.17194752395153046,
                        0.1750749796628952,
                        0.0905526801943779,
                        -0.027078572660684586,
                        0.06263631582260132,
                        0.18468919396400452,
                        0.019230790436267853,
                        -0.05869939923286438,
                        -0.2556714713573456,
                        0.03726702556014061,
                        0.05116280913352966,
                        0.018484532833099365,
                        0.07010485231876373,
                        -0.041746195405721664,
                        -0.10793353617191315,
                        0.10724776238203049,
                        0.17181701958179474,
                        -0.005196280777454376,
                        -0.03167928382754326,
                        -0.010944646783173084,
                        -0.24332569539546967,
                        0.04649989306926727,
                        0.3650497794151306,
                        0.28077468276023865,
                        -0.020093562081456184,
                        -0.01736314594745636,
                        0.005664190277457237,
                        0.00515796709805727,
                        0.07781967520713806,
                        0.03111870586872101,
                        -0.09604164212942123,
                        -0.0840311050415039,
                        -0.1793626844882965,
                        0.18253853917121887,
                        -0.1229800134897232,
                        -0.1387888640165329,
                        -0.13225501775741577,
                        0.0018847016617655754,
                        -0.010926603339612484
                    ],
                    [
                        -0.12594851851463318,
                        -0.008195885457098484,
                        -0.08923730254173279,
                        -0.021810228005051613,
                        -0.10279405117034912,
                        0.16145579516887665,
                        -0.13682623207569122,
                        0.014779958873987198,
                        0.05385065823793411,
                        -0.14671048521995544,
                        0.0666607990860939,
                        0.3223472237586975,
                        0.09006020426750183,
                        0.05074794590473175,
                        -0.01205568015575409,
                        0.029758011922240257,
                        -0.020661531016230583,
                        -0.015228074975311756,
                        0.13049131631851196,
                        -0.1929631531238556,
                        -0.019666697829961777,
                        -0.1703031212091446,
                        -0.023300940170884132,
                        -0.09667050838470459,
                        -0.06369156390428543,
                        0.016175245866179466,
                        -0.008430609479546547,
                        0.09458446502685547,
                        -0.10073818266391754,
                        0.13782744109630585,
                        0.1027173101902008,
                        -0.04062235355377197,
                        0.10740967839956284,
                        -0.02243483066558838,
                        0.09029341489076614,
                        0.051275841891765594,
                        0.028851892799139023,
                        -0.08743694424629211,
                        -0.08425373584032059,
                        0.08421751856803894,
                        -0.46455836296081543,
                        -0.04499836638569832,
                        0.11383549124002457,
                        0.08427922427654266,
                        0.06562478095293045,
                        0.013238719664514065,
                        -0.15673597157001495,
                        -0.0007973574101924896,
                        0.12486793100833893,
                        -0.09607835114002228,
                        0.04716857150197029,
                        -0.32703208923339844,
                        -0.024046562612056732,
                        0.11604226380586624,
                        0.10127147287130356,
                        -0.13032332062721252,
                        -0.2067420929670334,
                        0.06890712678432465,
                        0.03150993213057518,
                        -0.1759616881608963,
                        0.001543501392006874,
                        -0.13294059038162231,
                        0.1506015807390213,
                        -0.1384134143590927
                    ],
                    [
                        -0.045126866549253464,
                        -0.14597247540950775,
                        0.07022824138402939,
                        0.19113682210445404,
                        -0.011983788572251797,
                        -0.13391180336475372,
                        0.09088656306266785,
                        0.017046211287379265,
                        -0.04691150039434433,
                        0.08694043010473251,
                        -0.023287147283554077,
                        0.14027531445026398,
                        0.12782438099384308,
                        -0.02813897654414177,
                        -0.10048771649599075,
                        -0.005971632897853851,
                        0.10086552798748016,
                        0.12122201919555664,
                        0.17121267318725586,
                        0.03661090508103371,
                        -0.261318564414978,
                        -0.05132205784320831,
                        -0.03385289013385773,
                        0.22001013159751892,
                        0.1306508183479309,
                        0.13606825470924377,
                        0.1933687925338745,
                        -0.09819524735212326,
                        0.15015828609466553,
                        -0.015940053388476372,
                        0.1890268474817276,
                        -0.037500616163015366,
                        0.11732099205255508,
                        0.0517352819442749,
                        0.16545353829860687,
                        0.0796177089214325,
                        -0.059854984283447266,
                        0.03802691400051117,
                        -0.20842376351356506,
                        0.008849415928125381,
                        -0.12978437542915344,
                        -0.07253730297088623,
                        0.009394342079758644,
                        0.06149536371231079,
                        -0.04910104349255562,
                        -0.08082447946071625,
                        0.02373800054192543,
                        0.19148772954940796,
                        -0.21802090108394623,
                        -0.16679376363754272,
                        -0.20812109112739563,
                        0.1993301510810852,
                        -0.07976435869932175,
                        -0.170461505651474,
                        0.14675775170326233,
                        0.3109437823295593,
                        0.0782749205827713,
                        -0.027797847986221313,
                        0.027818066999316216,
                        -0.15645919740200043,
                        0.03798746317625046,
                        -0.08580505847930908,
                        -0.029892990365624428,
                        -0.08955833315849304
                    ]
                ],
                [
                    0.061846669763326645,
                    -0.017303945496678352,
                    0.08494865894317627,
                    0.05525348335504532,
                    0.05169012024998665,
                    -0.028648508712649345,
                    0.02183660864830017,
                    0.006910264492034912,
                    0.04351503774523735,
                    -0.014046578668057919,
                    0.038904741406440735,
                    0.01819833368062973,
                    0.01224193163216114,
                    -0.01454443484544754,
                    0.02678518556058407,
                    0.037199653685092926,
                    1.0,
                    1.0,
                    1.0,
                    1.0,
                    1.0,
                    1.0,
                    1.0,
                    1.0,
                    1.0,
                    1.0,
                    1.0,
                    1.0,
                    1.0,
                    1.0,
                    1.0,
                    1.0,
                    0.061846669763326645,
                    -0.017303945496678352,
                    0.08494865894317627,
                    0.05525348335504532,
                    0.05169012024998665,
                    -0.028648508712649345,
                    0.02183660864830017,
                    0.006910264492034912,
                    0.04351503774523735,
                    -0.014046578668057919,
                    0.038904741406440735,
                    0.01819833368062973,
                    0.01224193163216114,
                    -0.01454443484544754,
                    0.02678518556058407,
                    0.037199653685092926,
                    0.06293583661317825,
                    -0.04753092676401138,
                    -0.0008293858845718205,
                    0.007570172194391489,
                    0.06362402439117432,
                    -0.004405081272125244,
                    0.02364475652575493,
                    -0.05377756431698799,
                    -6.96889003393153e-07,
                    -0.0033239424228668213,
                    0.01801830343902111,
                    0.02390139177441597,
                    0.12015622854232788,
                    0.01742505468428135,
                    -0.04433870688080788,
                    0.03747909143567085
                ]
            ]
        },
        {
            "type": "dense",
            "activation": "sigmoid",
            "shape": [
                null,
                null,
                16
            ],
            "weights": [
                [
                    [
                        -0.2757014036178589,
                        -0.04183272644877434,
                        -0.3347722291946411,
                        -0.5378235578536987,
                        -0.25819817185401917,
                        -0.26187312602996826,
                        0.18943150341510773,
                        -0.012601105496287346,
                        0.07672064006328583,
                        0.33210089802742004,
                        0.39132559299468994,
                        0.053107526153326035,
                        -0.026156295090913773,
                        -0.17991693317890167,
                        -0.03553477302193642,
                        -0.20778539776802063
                    ],
                    [
                        -0.011135831475257874,
                        -0.36679211258888245,
                        -0.0896700844168663,
                        -0.06342735886573792,
                        0.05740456283092499,
                        0.2740021347999573,
                        0.473428338766098,
                        0.4762728214263916,
                        -0.19442789256572723,
                        0.20862993597984314,
                        -0.1686464101076126,
                        -0.046001289039850235,
                        0.24609658122062683,
                        0.3347517251968384,
                        -0.19651567935943604,
                        0.028397424146533012
                    ],
                    [
                        -0.11694516241550446,
                        0.03359692916274071,
                        0.08234088867902756,
                        0.06188821792602539,
                        0.1866157054901123,
                        0.35931605100631714,
                        0.23950356245040894,
                        -0.4235275983810425,
                        -0.368610143661499,
                        0.06787259876728058,
                        0.5389617085456848,
                        -0.13451382517814636,
                        0.0562039278447628,
                        0.055874355137348175,
                        0.2037976235151291,
                        0.2775709629058838
                    ],
                    [
                        0.1994301825761795,
                        -0.6446350812911987,
                        -0.10294884443283081,
                        -0.02645859122276306,
                        0.2089676856994629,
                        -0.13323789834976196,
                        0.03981757164001465,
                        -0.4520282745361328,
                        -0.18438631296157837,
                        -0.04605488479137421,
                        -0.21463727951049805,
                        0.09273579716682434,
                        0.08770380914211273,
                        -0.37222740054130554,
                        -0.12226862460374832,
                        -0.11856091022491455
                    ],
                    [
                        0.05617827549576759,
                        0.06831364333629608,
                        -0.33899372816085815,
                        -0.21419170498847961,
                        0.3392089605331421,
                        0.23833580315113068,
                        -0.07019535452127457,
                        0.2777068316936493,
                        -0.05940926447510719,
                        -0.3110331594944,
                        0.04740244895219803,
                        -0.4954894185066223,
                        -0.3163140118122101,
                        -0.33434173464775085,
                        -0.13256847858428955,
                        0.0051248762756586075
                    ],
                    [
                        -0.09614690393209457,
                        -0.18125218152999878,
                        0.31871509552001953,
                        -0.2118290811777115,
                        -0.019443213939666748,
                        -0.07504324615001678,
                        0.14169839024543762,
                        -0.12462083250284195,
                        0.5750247240066528,
                        -0.19800801575183868,
                        0.01531592383980751,
                        -0.4746566414833069,
                        0.36083194613456726,
                        0.002165752463042736,
                        0.0005049742758274078,
                        0.21032273769378662
                    ],
                    [
                        0.33705079555511475,
                        -0.03636014461517334,
                        0.15128126740455627,
                        0.3324589729309082,
                        0.00453871488571167,
                        -0.027116291224956512,
                        0.44474148750305176,
                        0.07273822277784348,
                        0.3339800238609314,
                        -0.07387644052505493,
                        0.39948418736457825,
                        0.17427793145179749,
                        -0.31856879591941833,
                        -0.12443771958351135,
                        -0.33523425459861755,
                        -0.10725821554660797
                    ],
                    [
                        -0.326567143201828,
                        -0.22495706379413605,
                        0.5574004650115967,
                        -0.2785736918449402,
                        0.045413799583911896,
                        0.405683696269989,
                        -0.24765606224536896,
                        0.02763970009982586,
                        0.01959659531712532,
                        0.016989082098007202,
                        0.030955351889133453,
                        0.17319145798683167,
                        -0.29258960485458374,
                        -0.009504750370979309,
                        -0.16869321465492249,
                        -0.28271520137786865
                    ],
                    [
                        0.4024357497692108,
                        -0.15035665035247803,
                        0.26081764698028564,
                        0.008842259645462036,
                        0.07120245695114136,
                        -0.14058130979537964,
                        -0.3730235695838928,
                        0.26623764634132385,
                        -0.0682862177491188,
                        0.5843368768692017,
                        0.22343522310256958,
                        -0.2311277538537979,
                        0.02885925956070423,
                        -0.16146278381347656,
                        0.045387767255306244,
                        0.18453529477119446
                    ],
                    [
                        -0.030451245605945587,
                        0.397894948720932,
                        0.1235349178314209,
                        0.16415183246135712,
                        0.06587377190589905,
                        0.04431513696908951,
                        0.1326734870672226,
                        -0.23297899961471558,
                        -0.09627532958984375,
                        0.3227078318595886,
                        -0.18773405253887177,
                        -0.3833938539028168,
                        0.2019978016614914,
                        -0.094831682741642,
                        -0.3104109466075897,
                        -0.527793288230896
                    ],
                    [
                        -0.12602856755256653,
                        0.265178382396698,
                        -0.003109574317932129,
                        -0.11046115309000015,
                        0.04576796293258667,
                        0.16528388857841492,
                        0.09418588876724243,
                        -0.09374374896287918,
                        0.11167611181735992,
                        0.2674635052680969,
                        -0.2892022728919983,
                        0.26136431097984314,
                        -0.013211671262979507,
                        -0.3521888852119446,
                        -0.3774951994419098,
                        0.5931625962257385
                    ],
                    [
                        -0.03702961653470993,
                        -0.18401038646697998,
                        -0.4098324477672577,
                        0.14730994403362274,
                        0.03970230370759964,
                        0.1567508429288864,
                        -0.33060571551322937,
                        -0.30082592368125916,
                        0.323028564453125,
                        0.23017311096191406,
                        0.05894695967435837,
                        -0.1284768134355545,
                        -0.19089998304843903,
                        0.4824317693710327,
                        -0.3146438002586365,
                        0.0605846531689167
                    ],
                    [
                        -0.08136897534132004,
                        -0.14322586357593536,
                        -0.009889913722872734,
                        0.22649839520454407,
                        -0.7329205274581909,
                        0.1097543016076088,
                        -0.1671614646911621,
                        0.038652271032333374,
                        -0.274966835975647,
                        -0.2095767855644226,
                        0.11596613377332687,
                        -0.19839029014110565,
                        0.10066448152065277,
                        -0.1817615032196045,
                        -0.33683404326438904,
                        0.11767261475324631
                    ],
                    [
                        0.12234800308942795,
                        -0.09034307301044464,
                        -0.15979976952075958,
                        0.13253331184387207,
                        -0.304852157831192,
                        0.521561861038208,
                        0.10642800480127335,
                        -0.03366405889391899,
                        0.3099948763847351,
                        0.23115064203739166,
                        -0.19096356630325317,
                        -0.036666326224803925,
                        -0.08502662181854248,
                        -0.27799245715141296,
                        0.5169733166694641,
                        -0.1312883049249649
                    ],
                    [
                        -0.23566000163555145,
                        -0.12487651407718658,
                        0.16333547234535217,
                        0.10538699477910995,
                        -0.12488120794296265,
                        -0.33240893483161926,
                        0.2729700207710266,
                        -0.07545806467533112,
                        -0.14638933539390564,
                        0.15154141187667847,
                        -0.28406381607055664,
                        -0.33191001415252686,
                        -0.6257993578910828,
                        0.09371419250965118,
                        0.1405702829360962,
                        0.17137505114078522
                    ],
                    [
                        0.6168505549430847,
                        0.1679501086473465,
                        0.09412512928247452,
                        -0.5314242839813232,
                        -0.2742973268032074,
                        0.11640553176403046,
                        0.09053757786750793,
                        -0.24047259986400604,
                        -0.1282424032688141,
                        -0.08564769476652145,
                        -0.12632739543914795,
                        -0.0331229493021965,
                        -0.1526808738708496,
                        0.2749395966529846,
                        -0.06946074962615967,
                        0.025260411202907562
                    ]
                ],
                [
                    0.05042177438735962,
                    0.026945948600769043,
                    -0.02884812466800213,
                    -0.02891073003411293,
                    0.03559461236000061,
                    -0.013564248569309711,
                    -0.05664156749844551,
                    0.04856332018971443,
                    0.012270190753042698,
                    0.019133087247610092,
                    0.0007623001001775265,
                    -0.04348308593034744,
                    0.0869767963886261,
                    -0.013667592778801918,
                    0.020278600975871086,
                    0.06464027613401413
                ]
            ]
        },
        {
            "type": "dense",
            "activation": "",
            "shape": [
                null,
                null,
                2
            ],
            "weights": [
                [
                    [
                        0.1749018430709839,
                        0.2888569235801697
                    ],
                    [
                        0.05671187490224838,
                        -0.25902748107910156
                    ],
                    [
                        -0.021310966461896896,
                        0.28508591651916504
                    ],
                    [
                        -0.3498007655143738,
                        -0.17242248356342316
                    ],
                    [
                        0.04917902499437332,
                        -0.03563842549920082
                    ],
                    [
                        -0.20536082983016968,
                        0.20428623259067535
                    ],
                    [
                        -0.42940881848335266,
                        -0.04329349473118782
                    ],
                    [
                        0.4898267388343811,
                        -0.06532997637987137
                    ],
                    [
                        0.3521954119205475,
                        -0.5824682712554932
                    ],
                    [
                        0.36192676424980164,
                        0.40567898750305176
                    ],
                    [
                        0.11399155855178833,
                        0.20812779664993286
                    ],
                    [
                        -0.021066196262836456,
                        -0.12675413489341736
                    ],
                    [
                        0.022393932566046715,
                        -0.004991336725652218
                    ],
                    [
                        0.24960637092590332,
                        -0.1474473774433136
                    ],
                    [
                        -0.1864144206047058,
                        -0.03421327471733093
                    ],
                    [
                        -0.09186381101608276,
                        -0.321174681186676
                    ]
                ],
                [
                    0.005152161233127117,
                    -0.007326796185225248
                ]
            ]
        }
    ]
}