{
    "in_shape": [
        null,
        null,
        2
    ],
    "layers": [
        {
            "type": "lstm",
            "activation": "tanh",
            "shape": [
                null,
                null,
                32
            ],
            "weights": [
                [
                    [
                        0.08339013159275055,
                        -0.18020319938659668,
                        -0.15920861065387726,
                        -0.0631239265203476,
                        0.09913603961467743,
                        0.032259970903396606,
                        -0.13048972189426422,
                        -0.12711623311042786,
                        0.013389915227890015,
                        0.08923088014125824,
                        -0.07612773776054382,
                        -0.08611957728862762,
                        0.06186409294605255,
                        -0.16795231401920319,
                        0.13671450316905975,
                        0.04541058838367462,
                        -0.1682664006948471,
                        -0.1382099986076355,
                        -0.08836713433265686,
                        -0.1988448053598404,
                        0.2124158889055252,
                        -0.013312578201293945,
                        -0.13726159930229187,
                        -0.038900554180145264,
                        0.04858990013599396,
                        -0.1185772642493248,
                        -0.015031382441520691,
                        0.06291206181049347,
                        0.011913180351257324,
                        0.1421257108449936,
                        0.06505145132541656,
                        0.1462584286928177,
                        -0.13926103711128235,
                        0.08951826393604279,
                        0.20437200367450714,
                        0.15843133628368378,
                        0.049136921763420105,
                        0.10686497390270233,
                        0.0938006192445755,
                        0.17343054711818695,
                        0.17694659531116486,
                        0.07270093262195587,
                        -0.06587302684783936,
                        0.007574334740638733,
                        -0.028046920895576477,
                        -0.006775200366973877,
                        0.19185929000377655,
                        0.07778586447238922,
                        -0.19851996004581451,
                        -0.1857665628194809,
                        0.16218774020671844,
                        -0.14697104692459106,
                        -0.10136476159095764,
                        -0.17483040690422058,
                        -0.17432384192943573,
                        0.17290012538433075,
                        0.08797766268253326,
                        -0.15588153898715973,
                        -0.001562744379043579,
                        0.09831441938877106,
                        -0.10016317665576935,
                        -0.12141447514295578,
                        0.04337908327579498,
                        -0.07484082877635956,
                        -0.18838761746883392,
                        0.20000667870044708,
                        0.12243233621120453,
                        0.0075458139181137085,
                        0.1537759155035019,
                        0.1414211541414261,
                        -0.1988774836063385,
                        0.12220500409603119,
                        0.2050868421792984,
                        -0.18853001296520233,
                        -0.06321007013320923,
                        -0.1677696704864502,
                        -0.21449072659015656,
                        0.212135449051857,
                        -0.10029865801334381,
                        -0.0992530882358551,
                        -0.14130191504955292,
                        -0.04307226836681366,
                        0.012375026941299438,
                        -0.0874900370836258,
                        0.10822166502475739,
                        0.19237862527370453,
                        -0.1627219319343567,
                        0.1809404045343399,
                        -0.12845800817012787,
                        0.13042102754116058,
                        -0.10456783324480057,
                        0.13251207768917084,
                        0.10707251727581024,
                        0.05690796673297882,
                        0.2112860232591629,
                        -0.017106324434280396,
                        -0.018224462866783142,
                        0.08823765814304352,
                        -0.003078654408454895,
                        -0.18351316452026367,
                        -0.13689588010311127,
                        0.1023121327161789,
                        -0.012233108282089233,
                        0.11782242357730865,
                        0.10185606777667999,
                        0.1806325763463974,
                        0.15826164186000824,
                        -0.013438314199447632,
                        0.20094521343708038,
                        0.1598774939775467,
                        -0.21471373736858368,
                        0.12934382259845734,
                        -0.10981834679841995,
                        0.194365456700325,
                        0.08773086965084076,
                        0.1940063089132309,
                        0.06322462856769562,
                        0.15725593268871307,
                        -0.14731407165527344,
                        -0.12018445879220963,
                        -0.1870218813419342,
                        -0.019042611122131348,
                        0.1626662164926529,
                        0.031441718339920044,
                        -0.14757663011550903,
                        0.17924530804157257,
                        0.023516520857810974,
                        -0.10163110494613647
                    ],
                    [
                        -0.14757582545280457,
                        0.14383037388324738,
                        -0.10939429700374603,
                        -0.04853810369968414,
                        -0.18049509823322296,
                        0.2118612676858902,
                        0.10890550911426544,
                        -0.19504940509796143,
                        -0.1012285128235817,
                        0.13249491155147552,
                        0.02955906093120575,
                        -0.19073167443275452,
                        0.09283663332462311,
                        -0.14510227739810944,
                        -0.10995946079492569,
                        -0.07238844037055969,
                        -0.01656298339366913,
                        0.07632018625736237,
                        -0.06867013871669769,
                        -0.012553021311759949,
                        -0.07030421495437622,
                        0.13531266152858734,
                        0.2119557112455368,
                        0.09953771531581879,
                        -0.16083486378192902,
                        -0.11796804517507553,
                        -0.169773668050766,
                        0.11092562973499298,
                        -0.007659107446670532,
                        -0.13360199332237244,
                        -0.07586175203323364,
                        -0.15660563111305237,
                        0.015801534056663513,
                        0.09382300078868866,
                        -0.12553438544273376,
                        -0.03904280066490173,
                        -0.19077137112617493,
                        0.19234107434749603,
                        -0.15021219849586487,
                        -0.10921578854322433,
                        0.12462101876735687,
                        0.16701529920101166,
                        -0.09996751695871353,
                        -0.12507539987564087,
                        0.10539866983890533,
                        -0.1991443932056427,
                        -0.21237491071224213,
                        -0.11730771511793137,
                        -0.16861526668071747,
                        0.005270853638648987,
                        -0.059566810727119446,
                        -0.13079561293125153,
                        -0.18306483328342438,
                        0.12704800069332123,
                        -0.03749188780784607,
                        -0.0021143853664398193,
                        -0.20918366312980652,
                        0.058030083775520325,
                        -0.15573006868362427,
                        0.018127664923667908,
                        -0.1475067138671875,
                        0.04309706389904022,
                        -0.08514685928821564,
                        -0.0426090806722641,
                        -0.0050085484981536865,
                        0.02599938213825226,
                        -0.13249598443508148,
                        -0.13547548651695251,
                        0.1813674420118332,
                        -0.052240997552871704,
                        0.038069650530815125,
                        0.011080697178840637,
                        0.022550761699676514,
                        -0.12663236260414124,
                        -0.19064490497112274,
                        0.008427664637565613,
                        0.17663408815860748,
                        0.09762643277645111,
                        -0.0878133475780487,
                        0.16032607853412628,
                        0.14837153255939484,
                        0.11219729483127594,
                        -0.12623682618141174,
                        -0.09673457592725754,
                        0.06776420772075653,
                        0.14186681807041168,
                        -0.12248411029577255,
                        -0.026663362979888916,
                        -0.10074186325073242,
                        -0.18655407428741455,
                        -0.052392348647117615,
                        -0.17188256978988647,
                        -0.16039815545082092,
                        0.11532856523990631,
                        0.15403462946414948,
                        0.19748909771442413,
                        0.1413472443819046,
                        -0.041365087032318115,
                        -0.10453075170516968,
                        0.0754854828119278,
                        -0.010460823774337769,
                        0.1630813330411911,
                        0.11345304548740387,
                        -0.0946572795510292,
                        0.18443424999713898,
                        0.09553427994251251,
                        -0.030937299132347107,
                        -0.11890261620283127,
                        0.05840565264225006,
                        0.06899847090244293,
                        -0.04747210443019867,
                        0.16538800299167633,
                        -0.12854887545108795,
                        -0.18360945582389832,
                        0.0037514865398406982,
                        -0.11950420588254929,
                        0.1746450513601303,
                        0.04568703472614288,
                        -0.12566566467285156,
                        -0.01341363787651062,
                        0.1779738813638687,
                        -0.008787646889686584,
                        -0.008833184838294983,
                        0.12875835597515106,
                        -0.06358680129051208,
                        -0.024519622325897217,
                        -0.04414856433868408,
                        -0.13793376088142395
                    ]
                ],
                [
                    [
                        0.07968771457672119,
                        0.004725198727101088,
                        0.06433643400669098,
                        0.05238102376461029,
                        0.08253394812345505,
                        -0.14963741600513458,
                        0.035993900150060654,
                        -0.060523517429828644,
                        0.019826896488666534,
                        0.016017714515328407,
                        0.11582277715206146,
                        0.02771252579987049,
                        0.005518824327737093,
                        -0.00842089019715786,
                        0.04159613698720932,
                        0.07322578132152557,
                        -0.16060692071914673,
                        -0.07183698564767838,
                        -0.030487168580293655,
                        -0.010971185751259327,
                        -0.07216363400220871,
                        0.10188638418912888,
                        -0.02066292054951191,
                        0.05344344303011894,
                        0.05373194441199303,
                        -0.12386403232812881,
                        0.03847390040755272,
                        -0.09717418998479843,
                        -0.016678400337696075,
                        0.030293330550193787,
                        0.059042878448963165,
                        0.06227336451411247,
                        -0.11520504206418991,
                        0.11943943798542023,
                        -0.07884532958269119,
                        0.039553530514240265,
                        -0.02254730835556984,
                        -0.02732778526842594,
                        -0.06715410947799683,
                        0.08627806603908539,
                        0.008650201372802258,
                        -0.11684521287679672,
                        -0.046055469661951065,
                        -0.0008553486550226808,
                        0.08006776124238968,
                        -0.016478251665830612,
                        0.18017695844173431,
                        0.23713341355323792,
                        -0.02801153063774109,
                        0.04682993143796921,
                        0.031185172498226166,
                        -0.008898623287677765,
                        -0.007844682782888412,
                        0.05667317658662796,
                        -0.10877629369497299,
                        -0.13475286960601807,
                        0.19478999078273773,
                        0.06000622361898422,
                        0.10210978239774704,
                        -0.20921267569065094,
                        -0.076935313642025,
                        -0.03604815527796745,
                        -0.09762974828481674,
                        -0.06642904877662659,
                        0.029340732842683792,
                        -0.14690536260604858,
                        -0.06731244176626205,
                        -0.0995505303144455,
                        -0.061786480247974396,
                        -0.08588734269142151,
                        -0.10002490133047104,
                        0.22572632133960724,
                        -0.030268359929323196,
                        0.10034643858671188,
                        -0.12146203964948654,
                        0.014003547839820385,
                        0.06876255571842194,
                        -0.08423255383968353,
                        -0.0016047246754169464,
                        -0.12243671715259552,
                        -0.031390558928251266,
                        0.027248430997133255,
                        -0.026638366281986237,
                        -0.13253358006477356,
                        -0.004512399435043335,
                        0.059115827083587646,
                        -0.06017342954874039,
                        -0.1555721014738083,
                        0.054129887372255325,
                        0.05961092934012413,
                        -0.058678656816482544,
                        0.10811620205640793,
                        0.22412700951099396,
                        0.12006624042987823,
                        -0.13754546642303467,
                        0.055467091500759125,
                        -0.06233430281281471,
                        0.026737341657280922,
                        0.08478820323944092,
                        0.040803905576467514,
                        -0.006252736318856478,
                        0.024116525426506996,
                        -0.09877774119377136,
                        -0.09508874267339706,
                        -0.022884666919708252,
                        -0.021677253767848015,
                        0.13254863023757935,
                        -0.08193335682153702,
                        -0.09294028580188751,
                        0.11754265427589417,
                        -0.05532178655266762,
                        0.04560237005352974,
                        0.10496654361486435,
                        0.14201635122299194,
                        0.0052080717869102955,
                        -0.031489863991737366,
                        -0.009920055978000164,
                        -0.09376765042543411,
                        -0.031705498695373535,
                        -0.16518785059452057,
                        -0.07388057559728622,
                        -0.0037847417406737804,
                        -0.09527276456356049,
                        -0.028122976422309875,
                        0.1548885852098465,
                        -0.04748919978737831,
                        -0.09604277461767197,
                        -0.026174578815698624
                    ],
                    [
                        -0.14940565824508667,
                        -0.04223049059510231,
                        0.049447547644376755,
                        0.009455520659685135,
                        0.05564853921532631,
                        -0.1116945669054985,
                        0.09761777520179749,
                        -0.06164739280939102,
                        0.20451579988002777,
                        0.01830662600696087,
                        0.07053613662719727,
                        0.07983808219432831,
                        -0.029539834707975388,
                        -0.07883352041244507,
                        0.022662151604890823,
                        -0.06331402063369751,
                        -0.145301952958107,
                        0.165967658162117,
                        -0.10892965644598007,
                        -0.12043838948011398,
                        0.013339856639504433,
                        -0.03623395785689354,
                        0.04237065091729164,
                        -0.019358431920409203,
                        0.06050988286733627,
                        0.01205485314130783,
                        0.0907604843378067,
                        0.10584191232919693,
                        -0.01215432956814766,
                        0.015803469344973564,
                        -0.0378534197807312,
                        -0.1580161303281784,
                        -0.10262875258922577,
                        0.0876224935054779,
                        -0.0974811241030693,
                        -0.04119393602013588,
                        0.08379264920949936,
                        0.14818771183490753,
                        -0.1234314888715744,
                        -0.014858027920126915,
                        -0.14913298189640045,
                        -0.12756313383579254,
                        0.07494945824146271,
                        -0.05116841569542885,
                        0.039244022220373154,
                        -0.13227324187755585,
                        0.05220593884587288,
                        0.008157160133123398,
                        -0.024316249415278435,
                        -0.06775876134634018,
                        0.0700073316693306,
                        0.11242673546075821,
                        0.014875667169690132,
                        -0.02163878083229065,
                        0.036542002111673355,
                        -0.15048925578594208,
                        0.00734519399702549,
                        0.22317597270011902,
                        0.05353260040283203,
                        0.08651706576347351,
                        -0.06989621371030807,
                        0.053016841411590576,
                        -0.12131631374359131,
                        -0.004669133573770523,
                        -0.14451374113559723,
                        0.0046667419373989105,
                        -0.07951173186302185,
                        0.029120048508048058,
                        0.17201684415340424,
                        0.017152583226561546,
                        0.031322043389081955,
                        -0.12430397421121597,
                        -0.028115592896938324,
                        -0.06834752857685089,
                        -0.10129790008068085,
                        -0.10248210281133652,
                        -0.1550171673297882,
                        0.03295275568962097,
                        -0.08951352536678314,
                        -0.11879901587963104,
                        -0.02167622558772564,
                        0.030605966225266457,
                        0.005151581484824419,
                        0.20855712890625,
                        -0.026009276509284973,
                        0.07545575499534607,
                        -0.12443975359201431,
                        -0.016854828223586082,
                        0.09412375092506409,
                        -0.1643911749124527,
                        -0.027203552424907684,
                        0.0387648306787014,
                        -0.05632651224732399,
                        -0.13276278972625732,
                        -0.05346149951219559,
                        0.06387430429458618,
                        -0.04271203279495239,
                        -0.04742765426635742,
                        -0.20034167170524597,
                        0.06723957508802414,
                        -0.037920258939266205,
                        0.0018358530942350626,
                        0.04294634237885475,
                        -0.049939267337322235,
                        -0.08884984254837036,
                        -0.02496207132935524,
                        -0.03765770047903061,
                        -0.0781412124633789,
                        0.03338737413287163,
                        -0.060894258320331573,
                        -0.07131735980510712,
                        -0.019843338057398796,
                        -0.13164502382278442,
                        -0.16066691279411316,
                        -0.04622851684689522,
                        -0.00619239779189229,
                        0.015598561614751816,
                        -0.05302705243229866,
                        0.05724015086889267,
                        -0.005001801997423172,
                        0.037783876061439514,
                        -0.07604464888572693,
                        0.04690214991569519,
                        -0.012240885756909847,
                        0.09820500761270523,
                        0.1852365881204605,
                        -0.0097542405128479,
                        -0.10581938922405243
                    ],
                    [
                        -0.01779508963227272,
                        -0.0016837470466271043,
                        0.034543704241514206,
                        -0.04907620698213577,
                        -0.06416960805654526,
                        -0.05360113084316254,
                        0.014649629592895508,
                        -0.0643390491604805,
                        -0.11592040956020355,
                        -0.14841489493846893,
                        0.031106093898415565,
                        0.09874124079942703,
                        -0.0007220829138532281,
                        0.0057140616700053215,
                        -0.12202632427215576,
                        0.03202332183718681,
                        0.06771152466535568,
                        0.11109494417905807,
                        0.15931716561317444,
                        -0.04960248991847038,
                        -0.09183914959430695,
                        0.0021892364602535963,
                        0.13894759118556976,
                        0.17304639518260956,
                        0.17931939661502838,
                        0.1155976876616478,
                        -0.08341778814792633,
                        0.20498134195804596,
                        0.016907375305891037,
                        0.05241473764181137,
                        -0.02931036613881588,
                        0.035176776349544525,
                        -0.09934981167316437,
                        0.04940221458673477,
                        0.018460910767316818,
                        0.15297329425811768,
                        -0.197271928191185,
                        0.11223328113555908,
                        0.08256027847528458,
                        -0.06486593931913376,
                        -0.042976878583431244,
                        -0.062405895441770554,
                        0.11560862511396408,
                        0.010927966795861721,
                        -0.07929112017154694,
                        -0.048033155500888824,
                        -0.009160727262496948,
                        0.16982726752758026,
                        -0.031880080699920654,
                        -0.05347305163741112,
                        -0.004166950471699238,
                        -0.07605686783790588,
                        -0.0058452230878174305,
                        -0.06697262078523636,
                        -0.03640282154083252,
                        -0.025227990001440048,
                        -0.065188467502594,
                        0.11055098474025726,
                        0.04247448593378067,
                        0.0791860893368721,
                        -0.11219681799411774,
                        0.03733037784695625,
                        0.053526245057582855,
                        -0.20377345383167267,
                        0.038624368607997894,
                        0.050728898495435715,
                        0.01770222932100296,
                        -0.09784170985221863,
                        0.10655312985181808,
                        0.03471440076828003,
                        -0.03611946851015091,
                        0.11513739824295044,
                        -0.05318563058972359,
                        0.01718597486615181,
                        0.10371662676334381,
                        -0.05140473693609238,
                        0.018858516588807106,
                        -0.09704470634460449,
                        0.1966465711593628,
                        0.10876844823360443,
                        0.0553630106151104,
                        0.031519390642642975,
                        -0.040075477212667465,
                        0.06098826974630356,
                        -0.053410641849040985,
                        0.12678618729114532,
                        0.04851799085736275,
                        -0.08081154525279999,
                        -0.02007279172539711,
                        -0.0984528437256813,
                        0.1818830370903015,
                        -0.008324798196554184,
                        -0.08142534643411636,
                        0.04316600039601326,
                        0.10260073840618134,
                        0.059788431972265244,
                        0.07071566581726074,
                        -0.003997473046183586,
                        -0.0017134378431364894,
                        -0.048303473740816116,
                        -0.12699806690216064,
                        0.04630591347813606,
                        -0.19875887036323547,
                        0.033658284693956375,
                        -0.04605161026120186,
                        0.08076482266187668,
                        -0.04880526289343834,
                        0.09840477257966995,
                        -0.15093033015727997,
                        0.14411407709121704,
                        0.010371184907853603,
                        -0.13201843202114105,
                        0.07829046249389648,
                        0.04268104210495949,
                        -0.03750234097242355,
                        -0.200871542096138,
                        -0.019474361091852188,
                        0.04870619624853134,
                        -0.02923252247273922,
                        -0.04553191736340523,
                        0.06447813659906387,
                        -0.0749465748667717,
                        -0.010694538243114948,
                        0.041096996515989304,
                        -0.13883015513420105,
                        0.05742800980806351,
                        0.04987724870443344,
                        0.07156530767679214
                    ],
                    [
                        0.10953868925571442,
                        -0.056014519184827805,
                        0.10433293133974075,
                        0.004429570399224758,
                        -0.007016540504992008,
                        -0.061060722917318344,
                        0.06658214330673218,
                        -0.007731708697974682,
                        0.05734559893608093,
                        0.09922473132610321,
                        0.09023420512676239,
                        0.10991315543651581,
                        0.08043600618839264,
                        -0.13614636659622192,
                        0.22447356581687927,
                        -0.1255595088005066,
                        0.00014296919107437134,
                        -0.0019274689257144928,
                        0.13266882300376892,
                        0.09473927319049835,
                        -0.012771613895893097,
                        0.09627502411603928,
                        -0.09952231496572495,
                        0.027800453826785088,
                        0.06098203361034393,
                        -0.16708308458328247,
                        0.04914841428399086,
                        0.06107509508728981,
                        0.011110269464552402,
                        -0.12021670490503311,
                        0.08149994164705276,
                        -0.012713590636849403,
                        0.14661237597465515,
                        0.02442474663257599,
                        0.01124497875571251,
                        -0.10566512495279312,
                        -0.0008817508351057768,
                        -0.0805778056383133,
                        0.09175551682710648,
                        -0.04659143462777138,
                        -0.033659931272268295,
                        0.04072853922843933,
                        -0.024947065860033035,
                        0.053993403911590576,
                        -0.04105757176876068,
                        0.03560331091284752,
                        -0.046687256544828415,
                        0.13049474358558655,
                        -0.0047455839812755585,
                        0.09838014096021652,
                        -0.016685664653778076,
                        0.0400674045085907,
                        -0.16622820496559143,
                        -0.10838470607995987,
                        0.18927398324012756,
                        0.04839487746357918,
                        -0.07797392457723618,
                        0.1368665099143982,
                        0.15305975079536438,
                        0.09391578286886215,
                        0.01722933165729046,
                        0.16147807240486145,
                        -0.13249166309833527,
                        0.07771475613117218,
                        0.1361609697341919,
                        0.06669735163450241,
                        0.03491714224219322,
                        0.03615228086709976,
                        0.06612097471952438,
                        0.10942544043064117,
                        0.023426996544003487,
                        0.048361919820308685,
                        -0.009266331791877747,
                        0.07593496888875961,
                        -0.06389780342578888,
                        -0.12821532785892487,
                        0.17525240778923035,
                        -4.2593106627464294e-05,
                        -0.02969953417778015,
                        0.09800730645656586,
                        -0.10662991553544998,
                        0.04254187270998955,
                        0.15871433913707733,
                        0.040999263525009155,
                        0.010664175264537334,
                        0.004465173464268446,
                        -0.028882505372166634,
                        0.15235655009746552,
                        0.10701020807027817,
                        -0.06569495052099228,
                        0.016576586291193962,
                        -0.1068761944770813,
                        -0.12978361546993256,
                        0.16484585404396057,
                        -0.0032123439013957977,
                        0.05202688276767731,
                        0.07255610823631287,
                        -0.06963212788105011,
                        0.10983504354953766,
                        -0.055664174258708954,
                        0.030494792386889458,
                        0.03316264972090721,
                        -0.06899919360876083,
                        -0.00232826080173254,
                        0.0629165843129158,
                        0.034313175827264786,
                        -0.10300786048173904,
                        0.07149970531463623,
                        0.050754088908433914,
                        -0.0035178419202566147,
                        0.025822993367910385,
                        0.07754107564687729,
                        -0.08069990575313568,
                        0.037004392594099045,
                        0.07763112336397171,
                        -0.0063013252802193165,
                        -0.02984718605875969,
                        -0.1592535674571991,
                        -0.1012846976518631,
                        -0.055847808718681335,
                        -0.05293096601963043,
                        0.17345909774303436,
                        -0.11100950837135315,
                        -0.06113076210021973,
                        0.08114366978406906,
                        0.14107084274291992,
                        0.04103850573301315,
                        0.1286763995885849
                    ],
                    [
                        -0.019984111189842224,
                        0.04142164811491966,
                        -0.005709508433938026,
                        -0.1463044285774231,
                        0.06883171945810318,
                        0.10443783551454544,
                        0.01619022712111473,
                        -0.051826562732458115,
                        -0.2552323341369629,
                        -0.042181480675935745,
                        0.18299542367458344,
                        -0.01803954876959324,
                        -0.041450001299381256,
                        0.08491966873407364,
                        -0.0761636421084404,
                        0.004836318548768759,
                        -0.04929669201374054,
                        0.016602788120508194,
                        -0.0498734712600708,
                        -0.009638620540499687,
                        -0.055091600865125656,
                        0.07696164399385452,
                        0.018188457936048508,
                        -0.042177714407444,
                        0.03347400203347206,
                        -0.046189166605472565,
                        0.009880982339382172,
                        -0.03078925423324108,
                        -0.04010316729545593,
                        -0.010007918812334538,
                        -0.10229504108428955,
                        -0.03869923949241638,
                        0.10674260556697845,
                        -0.015791824087500572,
                        0.026691928505897522,
                        0.061310794204473495,
                        0.1207507774233818,
                        -0.09663289785385132,
                        0.0500788576900959,
                        0.06024428829550743,
                        -0.1303638070821762,
                        0.03981415554881096,
                        0.1290462166070938,
                        -0.00694361561909318,
                        -0.13571584224700928,
                        -0.03617936000227928,
                        -0.07618650048971176,
                        -0.02328576147556305,
                        0.029322855174541473,
                        0.02456812560558319,
                        -0.05513467639684677,
                        0.1708126664161682,
                        0.03060964308679104,
                        -0.004766978323459625,
                        0.12066786736249924,
                        -0.11437465250492096,
                        0.020523542538285255,
                        0.002001076005399227,
                        0.10314840078353882,
                        0.24891124665737152,
                        -0.024127375334501266,
                        0.021044397726655006,
                        0.10064932703971863,
                        0.0024935302790254354,
                        0.020441604778170586,
                        -0.010012002661824226,
                        -0.11511874198913574,
                        -0.12566442787647247,
                        -0.052103739231824875,
                        0.010997164994478226,
                        0.22699061036109924,
                        0.06961643695831299,
                        -0.04125750809907913,
                        0.04663698747754097,
                        -0.09969738125801086,
                        0.05730747431516647,
                        -0.0022589061409235,
                        -0.013819484040141106,
                        0.09930316358804703,
                        0.030551185831427574,
                        0.09993654489517212,
                        0.00756659172475338,
                        0.12120500952005386,
                        -0.015794096514582634,
                        0.01445426419377327,
                        -0.10792291164398193,
                        0.05709375813603401,
                        -0.013231112621724606,
                        -0.051697853952646255,
                        0.04203098267316818,
                        0.012317359447479248,
                        0.04336486756801605,
                        0.17559780180454254,
                        0.08181612193584442,
                        0.16883108019828796,
                        0.09280000627040863,
                        -0.05161229521036148,
                        -0.036412328481674194,
                        -0.07061126828193665,
                        0.1533442884683609,
                        -0.06601788848638535,
                        0.059281982481479645,
                        0.019650528207421303,
                        -0.09074851125478745,
                        -0.07442435622215271,
                        -0.0639980211853981,
                        -0.09079424291849136,
                        -0.04779532924294472,
                        0.009931791573762894,
                        -0.0728161558508873,
                        -0.09178005158901215,
                        -0.015912240371108055,
                        -0.08981096744537354,
                        0.017066888511180878,
                        0.0947200208902359,
                        0.09503866732120514,
                        -0.04358816146850586,
                        -0.19925665855407715,
                        0.2750731408596039,
                        -0.09757303446531296,
                        -0.054607607424259186,
                        -0.10848648101091385,
                        0.0499030277132988,
                        -0.01214963011443615,
                        0.049590688198804855,
                        -0.1742924004793167,
                        0.010057528503239155,
                        0.17057360708713531
                    ],
                    [
                        0.042834680527448654,
                        0.16692571341991425,
                        0.20320862531661987,
                        0.018392289057374,
                        -0.02196899987757206,
                        -0.009583758190274239,
                        0.18686829507350922,
                        0.03189985081553459,
                        -0.10216421633958817,
                        0.016457639634609222,
                        -0.027262860909104347,
                        0.08020419627428055,
                        0.21623541414737701,
                        0.05334923788905144,
                        -0.11621236801147461,
                        0.10825902223587036,
                        0.04665597155690193,
                        0.05571794882416725,
                        -0.06585033237934113,
                        -0.0009286787826567888,
                        -0.10615462809801102,
                        -0.03659971058368683,
                        0.028426993638277054,
                        0.14165657758712769,
                        0.04882742092013359,
                        0.06814134865999222,
                        0.15721304714679718,
                        0.03630624711513519,
                        -0.04758264496922493,
                        -0.016428403556346893,
                        0.10872484743595123,
                        -0.017862049862742424,
                        0.026228666305541992,
                        0.1095605120062828,
                        -0.09313274174928665,
                        0.09153524041175842,
                        -0.06437069922685623,
                        0.1260107010602951,
                        -0.005208628252148628,
                        0.15492957830429077,
                        0.00253378227353096,
                        0.09604152292013168,
                        -0.0846564844250679,
                        0.00982747133821249,
                        0.06930260360240936,
                        -0.0006514802225865424,
                        0.005917621776461601,
                        0.026621228083968163,
                        -0.07325945794582367,
                        0.0026635206304490566,
                        0.006480213720351458,
                        0.18424279987812042,
                        0.01775284670293331,
                        -0.11356732249259949,
                        -0.07534197717905045,
                        0.19716152548789978,
                        0.0873994529247284,
                        0.051825445145368576,
                        0.055038515478372574,
                        0.09391860663890839,
                        0.03640943020582199,
                        0.08610854297876358,
                        -0.0050622886046767235,
                        -0.06217551603913307,
                        0.09856994450092316,
                        -0.07595209032297134,
                        -0.04533502086997032,
                        -0.03935137018561363,
                        -0.02578715793788433,
                        -0.004776674788445234,
                        0.09625120460987091,
                        -0.18265385925769806,
                        0.14958785474300385,
                        -0.05397834628820419,
                        0.029493406414985657,
                        0.16809964179992676,
                        -0.0178857259452343,
                        0.022737259045243263,
                        0.05490599572658539,
                        0.09728510677814484,
                        -0.057441964745521545,
                        -0.037725839763879776,
                        0.014084585011005402,
                        -0.020078342407941818,
                        0.02838490903377533,
                        -0.05742299184203148,
                        0.1445331573486328,
                        0.06439153105020523,
                        0.05237116292119026,
                        -0.10898930579423904,
                        -0.21976396441459656,
                        0.058542538434267044,
                        -0.10572242736816406,
                        0.05143122747540474,
                        -0.1358708292245865,
                        -0.030299583449959755,
                        0.12413974851369858,
                        0.09458228200674057,
                        0.06493569910526276,
                        -0.04415365681052208,
                        -0.0906883105635643,
                        0.04883812740445137,
                        0.01341821625828743,
                        0.1457497924566269,
                        0.034935113042593,
                        -0.055379174649715424,
                        0.07979092001914978,
                        -0.14670798182487488,
                        0.09079611301422119,
                        0.014969896525144577,
                        -0.02760818973183632,
                        0.1191701889038086,
                        -0.023675110191106796,
                        0.14397813379764557,
                        -0.12957064807415009,
                        0.04397473484277725,
                        0.04828040301799774,
                        0.06718609482049942,
                        0.10739655047655106,
                        0.11013144999742508,
                        0.04197298735380173,
                        -0.06783967465162277,
                        0.019847258925437927,
                        -0.10005225986242294,
                        0.09907646477222443,
                        -0.02663053758442402,
                        -0.005239968188107014,
                        -0.026233799755573273
                    ],
                    [
                        0.11040608584880829,
                        -0.07630732655525208,
                        -0.16169367730617523,
                        -0.04767816513776779,
                        0.023873064666986465,
                        -0.028884585946798325,
                        -0.014577529393136501,
                        -0.06540507078170776,
                        0.1369377225637436,
                        0.02566423825919628,
                        -0.027641108259558678,
                        0.03229789435863495,
                        -0.19740286469459534,
                        -0.0612621009349823,
                        -0.1384621411561966,
                        -0.04552256315946579,
                        0.00981246866285801,
                        -0.0034914505667984486,
                        -0.07364090532064438,
                        -0.016230300068855286,
                        0.030155379325151443,
                        0.011357606388628483,
                        -0.10217685252428055,
                        0.07812405377626419,
                        0.02243303693830967,
                        0.0022258274257183075,
                        -0.0716819018125534,
                        -0.04612210765480995,
                        0.10696886479854584,
                        0.12120664119720459,
                        0.13739533722400665,
                        0.15835390985012054,
                        -0.0024293195456266403,
                        0.09983183443546295,
                        -0.05084707587957382,
                        0.02362171560525894,
                        0.0050744484178721905,
                        0.1980745494365692,
                        0.010071394965052605,
                        0.09604158997535706,
                        0.06677251309156418,
                        0.018794428557157516,
                        0.01954142190515995,
                        -0.11713537573814392,
                        0.07447095215320587,
                        0.004160545766353607,
                        -0.16282835602760315,
                        0.09328728914260864,
                        0.10794928669929504,
                        0.186700701713562,
                        0.18534812331199646,
                        0.06457506120204926,
                        -0.00768594816327095,
                        0.020427271723747253,
                        0.04918032884597778,
                        -0.005408586002886295,
                        -0.06819774955511093,
                        -0.021515071392059326,
                        0.052059415727853775,
                        -0.04753323644399643,
                        0.033349521458148956,
                        0.0011842725798487663,
                        -0.09993439167737961,
                        -0.04281621426343918,
                        0.06760035455226898,
                        -0.17896045744419098,
                        0.03114549070596695,
                        -0.12632295489311218,
                        -0.06982319056987762,
                        0.016267254948616028,
                        0.06539490818977356,
                        -0.09469737857580185,
                        -0.05155055597424507,
                        0.1530412882566452,
                        0.12179315835237503,
                        -0.02514020912349224,
                        -0.10665448009967804,
                        0.052541136741638184,
                        0.05018660053610802,
                        0.0032385410740971565,
                        -0.038275644183158875,
                        0.10079936683177948,
                        0.08017527312040329,
                        0.018604718148708344,
                        0.029741434380412102,
                        -0.03139825537800789,
                        -0.09349130094051361,
                        0.03916894644498825,
                        -0.01823510229587555,
                        -0.10788220167160034,
                        -0.05812087282538414,
                        -0.19390536844730377,
                        0.09211622178554535,
                        -0.15452367067337036,
                        0.005885782651603222,
                        0.008740889839828014,
                        0.04130351170897484,
                        0.01267189159989357,
                        -0.04161391034722328,
                        -0.04805888235569,
                        0.058357056230306625,
                        -0.021213794127106667,
                        0.17029064893722534,
                        -0.004572249948978424,
                        0.12088500708341599,
                        0.028125394135713577,
                        -0.2759771943092346,
                        0.07344728708267212,
                        -0.09748391062021255,
                        0.0240248404443264,
                        0.007479493040591478,
                        -0.04956359043717384,
                        -0.020168796181678772,
                        0.15171927213668823,
                        -0.039060983806848526,
                        -0.03974529355764389,
                        -0.10748229175806046,
                        0.11312878131866455,
                        0.13761672377586365,
                        0.08409963548183441,
                        -0.0740242674946785,
                        -0.0517631433904171,
                        -0.10490788519382477,
                        0.015700044110417366,
                        0.04191819578409195,
                        -0.07517309486865997,
                        -0.11711367219686508,
                        0.13051728904247284
                    ],
                    [
                        0.08907923102378845,
                        -0.18087831139564514,
                        -0.0630936399102211,
                        0.11822201311588287,
                        -0.09063968062400818,
                        0.13264282047748566,
                        0.18488849699497223,
                        -0.009438259527087212,
                        0.1673840880393982,
                        -0.07106342166662216,
                        0.11093852669000626,
                        0.01829412765800953,
                        -0.10744024068117142,
                        -0.0265582837164402,
                        0.13394875824451447,
                        0.1998925507068634,
                        -0.04336795210838318,
                        0.11857442557811737,
                        0.08419132232666016,
                        -0.015889925882220268,
                        -0.047193486243486404,
                        -0.027020558714866638,
                        -0.056339576840400696,
                        0.002028269460424781,
                        0.012196220457553864,
                        0.04314231872558594,
                        0.05348747968673706,
                        0.036522623151540756,
                        0.04466035217046738,
                        -0.034459274262189865,
                        -0.026341915130615234,
                        0.13039006292819977,
                        -0.03196312487125397,
                        -0.02101597934961319,
                        0.04379941150546074,
                        -0.08139213919639587,
                        -0.12024844437837601,
                        -0.05137454718351364,
                        0.09048517048358917,
                        -0.08990637958049774,
                        0.011356756091117859,
                        -0.04487418755888939,
                        -0.005779253784567118,
                        -0.05129533261060715,
                        -0.02767159789800644,
                        0.04108620807528496,
                        0.054940421134233475,
                        -0.035215191543102264,
                        0.041210561990737915,
                        -0.022085465490818024,
                        -0.019714917987585068,
                        0.04902197793126106,
                        -0.007304515689611435,
                        0.043341632932424545,
                        -0.22687746584415436,
                        -0.06022388115525246,
                        -0.01666218973696232,
                        -0.06873339414596558,
                        0.011744117364287376,
                        0.04350035637617111,
                        0.08078977465629578,
                        -0.05875403434038162,
                        -0.1577451229095459,
                        -0.07481396198272705,
                        0.025342095643281937,
                        -0.05910627543926239,
                        -0.0051637510769069195,
                        -0.006157590541988611,
                        -0.1275544911623001,
                        -0.01344902440905571,
                        0.004085985012352467,
                        0.1011347770690918,
                        0.05026206374168396,
                        -0.20958499610424042,
                        0.13733385503292084,
                        0.07583726197481155,
                        0.013217617757618427,
                        0.06316583603620529,
                        0.21241098642349243,
                        0.015327257104218006,
                        -0.019760187715291977,
                        -0.040012724697589874,
                        0.015619073994457722,
                        0.09832829236984253,
                        0.09854865074157715,
                        -0.06764111667871475,
                        0.0036971461959183216,
                        0.0729299932718277,
                        -0.002967491280287504,
                        0.1379660665988922,
                        -0.11661393195390701,
                        0.09375137835741043,
                        0.06597284972667694,
                        -0.029916241765022278,
                        0.07384812086820602,
                        0.23106704652309418,
                        0.012902308255434036,
                        0.012216627597808838,
                        0.04168300703167915,
                        0.16171228885650635,
                        0.043573714792728424,
                        0.06198282539844513,
                        0.052104365080595016,
                        -0.02488107606768608,
                        -0.04169382154941559,
                        0.1198434978723526,
                        -0.11334358900785446,
                        -0.14611738920211792,
                        0.06223146617412567,
                        -0.02224472165107727,
                        0.10097779333591461,
                        0.19276002049446106,
                        0.00039908941835165024,
                        -0.05734514445066452,
                        0.0934169664978981,
                        -0.01576646976172924,
                        0.13083487749099731,
                        -0.014664672315120697,
                        0.008973773568868637,
                        0.06210795417428017,
                        0.15603643655776978,
                        -0.04206598550081253,
                        0.0354430116713047,
                        0.07237420231103897,
                        -0.010884328745305538,
                        0.18028900027275085,
                        -0.01559874415397644,
                        0.13311149179935455
                    ],
                    [
                        -0.0059418571181595325,
                        0.03647999465465546,
                        0.08236399292945862,
                        0.05374423786997795,
                        0.02117716334760189,
                        -0.07152330875396729,
                        -0.09080763161182404,
                        0.11645195633172989,
                        -0.1848803609609604,
                        -0.0019812649115920067,
                        -0.0049304659478366375,
                        0.0689973458647728,
                        0.1088397428393364,
                        0.007927426137030125,
                        0.0048439279198646545,
                        -0.007275838870555162,
                        0.05555126816034317,
                        0.09544862061738968,
                        0.03341005742549896,
                        0.037147022783756256,
                        0.03337307646870613,
                        -0.042314961552619934,
                        -0.0022064533550292253,
                        0.026131410151720047,
                        -0.07568380981683731,
                        -0.009062202647328377,
                        0.05430707335472107,
                        -0.1259351521730423,
                        0.0754210501909256,
                        0.009965949691832066,
                        0.1471375674009323,
                        0.1011420413851738,
                        0.07862231880426407,
                        -0.11432124674320221,
                        -0.029391571879386902,
                        0.0424012653529644,
                        0.005140536930412054,
                        0.02801869623363018,
                        -0.09089619666337967,
                        -0.06517581641674042,
                        0.0823313295841217,
                        -0.04177837446331978,
                        0.08839637041091919,
                        0.007337167393416166,
                        -0.12596450746059418,
                        0.06327155977487564,
                        0.1501443237066269,
                        -0.04105902835726738,
                        0.004044023808091879,
                        -0.18462593853473663,
                        0.11964329332113266,
                        -0.025154700502753258,
                        0.12365768849849701,
                        -0.14021356403827667,
                        0.07720456272363663,
                        -0.14476405084133148,
                        0.023077258840203285,
                        -0.08379729837179184,
                        -0.08613235503435135,
                        -0.10415942221879959,
                        0.010289300233125687,
                        -0.01939382217824459,
                        0.0316566601395607,
                        0.010274773463606834,
                        0.06460440903902054,
                        0.03340641036629677,
                        0.1277109533548355,
                        -0.05428200587630272,
                        0.0738353580236435,
                        -0.010098375380039215,
                        0.0013037347234785557,
                        0.1515134871006012,
                        0.006922147236764431,
                        0.01962824910879135,
                        -0.09880179911851883,
                        -0.029089748859405518,
                        -0.039297133684158325,
                        0.024848127737641335,
                        0.07248499244451523,
                        0.05392387881875038,
                        -0.057173967361450195,
                        0.03492702916264534,
                        0.11036840826272964,
                        0.10313716530799866,
                        -0.08159931749105453,
                        0.051883112639188766,
                        -0.12640126049518585,
                        0.12870600819587708,
                        -0.14397111535072327,
                        -0.02372145652770996,
                        -0.15794984996318817,
                        0.024656588211655617,
                        -0.10732422024011612,
                        -0.1645531952381134,
                        -0.05841220170259476,
                        -0.029054613783955574,
                        -0.08087421953678131,
                        0.1678905040025711,
                        -0.1724241077899933,
                        0.032571785151958466,
                        0.07786725461483002,
                        -0.058615583926439285,
                        -0.01127549260854721,
                        -0.030078263953328133,
                        0.010606131516397,
                        -0.06141364574432373,
                        -0.014585429802536964,
                        -0.006830796133726835,
                        -0.23392541706562042,
                        0.18751545250415802,
                        -0.04361928626894951,
                        0.21762587130069733,
                        -0.06611365079879761,
                        0.06378009170293808,
                        -0.04673321917653084,
                        0.07743008434772491,
                        -0.054812297224998474,
                        -0.15157796442508698,
                        0.0005695721483789384,
                        0.11542660742998123,
                        -0.04977705329656601,
                        -0.0032024041283875704,
                        0.1209365725517273,
                        0.15452151000499725,
                        0.03916274383664131,
                        0.09645914286375046,
                        0.08247356116771698,
                        0.1696893274784088
                    ],
                    [
                        0.09167376905679703,
                        0.03180655837059021,
                        0.07358460873365402,
                        -0.26461777091026306,
                        -0.07209976017475128,
                        -0.04891326278448105,
                        -0.13148511946201324,
                        -0.14453040063381195,
                        0.050687842071056366,
                        0.08041489869356155,
                        -0.11530083417892456,
                        0.088846355676651,
                        0.07427819073200226,
                        0.0713198110461235,
                        0.10289189964532852,
                        0.11583708971738815,
                        -0.025557298213243484,
                        0.16460669040679932,
                        0.008043395355343819,
                        0.15914009511470795,
                        0.24027933180332184,
                        -0.004530114121735096,
                        0.12983474135398865,
                        -0.07951471209526062,
                        0.014657797291874886,
                        0.009345648810267448,
                        0.017060814425349236,
                        0.09927023947238922,
                        0.11940642446279526,
                        -0.0891084223985672,
                        0.004928616341203451,
                        0.0023965551517903805,
                        -0.10515185445547104,
                        -0.11865152418613434,
                        -0.15755504369735718,
                        -0.21916799247264862,
                        -0.043205950409173965,
                        0.06982472538948059,
                        0.015404598787426949,
                        -0.11329837143421173,
                        -0.05909125134348869,
                        0.018719196319580078,
                        0.036841750144958496,
                        0.10682010650634766,
                        -0.16580583155155182,
                        -0.026295507326722145,
                        0.08786759525537491,
                        0.026229916140437126,
                        0.007451897487044334,
                        0.015252061188220978,
                        0.041191354393959045,
                        -0.18055202066898346,
                        0.03743065893650055,
                        0.11148074269294739,
                        0.044060077518224716,
                        0.0663364976644516,
                        -0.007594915106892586,
                        -0.009061791002750397,
                        0.03216026723384857,
                        0.026259025558829308,
                        -0.0332178995013237,
                        0.05453624948859215,
                        -0.025935910642147064,
                        -0.22621822357177734,
                        0.010647404938936234,
                        0.04742826893925667,
                        -0.06849177926778793,
                        -0.02470472641289234,
                        -0.10774945467710495,
                        -0.030190041288733482,
                        -0.060491666197776794,
                        -0.09375081211328506,
                        -0.010283139534294605,
                        0.029827456921339035,
                        -0.10899552702903748,
                        -0.08067714422941208,
                        0.10405933111906052,
                        0.09770756959915161,
                        -0.018423795700073242,
                        0.07229770720005035,
                        0.10493118315935135,
                        -0.07869779318571091,
                        -0.012607239186763763,
                        -0.049088332802057266,
                        -0.02439168095588684,
                        0.019100401550531387,
                        0.04262596741318703,
                        -0.09823200106620789,
                        0.1964101642370224,
                        0.11029241979122162,
                        -0.20139625668525696,
                        -0.07382660359144211,
                        0.1340571939945221,
                        -0.12122460454702377,
                        -0.04884527251124382,
                        0.05197110027074814,
                        -0.0294068343937397,
                        -0.10109585523605347,
                        -0.06876036524772644,
                        -0.0189508143812418,
                        -0.00373452459461987,
                        -0.04708384349942207,
                        0.031083844602108,
                        0.030817272141575813,
                        0.09657561779022217,
                        -0.015856599435210228,
                        0.009979897178709507,
                        -0.04161810502409935,
                        0.02751999720931053,
                        0.0009861579164862633,
                        0.013685621321201324,
                        -0.025791317224502563,
                        -0.02001507580280304,
                        0.0838598906993866,
                        -0.005653375759720802,
                        -0.06376928836107254,
                        0.02588348649442196,
                        -0.04682629182934761,
                        0.05215192958712578,
                        0.09600010514259338,
                        0.04625186324119568,
                        -0.02090461552143097,
                        0.0730099305510521,
                        -0.07820166647434235,
                        -0.012329231016337872,
                        -0.16672968864440918,
                        0.03732684627175331,
                        0.08088301122188568
                    ],
                    [
                        0.09839446097612381,
                        0.15708932280540466,
                        -0.14768840372562408,
                        -0.004369690548628569,
                        0.06221999228000641,
                        0.0031275954097509384,
                        0.038157906383275986,
                        -0.1547800600528717,
                        0.25503334403038025,
                        -0.09415208548307419,
                        0.10456576943397522,
                        -0.03152875974774361,
                        0.013980262912809849,
                        0.06021732836961746,
                        0.06105264276266098,
                        -0.06139911338686943,
                        0.05919632688164711,
                        0.003326624631881714,
                        0.034982889890670776,
                        -0.06771524995565414,
                        -0.0444142185151577,
                        0.1336900293827057,
                        0.1379694789648056,
                        -0.026912115514278412,
                        -0.017485741525888443,
                        0.048165708780288696,
                        0.034732695668935776,
                        -0.12357651442289352,
                        0.14698947966098785,
                        0.1729515641927719,
                        0.025960814207792282,
                        0.016740303486585617,
                        0.012544787488877773,
                        -0.09863154590129852,
                        0.027217213064432144,
                        -0.05295445770025253,
                        -0.09334053099155426,
                        -0.12632150948047638,
                        0.19250313937664032,
                        0.042555782943964005,
                        0.08721435070037842,
                        0.014535598456859589,
                        -0.03820682689547539,
                        0.0728650838136673,
                        -0.14549897611141205,
                        0.062838114798069,
                        -0.10945513844490051,
                        0.09571375697851181,
                        0.08083755522966385,
                        -0.08645027875900269,
                        0.04870467633008957,
                        0.0224523413926363,
                        0.0718659833073616,
                        -0.015336843207478523,
                        0.0003199763596057892,
                        -0.08324447274208069,
                        0.050892964005470276,
                        0.049678679555654526,
                        0.11907751858234406,
                        -0.10554644465446472,
                        0.012100256979465485,
                        -0.025465216487646103,
                        0.11166337877511978,
                        -0.0069943685084581375,
                        0.0628926232457161,
                        0.1677742600440979,
                        -0.08388562500476837,
                        0.07313884794712067,
                        0.033473845571279526,
                        -0.00670864712446928,
                        0.09167873114347458,
                        -0.06582123041152954,
                        0.07698166370391846,
                        -0.22714731097221375,
                        -0.03623656556010246,
                        -0.048229873180389404,
                        0.003090853802859783,
                        -0.022383248433470726,
                        0.13825534284114838,
                        -0.06585583835840225,
                        -0.08524132519960403,
                        0.11496239900588989,
                        -0.001888153376057744,
                        0.021892614662647247,
                        -0.1260860115289688,
                        -0.016297874972224236,
                        -0.06250414252281189,
                        0.09006096422672272,
                        -0.03181034326553345,
                        -0.12771940231323242,
                        -0.033772729337215424,
                        -0.025616135448217392,
                        0.08076594769954681,
                        -0.09755365550518036,
                        0.07817179709672928,
                        -0.045921146869659424,
                        0.006903157103806734,
                        0.04128651320934296,
                        0.12783850729465485,
                        0.088736891746521,
                        -0.038939040154218674,
                        -0.05018620193004608,
                        -0.020223531872034073,
                        0.16587115824222565,
                        0.06832994520664215,
                        0.036267172545194626,
                        0.13981206715106964,
                        -0.11852594465017319,
                        0.008231877349317074,
                        -0.021469848230481148,
                        -0.027318350970745087,
                        -0.021209362894296646,
                        -0.029087401926517487,
                        -0.09448937326669693,
                        -0.18276146054267883,
                        -0.03853147104382515,
                        -0.20674096047878265,
                        -0.05181587114930153,
                        -0.009078964591026306,
                        -0.036161478608846664,
                        -0.08593006432056427,
                        0.03415649011731148,
                        -0.039465535432100296,
                        -0.07039797306060791,
                        0.034904900938272476,
                        -0.10664910078048706,
                        0.12795214354991913,
                        -0.12392835319042206
                    ],
                    [
                        -0.07284172624349594,
                        -0.1280442625284195,
                        -0.10255273431539536,
                        -0.06068558245897293,
                        -0.13123665750026703,
                        -0.09745101630687714,
                        -0.004634140059351921,
                        0.02735532447695732,
                        -0.007175007835030556,
                        -0.039884086698293686,
                        0.0038717035204172134,
                        0.040796440094709396,
                        -0.013552183285355568,
                        -0.025504084303975105,
                        0.06218205392360687,
                        -0.10903376340866089,
                        -0.0978831872344017,
                        0.005296505056321621,
                        -0.018094535917043686,
                        0.10450571775436401,
                        -0.11186719685792923,
                        0.021667879074811935,
                        -0.024197500199079514,
                        0.06739541888237,
                        -0.03593536838889122,
                        -0.018870439380407333,
                        -0.09437382966279984,
                        -0.04277445003390312,
                        0.03447806462645531,
                        0.012310843914747238,
                        0.09458755701780319,
                        0.05309689790010452,
                        0.08584088832139969,
                        -0.03015361726284027,
                        -0.2027117908000946,
                        -0.01272630412131548,
                        -0.09387002140283585,
                        0.12483987957239151,
                        0.09508933871984482,
                        0.05111284181475639,
                        0.10928942263126373,
                        0.10642348974943161,
                        -0.11716371029615402,
                        0.08944711834192276,
                        -0.18132078647613525,
                        0.07599115371704102,
                        0.1377037763595581,
                        0.059197016060352325,
                        -0.05531257390975952,
                        0.04959184303879738,
                        -0.12507310509681702,
                        0.035218510776758194,
                        0.012563837692141533,
                        0.08485076576471329,
                        -0.19849000871181488,
                        0.0023495377972722054,
                        0.09609001874923706,
                        -0.10098197311162949,
                        0.005758943501859903,
                        0.08721842616796494,
                        0.06924629211425781,
                        -0.18510083854198456,
                        -0.02082735300064087,
                        0.08434638381004333,
                        -0.16491471230983734,
                        0.1517949253320694,
                        0.02728036418557167,
                        -0.09560199081897736,
                        -0.04109688848257065,
                        -0.16927793622016907,
                        0.11738227307796478,
                        0.02578967809677124,
                        -0.0641709417104721,
                        0.1008894070982933,
                        0.051643192768096924,
                        -0.046792104840278625,
                        0.020060252398252487,
                        0.10224181413650513,
                        0.03571797162294388,
                        0.013113445602357388,
                        0.015368854627013206,
                        0.037948619574308395,
                        0.057750288397073746,
                        0.02859623171389103,
                        0.014372395351529121,
                        0.14953897893428802,
                        0.03108653612434864,
                        0.03704666718840599,
                        0.010435379110276699,
                        -0.050779663026332855,
                        0.020327242091298103,
                        0.05933845043182373,
                        -0.1697496473789215,
                        0.15083079040050507,
                        0.047059811651706696,
                        -0.0375712588429451,
                        0.004091404844075441,
                        -0.12901678681373596,
                        -0.21646304428577423,
                        -0.03441070392727852,
                        -0.06725778430700302,
                        0.02758922427892685,
                        0.00495662447065115,
                        -0.07367053627967834,
                        0.10911305248737335,
                        -0.05923336371779442,
                        0.05587303265929222,
                        0.005139161832630634,
                        0.08340078592300415,
                        0.08015788346529007,
                        0.12311901897192001,
                        0.029081573709845543,
                        -0.24271835386753082,
                        -0.07946142554283142,
                        -0.10384737700223923,
                        0.018151812255382538,
                        -0.003848221618682146,
                        0.07104102522134781,
                        0.09991936385631561,
                        -0.15258094668388367,
                        0.05451501905918121,
                        0.009803878143429756,
                        -0.06904543936252594,
                        0.08886449784040451,
                        0.05819154158234596,
                        -0.09716658294200897,
                        -0.06889846920967102,
                        -0.13199928402900696
                    ],
                    [
                        0.02627784200012684,
                        0.09174071252346039,
                        -0.09298356622457504,
                        0.030927395448088646,
                        -0.18390929698944092,
                        0.020443351939320564,
                        -0.03093562088906765,
                        0.061135124415159225,
                        -0.002491899998858571,
                        0.00825774110853672,
                        0.032834623008966446,
                        0.10925547033548355,
                        0.08967292308807373,
                        0.027104878798127174,
                        -0.02743409015238285,
                        -0.21531924605369568,
                        -0.06952632963657379,
                        -0.055898841470479965,
                        -0.05263121426105499,
                        0.05153007432818413,
                        0.18224410712718964,
                        0.012603365816175938,
                        0.07399480789899826,
                        0.2020397186279297,
                        0.06006737798452377,
                        -0.09481311589479446,
                        0.16228297352790833,
                        0.10628538578748703,
                        0.002440202748402953,
                        0.10768751800060272,
                        0.13190287351608276,
                        -0.00737774558365345,
                        0.03997480869293213,
                        0.1352558583021164,
                        0.08253379166126251,
                        -0.05249613896012306,
                        -0.009447178803384304,
                        0.11699088662862778,
                        -0.0712975561618805,
                        -0.08097084611654282,
                        0.018736861646175385,
                        -0.028808973729610443,
                        -0.0638335570693016,
                        -0.08947810530662537,
                        -0.055235687643289566,
                        -0.05490559712052345,
                        -0.04630451276898384,
                        -0.08376740664243698,
                        0.023990074172616005,
                        -0.012076345272362232,
                        -0.02022673189640045,
                        0.053182873874902725,
                        -0.018143180757761,
                        -0.06091722846031189,
                        -0.08917315304279327,
                        0.06956086307764053,
                        0.08130348473787308,
                        -0.06907539814710617,
                        0.08491362631320953,
                        0.0003148824907839298,
                        -0.08382587134838104,
                        -0.11856710910797119,
                        -0.058015450835227966,
                        0.10558191686868668,
                        -0.04875542223453522,
                        0.1380544900894165,
                        -0.0828794538974762,
                        -0.020029190927743912,
                        0.11852024495601654,
                        0.11427752673625946,
                        -0.00559273362159729,
                        -0.03132152557373047,
                        0.09043628722429276,
                        0.01946166343986988,
                        0.02340295910835266,
                        -0.06156400218605995,
                        -0.01179607305675745,
                        -0.06858901679515839,
                        0.10112769156694412,
                        0.026794778183102608,
                        0.2952229380607605,
                        0.010868065059185028,
                        -0.005873030982911587,
                        -0.08805570006370544,
                        -0.022475585341453552,
                        -0.074102982878685,
                        0.08439581841230392,
                        0.08326355367898941,
                        0.017563853412866592,
                        -0.056077148765325546,
                        -0.04071870446205139,
                        0.0372118316590786,
                        0.18126876652240753,
                        -0.08030587434768677,
                        0.09400790184736252,
                        -0.00978521816432476,
                        -0.1571909785270691,
                        0.19255660474300385,
                        -0.028088148683309555,
                        0.03141157701611519,
                        -0.06778289377689362,
                        -0.0389198437333107,
                        -0.0146038131788373,
                        -0.25962355732917786,
                        -0.09912751615047455,
                        0.09185660630464554,
                        -0.013461371883749962,
                        -0.07145894318819046,
                        0.04349001497030258,
                        -0.007274839095771313,
                        0.14015808701515198,
                        0.006152259185910225,
                        0.01767670549452305,
                        0.019909698516130447,
                        0.12250760942697525,
                        0.0371207520365715,
                        -0.00965961255133152,
                        0.07446394115686417,
                        -0.23376692831516266,
                        0.028122399002313614,
                        -0.04986276850104332,
                        0.11440795660018921,
                        0.009001797065138817,
                        -0.0703524574637413,
                        0.002430985914543271,
                        -0.06176874041557312,
                        -0.03182492405176163,
                        0.03544837236404419
                    ],
                    [
                        -0.14619316160678864,
                        -0.022063247859477997,
                        -0.009372750297188759,
                        0.09217360615730286,
                        0.1348007619380951,
                        0.21967577934265137,
                        -0.04000451788306236,
                        -0.012276221998035908,
                        -0.001230581197887659,
                        -0.042691420763731,
                        0.015484368428587914,
                        -0.0526791475713253,
                        0.1540306657552719,
                        0.037497375160455704,
                        -0.058224767446517944,
                        -0.17640991508960724,
                        0.08658883720636368,
                        0.11542783677577972,
                        -0.013096565380692482,
                        0.05537761002779007,
                        0.11638396978378296,
                        0.01563691534101963,
                        0.04857295751571655,
                        0.21422623097896576,
                        -0.03866230696439743,
                        0.09832600504159927,
                        0.01365535706281662,
                        -0.08066435903310776,
                        -0.10669586062431335,
                        0.12489664554595947,
                        -0.08999897539615631,
                        0.1799035668373108,
                        0.02691465988755226,
                        -0.013825565576553345,
                        0.037026599049568176,
                        0.05868276581168175,
                        0.016803089529275894,
                        -0.13992227613925934,
                        -0.015122571960091591,
                        -0.13095112144947052,
                        -0.21461720764636993,
                        -0.05398962274193764,
                        0.021644100546836853,
                        -0.02854081615805626,
                        -0.05956696718931198,
                        0.055604688823223114,
                        0.05935477092862129,
                        0.1096431314945221,
                        -0.02920442633330822,
                        0.007234349846839905,
                        0.0633355975151062,
                        -0.1368393898010254,
                        -0.03428054600954056,
                        0.008836498484015465,
                        -0.06833608448505402,
                        0.08031879365444183,
                        0.008501950651407242,
                        0.12060651183128357,
                        -0.061282671988010406,
                        0.11748690158128738,
                        -0.07215750217437744,
                        -0.06501542776823044,
                        0.02251512184739113,
                        0.02643834426999092,
                        0.0019380622543394566,
                        -0.1492353081703186,
                        0.018826980143785477,
                        -0.2000649869441986,
                        -0.09242711216211319,
                        -0.0671103224158287,
                        0.06307440996170044,
                        0.12731215357780457,
                        0.2277822047472,
                        -0.010644711554050446,
                        0.03188876062631607,
                        -0.12874457240104675,
                        -0.13760404288768768,
                        -0.04707764461636543,
                        -0.0019507885444909334,
                        -0.03627893328666687,
                        -0.1033434271812439,
                        0.12121544778347015,
                        0.019580310210585594,
                        0.04431615769863129,
                        -0.13386879861354828,
                        -0.051405519247055054,
                        -0.03938204050064087,
                        -0.05279918015003204,
                        0.1372348666191101,
                        0.15575723350048065,
                        -0.07002390921115875,
                        -0.08639172464609146,
                        -0.12373840808868408,
                        0.039537422358989716,
                        -0.1283711940050125,
                        -0.019088342785835266,
                        -0.040011852979660034,
                        -0.0591561384499073,
                        -0.037309661507606506,
                        -0.07074707746505737,
                        0.013086644932627678,
                        -0.061183083802461624,
                        0.11096080392599106,
                        -0.027189061045646667,
                        0.04779842495918274,
                        0.15286070108413696,
                        0.006468607112765312,
                        0.04581140726804733,
                        0.10277059674263,
                        -0.13896635174751282,
                        -0.01155630312860012,
                        0.04850524663925171,
                        -0.06197502464056015,
                        -0.027273625135421753,
                        -0.029461195692420006,
                        -0.005895933602005243,
                        0.025807827711105347,
                        -0.03645433112978935,
                        -0.09835001826286316,
                        -0.009005734696984291,
                        0.023229457437992096,
                        -0.022893644869327545,
                        -0.1334725022315979,
                        -0.07689741998910904,
                        0.03834383189678192,
                        -0.08881894499063492,
                        -0.038631778210401535,
                        0.0013200822286307812
                    ],
                    [
                        0.17667394876480103,
                        -0.03167201206088066,
                        0.07278455048799515,
                        0.1083015576004982,
                        -0.05473285913467407,
                        -0.04567189887166023,
                        0.08499319851398468,
                        -0.04719912260770798,
                        -0.022703329101204872,
                        -0.15395550429821014,
                        0.09024149924516678,
                        0.14397872984409332,
                        0.019529955461621284,
                        -0.044979751110076904,
                        -0.13119415938854218,
                        -0.028227971866726875,
                        0.07481734454631805,
                        -0.037241145968437195,
                        -0.02275809645652771,
                        -0.06507287919521332,
                        0.017368895933032036,
                        -0.09423325210809708,
                        0.10116466134786606,
                        0.043317265808582306,
                        0.13703255355358124,
                        0.015121279284358025,
                        -0.045989178121089935,
                        -0.05625397711992264,
                        0.0683785080909729,
                        -0.08488225936889648,
                        0.009515484794974327,
                        0.03131278604269028,
                        -0.05319462716579437,
                        -0.23094773292541504,
                        0.1006675437092781,
                        -0.13134562969207764,
                        -0.046181946992874146,
                        0.16364796459674835,
                        -0.09037435054779053,
                        0.018530212342739105,
                        0.13232339918613434,
                        0.10946933925151825,
                        0.0966520607471466,
                        -0.1121908575296402,
                        -0.055714353919029236,
                        -0.027059068903326988,
                        0.050768010318279266,
                        -0.18020765483379364,
                        -0.07156610488891602,
                        0.1076754480600357,
                        0.09462253004312515,
                        -0.036404140293598175,
                        -0.02478402853012085,
                        0.09523019194602966,
                        -0.0027948329225182533,
                        0.046873223036527634,
                        -0.09690234065055847,
                        0.13297094404697418,
                        -0.05921522527933121,
                        -0.0024031251668930054,
                        -0.06818237155675888,
                        -0.10085849463939667,
                        -0.04265625774860382,
                        -0.0934038907289505,
                        0.03595636412501335,
                        -0.04561612010002136,
                        -0.1284453123807907,
                        -0.002180890180170536,
                        0.06440909951925278,
                        0.010186855681240559,
                        0.1469828337430954,
                        -0.041154053062200546,
                        0.03073141723871231,
                        -0.03299851715564728,
                        -0.15005800127983093,
                        -0.051900722086429596,
                        0.05089910328388214,
                        0.06881170719861984,
                        -0.039153698831796646,
                        -0.1108238697052002,
                        -0.1393001526594162,
                        0.1480100303888321,
                        0.014137709513306618,
                        -0.09203566610813141,
                        -0.026862306520342827,
                        -0.17360177636146545,
                        0.15226976573467255,
                        -0.0064968448132276535,
                        -0.0639539286494255,
                        0.1176023930311203,
                        0.10600867122411728,
                        0.023043356835842133,
                        -0.1294427216053009,
                        -0.06149134039878845,
                        -0.15651753544807434,
                        -0.002001906745135784,
                        0.008489790372550488,
                        -0.024837693199515343,
                        0.11775273829698563,
                        0.035863373428583145,
                        0.037971533834934235,
                        -0.0011982009746134281,
                        -0.1153770387172699,
                        -0.07578010857105255,
                        -0.015106911770999432,
                        -0.14105595648288727,
                        -0.036101169884204865,
                        0.027804501354694366,
                        -0.06215638667345047,
                        0.03532836586236954,
                        0.10579529404640198,
                        0.008831371553242207,
                        0.015072021633386612,
                        -0.17689037322998047,
                        0.10166557878255844,
                        0.09788114577531815,
                        -0.03540734946727753,
                        -0.1145605817437172,
