{
    "in_shape": [
        null,
        null,
        1
    ],
    "layers": [
        {
            "type": "lstm",
            "activation": "tanh",
            "shape": [
                null,
                null,
                16
            ],
            "weights": [
                [
                    [
                        0.2636825442314148,
                        -0.2002774327993393,
                        0.15479713678359985,
                        -0.24197210371494293,
                        0.19470703601837158,
                        -0.02915513515472412,
                        0.1554858684539795,
                        0.15377238392829895,
                        0.014004349708557129,
                        0.0398140549659729,
                        0.10378274321556091,
                        -0.09815876185894012,
                        0.24469178915023804,
                        0.006835281848907471,
                        0.0317857563495636,
                        -0.27931028604507446,
                        -0.13966980576515198,
                        0.09420713782310486,
                        -0.0874539166688919,
                        0.12121698260307312,
                        0.05399233102798462,
                        -0.253976047039032,
                        0.13775089383125305,
                        -0.18495112657546997,
                        0.27690160274505615,
                        0.21064746379852295,
                        0.13893690705299377,
                        0.11439856886863708,
                        0.12014275789260864,
                        -0.2793375253677368,
                        -0.1962023675441742,
                        -0.09565411508083344,
                        -0.04947352409362793,
                        -0.052381545305252075,
                        -0.06361092627048492,
                        -0.06115654110908508,
                        0.2984325885772705,
                        0.22430020570755005,
                        0.02805018424987793,
                        0.12463375926017761,
                        -0.14545902609825134,
                        0.22782796621322632,
                        -0.07425253093242645,
                        0.2597230076789856,
                        0.16085335612297058,
                        -0.21775221824645996,
                        -0.19301638007164001,
                        0.04411277174949646,
                        -0.18672800064086914,
                        -0.07617457211017609,
                        -0.24817095696926117,
                        -0.27435117959976196,
                        0.27965545654296875,
                        0.2995792031288147,
                        -0.24024564027786255,
                        0.28346359729766846,
                        0.07737579941749573,
                        0.19091641902923584,
                        0.21058064699172974,
                        -0.02107524871826172,
                        -0.17262578010559082,
                        -0.13345807790756226,
                        -0.01803407073020935,
                        -0.04572063684463501
                    ]
                ],
                [
                    [
                        0.07113409042358398,
                        -0.112945556640625,
                        0.08977106958627701,
                        -0.04048008844256401,
                        -0.07524260878562927,
                        -0.0005751621210947633,
                        -0.1356699913740158,
                        0.08300350606441498,
                        -0.0608338862657547,
                        -0.05128750577569008,
                        0.26806938648223877,
                        -0.07506828010082245,
                        0.012136252596974373,
                        -0.05818431079387665,
                        -0.10625994950532913,
                        0.11947206407785416,
                        -0.04728798195719719,
                        -0.09883749485015869,
                        0.00647985003888607,
                        -0.007893101312220097,
                        -0.10179311037063599,
                        0.12014282494783401,
                        -0.3543213903903961,
                        -0.2087489366531372,
                        -0.1311822086572647,
                        -0.04127068445086479,
                        0.004960963036864996,
                        0.07178409397602081,
                        0.0777081772685051,
                        0.08353252708911896,
                        -0.0047202687710523605,
                        0.09240491688251495,
                        0.03298830986022949,
                        -0.09171956032514572,
                        -0.08652852475643158,
                        -0.06629550457000732,
                        0.11706863343715668,
                        0.19113853573799133,
                        0.11884914338588715,
                        0.1637939214706421,
                        -0.14272181689739227,
                        0.050084516406059265,
                        -0.10432543605566025,
                        -0.05089946836233139,
                        -0.16195514798164368,
                        -0.1719549596309662,
                        0.028994670137763023,
                        0.23711542785167694,
                        -0.09378057718276978,
                        -0.16554690897464752,
                        0.10107764601707458,
                        0.1068258062005043,
                        0.13894210755825043,
                        0.09469681233167648,
                        0.29216909408569336,
                        -0.04486818239092827,
                        -0.21079063415527344,
                        -0.13836680352687836,
                        -0.13588866591453552,
                        0.029943570494651794,
                        -0.14501962065696716,
                        -0.02161683514714241,
                        -0.10514756292104721,
                        0.16170506179332733
                    ],
                    [
                        -0.028051674365997314,
                        -0.038353003561496735,
                        -0.02792784571647644,
                        -0.3281290531158447,
                        -0.07771345227956772,
                        0.04370877891778946,
                        -0.18956482410430908,
                        0.14650699496269226,
                        0.21718424558639526,
                        0.08773073554039001,
                        -0.12013499438762665,
                        -0.11370724439620972,
                        0.16086770594120026,
                        0.05625346302986145,
                        -0.06709294021129608,
                        0.14022347331047058,
                        0.16376717388629913,
                        0.04039875417947769,
                        0.05968615040183067,
                        -0.12395716458559036,
                        -0.2405788153409958,
                        -0.09513595700263977,
                        -0.05350309610366821,
                        -0.07243942469358444,
                        -0.09756160527467728,
                        -0.18848945200443268,
                        0.11981236934661865,
                        0.0589880608022213,
                        0.13869032263755798,
                        0.15577493607997894,
                        -0.05784100294113159,
                        -0.1555447280406952,
                        0.1066221296787262,
                        0.01318331528455019,
                        0.27060171961784363,
                        -0.06504464149475098,
                        0.13780449330806732,
                        0.014152714982628822,
                        -0.06695323437452316,
                        -0.05307760089635849,
                        0.0545850433409214,
                        -0.14177152514457703,
                        0.03533419594168663,
                        0.09810574352741241,
                        0.08529618382453918,
                        -0.05343623086810112,
                        0.1477322280406952,
                        -0.22894512116909027,
                        0.12869633734226227,
                        -0.04848115146160126,
                        -0.010513652116060257,
                        0.11503202468156815,
                        0.04869590699672699,
                        0.08064223825931549,
                        -0.014116831123828888,
                        -0.0744490996003151,
                        0.10428667813539505,
                        0.04269234091043472,
                        0.1818690299987793,
                        -0.0569070540368557,
                        0.16998480260372162,
                        -0.10320895910263062,
                        -0.23506440222263336,
                        0.08757765591144562
                    ],
                    [
                        0.1727069914340973,
                        -0.26466524600982666,
                        -0.18384091556072235,
                        0.09267878532409668,
                        -0.0814642608165741,
                        0.04540976881980896,
                        0.055313654243946075,
                        0.019966600462794304,
                        -0.03420554846525192,
                        -0.14544421434402466,
                        0.02638183906674385,
                        0.31175750494003296,
                        0.07268601655960083,
                        0.0008588656783103943,
                        -0.26777613162994385,
                        -0.07719778269529343,
                        -0.07926999777555466,
                        0.15811671316623688,
                        -0.03631201386451721,
                        -0.1974930316209793,
                        -0.049969807267189026,
                        0.06969406455755234,
                        -0.09053756296634674,
                        0.13532984256744385,
                        -0.07175631076097488,
                        -0.02704612724483013,
                        -0.08326084911823273,
                        0.13344892859458923,
                        -0.15384447574615479,
                        -0.013612775132060051,
                        -0.014298672787845135,
                        -0.12524732947349548,
                        -0.1030678078532219,
                        0.11274570971727371,
                        0.14591892063617706,
                        -0.06010246276855469,
                        0.163859561085701,
                        -0.07003850489854813,
                        -0.018061744049191475,
                        -0.17141294479370117,
                        -0.19750916957855225,
                        0.049840670078992844,
                        0.08187448978424072,
                        -0.05307384952902794,
                        -0.14644314348697662,
                        0.17197680473327637,
                        -0.106441430747509,
                        -0.07110712677240372,
                        -0.24289557337760925,
                        -0.10779577493667603,
                        -0.08911201357841492,
                        0.2139531373977661,
                        0.07807358354330063,
                        -0.07223901152610779,
                        -0.032133329659700394,
                        -0.23695185780525208,
                        0.09313330054283142,
                        0.08688338100910187,
                        -0.07626672089099884,
                        -0.08981984108686447,
                        0.06274113059043884,
                        0.07294343411922455,
                        0.02159029059112072,
                        -0.07615137100219727
                    ],
                    [
                        -0.003276413306593895,
                        0.05602451041340828,
                        -0.025279542431235313,
                        0.015811558812856674,
                        0.09859807044267654,
                        0.27070701122283936,
                        -0.209635928273201,
                        0.027299128472805023,
                        -0.11907737702131271,
                        0.10389117896556854,
                        -0.11462286859750748,
                        0.0013176603242754936,
                        -0.00413576140999794,
                        0.0129320677369833,
                        -0.19728414714336395,
                        0.23961369693279266,
                        -0.014346428215503693,
                        -0.009808679111301899,
                        0.18198852241039276,
                        -0.13812769949436188,
                        0.061364684253931046,
                        0.05253864452242851,
                        0.054588980972766876,
                        0.027963124215602875,
                        0.04191988706588745,
                        -0.09724956750869751,
                        0.06728168576955795,
                        -0.16926096379756927,
                        -0.12976762652397156,
                        -0.13640888035297394,
                        -0.14511679112911224,
                        0.17956162989139557,
                        -0.20539997518062592,
                        0.06938353925943375,
                        0.08573734760284424,
                        0.10267578065395355,
                        0.07497267425060272,
                        0.07943239063024521,
                        0.007789363153278828,
                        -0.08172151446342468,
                        0.11419742554426193,
                        -0.029638594016432762,
                        -0.06362536549568176,
                        0.0338004007935524,
                        0.12270287424325943,
                        0.24222618341445923,
                        0.09994755685329437,
                        -0.22390173375606537,
                        -0.2855807840824127,
                        -0.10172270238399506,
                        0.1360047459602356,
                        -0.16331221163272858,
                        -0.07541356980800629,
                        -0.0545654222369194,
                        0.02577211707830429,
                        0.09911893308162689,
                        -0.17426680028438568,
                        -0.07224671542644501,
                        -0.10815276205539703,
                        0.17006558179855347,
                        -0.22152262926101685,
                        -0.10710829496383667,
                        -0.05967947095632553,
                        0.06809986382722855
                    ],
                    [
                        -0.23075832426548004,
                        0.18032409250736237,
                        -0.09467286616563797,
                        -0.08387307822704315,
                        0.10117553174495697,
                        -0.17582830786705017,
                        0.14441095292568207,
                        0.041457612067461014,
                        -0.031207259744405746,
                        -0.09688939899206161,
                        0.07715936005115509,
                        -0.011761505156755447,
                        0.02574569173157215,
                        0.2472754716873169,
                        -0.07311752438545227,
                        0.1397402137517929,
                        0.2332797795534134,
                        0.0009227674454450607,
                        0.17442218959331512,
                        -0.1324225217103958,
                        -0.11857586354017258,
                        -0.013935551047325134,
                        0.18879887461662292,
                        0.05702914297580719,
                        -0.08246806263923645,
                        0.16842994093894958,
                        0.15233425796031952,
                        -0.17728035151958466,
                        0.11284873634576797,
                        0.09427660703659058,
                        0.04234660789370537,
                        -0.09204602241516113,
                        0.18216823041439056,
                        -0.009652389213442802,
                        -0.08368250727653503,
                        0.01569596491754055,
                        0.04302651435136795,
                        -0.05998753011226654,
                        0.09563623368740082,
                        0.04281420633196831,
                        -0.05412820726633072,
                        0.0168285109102726,
                        -0.03403326869010925,
                        -0.18025153875350952,
                        0.015050671994686127,
                        -0.02658204734325409,
                        -0.15736129879951477,
                        0.1690424382686615,
                        -0.4044346809387207,
                        -0.14257392287254333,
                        -0.0449296273291111,
                        -0.053531959652900696,
                        0.005496099591255188,
                        0.05645424872636795,
                        -0.06589537113904953,
                        -0.047761980444192886,
                        0.018661435693502426,
                        0.15665239095687866,
                        0.002636609598994255,
                        0.213154599070549,
                        0.09832751005887985,
                        0.13922181725502014,
                        -0.0298102218657732,
                        0.0846966952085495
                    ],
                    [
                        -0.04320191219449043,
                        -0.2360256314277649,
                        -0.0010642828419804573,
                        -0.1930742859840393,
                        0.15486285090446472,
                        -0.18421262502670288,
                        -0.3303418755531311,
                        -0.03664251044392586,
                        -0.16194532811641693,
                        0.001418775413185358,
                        -0.00808358658105135,
                        0.022653812542557716,
                        0.03668055683374405,
                        -0.012414395809173584,
                        -0.06310807913541794,
                        -0.10923005640506744,
                        -0.038331858813762665,
                        -0.21762403845787048,
                        -0.0008361986256204545,
                        0.2607860863208771,
                        0.09572591632604599,
                        -0.07110133767127991,
                        0.11198693513870239,
                        -0.061547402292490005,
                        0.12244229018688202,
                        0.13891185820102692,
                        -0.021098656579852104,
                        -0.0612775981426239,
                        -0.17651723325252533,
                        -0.03997553512454033,
                        -0.34731173515319824,
                        -0.038109079003334045,
                        0.04296839237213135,
                        -0.0027607660740613937,
                        0.07051108777523041,
                        -0.20010045170783997,
                        0.0018528723157942295,
                        -0.2396538406610489,
                        -0.016592543572187424,
                        0.07875865697860718,
                        0.1148013174533844,
                        0.05216146633028984,
                        0.07072164118289948,
                        -0.0014568476472049952,
                        -0.05142975598573685,
                        -0.12084505707025528,
                        0.08843087404966354,
                        0.0911673977971077,
                        -0.0008771552238613367,
                        -0.14718706905841827,
                        -0.1825401932001114,
                        -0.003080523107200861,
                        0.10172832012176514,
                        -0.18340328335762024,
                        -0.10917976498603821,
                        -0.08499881625175476,
                        0.08085573464632034,
                        0.047469619661569595,
                        -0.08675175160169601,
                        0.10252618789672852,
                        -0.0910377949476242,
                        0.03698226809501648,
                        -0.17781971395015717,
                        0.02314271777868271
                    ],
                    [
                        -0.02591734752058983,
                        0.17525452375411987,
                        0.2341204136610031,
                        0.021504422649741173,
                        -0.09821880608797073,
                        0.04168548807501793,
                        -0.04080841317772865,
                        0.02043379843235016,
                        0.023798562586307526,
                        0.11818802356719971,
                        -0.0009886599145829678,
                        0.027477512136101723,
                        -0.11525102704763412,
                        0.05024082586169243,
                        -0.031914785504341125,
                        -0.15340428054332733,
                        -0.07433772832155228,
                        0.2797228991985321,
                        -0.04761070758104324,
                        0.17278988659381866,
                        -0.0023775005247443914,
                        0.01235533319413662,
                        -0.005535738542675972,
                        -0.35785287618637085,
                        -0.036414872854948044,
                        0.023439893499016762,
                        0.013523336499929428,
                        -0.005610686261206865,
                        -0.20498958230018616,
                        0.08189798146486282,
                        -0.05531715229153633,
                        -0.20801323652267456,
                        -0.03139873594045639,
                        -0.18140548467636108,
                        -0.10773447901010513,
                        0.16540242731571198,
                        0.026953916996717453,
                        -0.10106363892555237,
                        -0.16852201521396637,
                        -0.09748522937297821,
                        -0.020016157999634743,
                        0.06908220052719116,
                        0.15783220529556274,
                        0.17556634545326233,
                        -0.04403632879257202,
                        -0.07394503057003021,
                        -0.011139477603137493,
                        -0.15890444815158844,
                        -0.15552984178066254,
                        -0.12974666059017181,
                        9.038019925355911e-06,
                        0.16150884330272675,
                        -0.05868614837527275,
                        0.0020870619919151068,
                        0.08669272065162659,
                        -0.06810060143470764,
                        -0.07616913318634033,
                        -0.06470191478729248,
                        0.17199693620204926,
                        0.3612459599971771,
                        0.08163244277238846,
                        0.07437631487846375,
                        0.145610511302948,
                        0.03693292662501335
                    ],
                    [
                        -0.103157639503479,
                        -0.05698046460747719,
                        -0.09731180220842361,
                        -0.10908856987953186,
                        0.01533861830830574,
                        0.13051991164684296,
                        0.294744610786438,
                        -0.22047370672225952,
                        0.012756703421473503,
                        -0.06862188875675201,
                        -0.07580950856208801,
                        0.0904231071472168,
                        -0.04708283767104149,
                        -0.16212111711502075,
                        -0.1433328241109848,
                        0.04325677827000618,
                        -0.07450730353593826,
                        0.038454364985227585,
                        0.0372583232820034,
                        -0.20875322818756104,
                        -0.2598893344402313,
                        0.0099900858476758,
                        0.09069159626960754,
                        0.12455365806818008,
                        0.08592559397220612,
                        -0.03501218929886818,
                        0.04892214387655258,
                        -0.18531541526317596,
                        -0.14958137273788452,
                        0.03192850947380066,
                        -0.2112644761800766,
                        0.03652002662420273,
                        0.04984700307250023,
                        -0.0732666552066803,
                        -0.10712069272994995,
                        0.1159185990691185,
                        0.01076513435691595,
                        0.0333046093583107,
                        -0.13415449857711792,
                        -0.2311854213476181,
                        0.0879780575633049,
                        0.13034965097904205,
                        -0.03606493026018143,
                        0.13846993446350098,
                        -0.11480273306369781,
                        -0.22690051794052124,
                        0.01780269667506218,
                        0.2024337500333786,
                        0.26148200035095215,
                        -0.1005396693944931,
                        0.08176207542419434,
                        -0.07323061674833298,
                        0.06757713109254837,
                        -0.07518529891967773,
                        0.0911484956741333,
                        0.06368756294250488,
                        0.06488984078168869,
                        -0.25406479835510254,
                        -0.03679291903972626,
                        0.046101342886686325,
                        0.10619528591632843,
                        0.10164891928434372,
                        -0.10706058889627457,
                        0.09577660262584686
                    ],
                    [
                        0.03441697731614113,
                        0.1187494620680809,
                        -0.056366898119449615,
                        0.07625133544206619,
                        -0.019682839512825012,
                        -0.09104423224925995,
                        -0.03158241882920265,
                        0.2378082573413849,
                        -0.16752244532108307,
                        -0.058976516127586365,
                        -0.025784604251384735,
                        -0.14879046380519867,
                        0.0126066654920578,
                        -0.12715347111225128,
                        -0.09142296761274338,
                        0.053333669900894165,
                        -0.04317225515842438,
                        0.02696051076054573,
                        0.08289569616317749,
                        -0.13450492918491364,
                        -0.1337955743074417,
                        0.2826095521450043,
                        0.0034293625503778458,
                        -0.3004928529262543,
                        0.049184415489435196,
                        0.19500160217285156,
                        0.025649623945355415,
                        0.032566241919994354,
                        0.041884277015924454,
                        -0.14347966015338898,
                        -0.037243060767650604,
                        0.02130165323615074,
                        -0.0776795819401741,
                        -0.19720184803009033,
                        0.08774391561746597,
                        0.0899537205696106,
                        0.023902233690023422,
                        0.11135111004114151,
                        0.09967975318431854,
                        -0.11701313406229019,
                        0.01194029301404953,
                        -0.12178230285644531,
                        -0.18053792417049408,
                        0.050478141754865646,
                        0.05708406865596771,
                        0.05785796046257019,
                        0.01006002351641655,
                        0.19110427796840668,
                        0.1478143334388733,
                        -0.011004382744431496,
                        -0.1075393408536911,
                        0.07099230587482452,
                        -0.13712655007839203,
                        -0.06739764660596848,
                        -0.38785627484321594,
                        -0.1791551411151886,
                        0.12314160913228989,
                        -0.11923877894878387,
                        0.14317567646503448,
                        -0.03018959052860737,
                        -0.10805001854896545,
                        0.10077042132616043,
                        -0.01143106259405613,
                        -0.1943894326686859
                    ],
                    [
                        0.07385452836751938,
                        -0.05468748137354851,
                        0.05618874728679657,
                        -0.002204516204074025,
                        0.11750206351280212,
                        0.09439738094806671,
                        0.048303913325071335,
                        0.1174224466085434,
                        0.07068106532096863,
                        0.08493879437446594,
                        -0.07631760090589523,
                        0.035713665187358856,
                        0.15964847803115845,
                        -0.1350914090871811,
                        -0.011641290970146656,
                        0.15949463844299316,
                        -0.017118703573942184,
                        0.10342828184366226,
                        0.1385011076927185,
                        0.13175605237483978,
                        0.01609303057193756,
                        0.17766869068145752,
                        0.012939577922224998,
                        -0.03049265593290329,
                        0.03453643247485161,
                        0.08139310777187347,
                        -0.00017931353067979217,
                        0.14017392694950104,
                        0.24120628833770752,
                        -0.03242676332592964,
                        -0.06643249094486237,
                        -0.23432505130767822,
                        0.18694612383842468,
                        0.08231772482395172,
                        -0.006214422173798084,
                        -0.010284211486577988,
                        -0.13714599609375,
                        -0.3133643567562103,
                        -0.03490747883915901,
                        -0.20123836398124695,
                        -0.009565620683133602,
                        -0.15972593426704407,
                        0.07106244564056396,
                        0.19529099762439728,
                        0.14842477440834045,
                        0.1323424130678177,
                        -0.19673410058021545,
                        0.1505044847726822,
                        0.09205862134695053,
                        0.09348370134830475,
                        0.08315162360668182,
                        -0.031354520469903946,
                        0.1642688810825348,
                        0.03312286362051964,
                        0.054142169654369354,
                        -0.0049181436188519,
                        -0.29147082567214966,
                        0.029148172587156296,
                        -0.28355300426483154,
                        0.01289617270231247,
                        -0.07521147280931473,
                        0.16883844137191772,
                        0.03254874050617218,
                        0.08018192648887634
                    ],
                    [
                        -0.02163183130323887,
                        0.29320061206817627,
                        -0.06667596101760864,
                        -0.05796429514884949,
                        -0.19336417317390442,
                        0.07447846233844757,
                        -0.00127027602866292,
                        -0.012351294048130512,
                        -0.009339675307273865,
                        0.09836643189191818,
                        0.00029425183311104774,
                        -0.013852057978510857,
                        -0.07300747185945511,
                        0.1288037896156311,
                        0.11874943971633911,
                        0.13573749363422394,
                        -0.12667059898376465,
                        -0.11621502786874771,
                        -0.22236789762973785,
                        -0.0297714751213789,
                        -0.07827845215797424,
                        0.03956083208322525,
                        0.051448576152324677,
                        0.08604704588651657,
                        0.06586562097072601,
                        -0.25028401613235474,
                        -0.13810251653194427,
                        0.05587172508239746,
                        -0.018730947747826576,
                        -0.3280244469642639,
                        -0.18054893612861633,
                        -0.30273059010505676,
                        0.04693669453263283,
                        -0.16318248212337494,
                        0.038434647023677826,
                        -0.11000572144985199,
                        0.2515765428543091,
                        0.16350173950195312,
                        -0.05699887126684189,
                        0.14671720564365387,
                        0.06872409582138062,
                        -0.05803632736206055,
                        0.0013521653600037098,
                        -0.029965857043862343,
                        -0.021942008286714554,
                        -0.026048438623547554,
                        -0.15602605044841766,
                        0.08231194317340851,
                        -0.011472389101982117,
                        -0.05046199634671211,
                        -0.0008157703559845686,
                        0.09775736927986145,
                        0.05778716504573822,
                        -0.20269601047039032,
                        -0.04670599848031998,
                        0.1785513311624527,
                        -0.11445378512144089,
                        0.1712968498468399,
                        -0.145629420876503,
                        -0.02538790926337242,
                        0.030381029471755028,
                        0.1179819256067276,
                        0.019487150013446808,
                        -0.10271942615509033
                    ],
                    [
                        0.09225356578826904,
                        -0.26470455527305603,
                        -0.07393888384103775,
                        0.06732697784900665,
                        0.0885743573307991,
                        0.2515885829925537,
                        0.04095253720879555,
                        -0.04848048463463783,
                        -0.13906994462013245,
                        -0.15241290628910065,
                        0.027143200859427452,
                        -0.10865738987922668,
                        -0.136820450425148,
                        0.036137454211711884,
                        0.1983633041381836,
                        0.039197348058223724,
                        0.20684067904949188,
                        0.1492876261472702,
                        -0.07993810623884201,
                        -0.04611828923225403,
                        0.14683464169502258,
                        -0.22396782040596008,
                        -0.14415641129016876,
                        -0.026575902476906776,
                        0.028466373682022095,
                        -0.05574163421988487,
                        -0.17333438992500305,
                        -0.13254456222057343,
                        0.010534657165408134,
                        -0.14515161514282227,
                        0.23725296556949615,
                        -0.17386087775230408,
                        0.177817702293396,
                        -0.11939655989408493,
                        0.03991987556219101,
                        0.05349840223789215,
                        0.05104111507534981,
                        0.0598226934671402,
                        0.08891217410564423,
                        -0.0248555950820446,
                        0.16153186559677124,
                        0.06719310581684113,
                        0.05643630772829056,
                        0.08602110296487808,
                        0.09988557547330856,
                        -0.041976600885391235,
                        0.15406394004821777,
                        0.10774601250886917,
                        -0.09757105261087418,
                        0.16449414193630219,
                        0.11499011516571045,
                        0.08220933377742767,
                        0.11114317923784256,
                        -0.07230591028928757,
                        -0.24267026782035828,
                        -0.14999252557754517,
                        -0.019061041995882988,
                        -0.059944696724414825,
                        -0.012344257906079292,
                        0.19136661291122437,
                        -0.007983658462762833,
                        0.03097727708518505,
                        -0.1792009174823761,
                        0.10722468048334122
                    ],
                    [
                        0.047230374068021774,
                        -0.0420534573495388,
                        -0.04875120148062706,
                        0.02143293246626854,
                        -0.18415232002735138,
                        0.021426189690828323,
                        0.025203699246048927,
                        -0.11709710955619812,
                        0.0612495057284832,
                        -0.03152584284543991,
                        -0.07984437048435211,
                        -0.16510745882987976,
                        0.14387746155261993,
                        0.08006581664085388,
                        0.07585462927818298,
                        0.015297559089958668,
                        -0.2089434266090393,
                        0.009131609462201595,
                        -0.13981519639492035,
                        -0.1398230940103531,
                        0.027834080159664154,
                        -0.09267598390579224,
                        -0.0328449085354805,
                        -0.008772940374910831,
                        -0.1150837317109108,
                        0.04781719297170639,
                        -0.08324822038412094,
                        0.05814903602004051,
                        0.1018599346280098,
                        -0.0961199477314949,
                        -0.08082837611436844,
                        0.2060634344816208,
                        0.0435720756649971,
                        -0.27830225229263306,
                        0.09983916580677032,
                        0.24877819418907166,
                        -0.1097702831029892,
                        -0.33677318692207336,
                        0.12062031030654907,
                        0.06380978971719742,
                        0.13976015150547028,
                        0.05599994957447052,
                        0.10477878898382187,
                        -0.1338132619857788,
                        -0.006047205068171024,
                        0.23872177302837372,
                        -0.10192718356847763,
                        0.05499742552638054,
                        0.03144858404994011,
                        -0.3345392644405365,
                        0.037629637867212296,
                        -0.017341159284114838,
                        0.19305622577667236,
                        0.06605292856693268,
                        -0.038162264972925186,
                        0.054039839655160904,
                        0.06844878941774368,
                        0.03453223407268524,
                        0.1798967719078064,
                        -0.03482462093234062,
                        -0.07768981903791428,
                        -0.05094749107956886,
                        0.05788508057594299,
                        0.23622004687786102
                    ],
                    [
                        -0.1535721719264984,
                        -0.11472493410110474,
                        0.061263348907232285,
                        -0.3065301179885864,
                        -0.193265900015831,
                        0.14921341836452484,
                        -0.028487682342529297,
                        -0.030954524874687195,
                        -0.06803546845912933,
                        -0.007592429406940937,
                        -0.011531047523021698,
                        -0.08581101149320602,
                        -0.08993111550807953,
                        -0.09351861476898193,
                        -0.16184577345848083,
                        -0.010469196364283562,
                        0.21143080294132233,
                        -0.07387057691812515,
                        -0.013115232810378075,
                        -0.2794128358364105,
                        0.09795840084552765,
                        -0.15096871554851532,
                        0.06979630887508392,
                        -0.11489184945821762,
                        0.013900497928261757,
                        -0.05877983197569847,
                        0.06864427775144577,
                        0.0612771138548851,
                        -0.01844252645969391,
                        -0.0722753182053566,
                        0.08222486823797226,
                        0.01618238352239132,
                        -0.005939058028161526,
                        -0.05869600176811218,
                        -0.18710042536258698,
                        0.16910900175571442,
                        0.05350494384765625,
                        -0.29829078912734985,
                        -0.0009185168892145157,
                        0.05852268636226654,
                        -0.04105529189109802,
                        -0.009222295135259628,
                        0.0003610663115978241,
                        0.1234365850687027,
                        0.01924554631114006,
                        -0.06246039271354675,
                        0.1205214262008667,
                        0.1405545473098755,
                        -0.03224187344312668,
                        0.10558760166168213,
                        -0.12009133398532867,
                        0.11918434500694275,
                        -0.23135553300380707,
                        -0.027360988780856133,
                        0.12221907079219818,
                        -0.02527068927884102,
                        -0.002244928851723671,
                        0.2054012566804886,
                        -0.154324010014534,
                        -0.1880771815776825,
                        -0.1781868189573288,
                        -0.02816447801887989,
                        0.2570789158344269,
                        -0.12913823127746582
                    ],
                    [
                        0.00592808099463582,
                        -0.050613075494766235,
                        -0.10900180041790009,
                        -0.11851313710212708,
                        0.04863569512963295,
                        -0.07296572625637054,
                        -0.054936483502388,
                        0.10474315285682678,
                        0.1456378996372223,
                        -0.0006329194875434041,
                        -0.09406489878892899,
                        0.030848218128085136,
                        -0.003358948277309537,
                        -0.00597847206518054,
                        0.03519045189023018,
                        -0.11546140909194946,
                        -0.1408596783876419,
                        -0.26978862285614014,
                        -0.14624111354351044,
                        -0.1028798297047615,
                        0.23310460150241852,
                        -0.12082095444202423,
                        0.054631590843200684,
                        -0.16003356873989105,
                        0.0750553086400032,
                        0.00849808007478714,
                        -0.00011228249786654487,
                        0.07201657444238663,
                        0.03211567923426628,
                        0.08239645510911942,
                        -0.04303769767284393,
                        0.016633184626698494,
                        -0.14270730316638947,
                        0.13294486701488495,
                        0.052251506596803665,
                        0.11303874850273132,
                        0.03867021203041077,
                        0.024933021515607834,
                        0.23069152235984802,
                        -0.32793673872947693,
                        -0.007971545681357384,
                        -0.11557415127754211,
                        -0.1721317321062088,
                        -0.02627488039433956,
                        0.034789107739925385,
                        -0.12532711029052734,
                        -0.14671720564365387,
                        0.13733519613742828,
                        -0.11230964958667755,
                        0.11425615102052689,
                        0.3904500901699066,
                        0.20004180073738098,
                        0.06315027177333832,
                        -0.008961756713688374,
                        0.07466471940279007,
                        0.17457139492034912,
                        0.1240544468164444,
                        0.050184231251478195,
                        0.05667104944586754,
                        0.21995548903942108,
                        0.10203365981578827,
                        0.014225826598703861,
                        0.015185960568487644,
                        -0.07163585722446442
                    ],
                    [
                        -0.07576829195022583,
                        0.08047094941139221,
                        0.03696051239967346,
                        -0.0809849426150322,
                        0.03367986902594566,
                        -0.12565204501152039,
                        0.036075908690690994,
                        -0.26391157507896423,
                        0.17809471487998962,
                        0.13937939703464508,
                        0.055688075721263885,
                        -0.023138027638196945,
                        0.07542412728071213,
                        -0.025086188688874245,
                        -0.015135958790779114,
                        -0.03737242519855499,
                        -0.05882110074162483,
                        -0.004462829325348139,
                        0.17216774821281433,
                        -0.07259101420640945,
                        0.09420410543680191,
                        -0.11481409519910812,
                        -0.09347417950630188,
                        -0.09255850315093994,
                        0.12207251787185669,
                        -0.03926803171634674,
                        -0.09253101050853729,
                        0.02747241035103798,
                        -0.09593097865581512,
                        0.06104326620697975,
                        -0.022810840979218483,
                        0.08146729320287704,
                        0.09081333875656128,
                        -0.00553479790687561,
                        -0.013988742604851723,
                        0.0671154037117958,
                        -0.1851530224084854,
                        0.23228923976421356,
                        -0.16105782985687256,
                        -0.09433833509683609,
                        0.22120550274848938,
                        -0.0005055021028965712,
                        -0.060446593910455704,
                        0.10787869989871979,
                        0.09911653399467468,
                        -0.03906046599149704,
                        -0.1957160085439682,
                        0.0237820316106081,
                        -0.3431645929813385,
                        0.07203399389982224,
                        -0.15808407962322235,
                        0.16616110503673553,
                        0.24040256440639496,
                        -0.009341128170490265,
                        -0.06831669062376022,
                        -0.11912673711776733,
                        -0.1352165788412094,
                        -0.03487393632531166,
                        0.12556223571300507,
                        -0.3406071066856384,
                        -0.17233368754386902,
                        0.024422448128461838,
                        -0.1020856723189354,
                        -0.1042853370308876
                    ]
                ],
                [
                    0.0202611293643713,
                    0.010872764512896538,
                    0.01692337915301323,
                    0.01689521037042141,
                    -0.024278836324810982,
                    0.028087837621569633,
                    0.00353899784386158,
                    0.010030790232121944,
                    -0.021969661116600037,
                    0.02871502749621868,
                    -0.014942665584385395,
                    -0.04935462400317192,
                    -0.0610908642411232,
                    -0.08810023963451385,
                    0.01718014106154442,
                    0.028797436505556107,
                    1.0,
                    1.0,
                    1.0,
                    1.0,
                    1.0,
                    1.0,
                    1.0,
                    1.0,
                    1.0,
                    1.0,
                    1.0,
                    1.0,
                    1.0,
                    1.0,
                    1.0,
                    1.0,
                    0.0202611293643713,
                    0.010872764512896538,
                    0.01692337915301323,
                    0.01689521037042141,
                    -0.024278836324810982,
                    0.028087837621569633,
                    0.00353899784386158,
                    0.010030790232121944,
                    -0.021969661116600037,
                    0.02871502749621868,
                    -0.014942665584385395,
                    -0.04935462400317192,
                    -0.0610908642411232,
                    -0.08810023963451385,
                    0.01718014106154442,
                    0.028797436505556107,
                    0.030811304226517677,
                    0.042522136121988297,
                    0.04362624138593674,
                    0.07024741172790527,
                    0.04637500271201134,
                    0.021192295476794243,
                    -0.011706722900271416,
                    0.005964791402220726,
                    0.027426457032561302,
                    -0.0640527531504631,
                    -0.00633652089163661,
                    -0.0002897387312259525,
                    0.02304762415587902,
                    -0.011213078163564205,
                    0.00799174141138792,
                    0.048713356256484985
                ]
            ]
        },
        {
            "type": "dense",
            "activation": "sigmoid",
            "shape": [
                null,
                null,
                16
            ],
            "weights": [
                [
                    [
                        -0.39541757106781006,
                        -0.09721074253320694,
                        -0.46035856008529663,
                        0.21093817055225372,
                        0.28154444694519043,
                        0.04730730876326561,
                        0.015158657915890217,
                        0.02933070808649063,
                        0.06416434794664383,
                        -0.35195809602737427,
                        0.4072675406932831,
                        -0.32123589515686035,
                        0.06803224235773087,
                        0.23120185732841492,
                        -0.191999152302742,
                        0.05636817216873169
                    ],
                    [
                        0.21212193369865417,
                        -0.31131884455680847,
                        -0.13713933527469635,
                        -0.08664630353450775,
                        -0.23358532786369324,
                        0.3566136658191681,
                        -0.0011856227647513151,
                        -0.4575752317905426,
                        0.013444595970213413,
                        -0.29029494524002075,
                        0.09069829434156418,
                        -0.16107282042503357,
                        -0.42332908511161804,
                        -0.2290051132440567,
                        0.12179774791002274,
                        -0.2748636305332184
                    ],
                    [
                        0.12239900976419449,
                        -0.26390862464904785,
                        0.37083524465560913,
                        0.051933132112026215,
                        0.3708263039588928,
                        0.044171880930662155,
                        0.13103295862674713,
                        -0.19686099886894226,
                        0.31556421518325806,
                        0.19350457191467285,
                        -0.15364868938922882,
                        -0.5212823152542114,
                        0.22399145364761353,
                        -0.18215462565422058,
                        -0.2520979940891266,
                        0.022224389016628265
                    ],
                    [
                        -0.27885597944259644,
                        -0.18926937878131866,
                        0.04264981299638748,
                        -0.28366556763648987,
                        0.07240411639213562,
                        -0.5909271240234375,
                        -0.4932343065738678,
                        -0.02113058976829052,
                        0.30888229608535767,
                        -0.08340684324502945,
                        -0.03626740723848343,
                        0.019531868398189545,
                        -0.2073364406824112,
                        -0.132915660738945,
                        0.028574183583259583,
                        -0.20108270645141602
                    ],
                    [
                        -0.0023566815070807934,
                        0.05763216316699982,
                        0.1547260284423828,
                        -0.022709481418132782,
                        0.012775002978742123,
                        0.02291502058506012,
                        -0.15104998648166656,
                        -0.03554672375321388,
                        -0.07522983103990555,
                        0.11222007125616074,
                        0.6953602433204651,
                        0.05062998831272125,
                        0.2782174050807953,
                        -0.5346658825874329,
                        0.24317656457424164,
                        0.14387327432632446
                    ],
                    [
                        -0.4267352223396301,
                        0.23138415813446045,
                        0.4708784520626068,
                        -0.4762823283672333,
                        -0.1416962444782257,
                        0.2576454281806946,
                        -0.06801322102546692,
                        -0.13813740015029907,
                        -0.17205044627189636,
                        -0.18270231783390045,
                        0.022063039243221283,
                        -0.24197302758693695,
                        -0.0002671144902706146,
                        0.2541235685348511,
                        0.013901960104703903,
                        0.13721883296966553
                    ],
                    [
                        -0.12957777082920074,
                        -0.08002333343029022,
                        0.2552979588508606,
                        0.30564895272254944,
                        0.04914161562919617,
                        0.29453766345977783,
                        -0.2079792469739914,
                        -0.24217796325683594,
                        0.3494408428668976,
                        -0.0941161960363388,
                        0.04410025104880333,
                        0.4755134582519531,
                        0.30360910296440125,
                        0.2778189778327942,
                        0.06115836277604103,
                        -0.3082335293292999
                    ],
                    [
                        -0.1506166011095047,
                        -0.3118891716003418,
                        0.25507837533950806,
                        0.27291059494018555,
                        0.11316423118114471,
                        -0.061421655118465424,
                        -0.05827521160244942,
                        0.007503942120820284,
                        -0.4834405183792114,
                        -0.42925673723220825,
                        -0.22318695485591888,
                        0.2361457347869873,
                        -0.005009075626730919,
                        -0.3050932288169861,
                        -0.24846485257148743,
                        0.20510588586330414
                    ],
                    [
                        -0.0908372551202774,
                        0.27228450775146484,
                        0.31318262219429016,
                        0.38606947660446167,
                        0.12484119832515717,
                        -0.26798519492149353,
                        0.3968866169452667,
                        -0.07031615078449249,
                        0.18625114858150482,
                        -0.2094515860080719,
                        0.0619167685508728,
                        -0.05981770530343056,
                        -0.38305187225341797,
                        0.00595212634652853,
                        0.42843136191368103,
                        0.06575103104114532
                    ],
                    [
                        -0.4123811423778534,
                        0.1914786994457245,
                        -0.26794207096099854,
                        0.019829705357551575,
                        -0.23380202054977417,
                        0.2238866090774536,
                        0.09609249979257584,
                        -0.009201097302138805,
                        0.4050765335559845,
                        -0.048705898225307465,
                        -0.36885976791381836,
                        0.05090121924877167,
                        0.1243520975112915,
                        -0.4792327880859375,
                        0.028559815138578415,
                        0.23650284111499786
                    ],
                    [
                        -0.0019605078268796206,
                        -0.07746679335832596,
                        0.13036368787288666,
                        0.20354263484477997,
                        -0.16102434694766998,
                        0.1843145191669464,
                        -0.21280285716056824,
                        0.6366803050041199,
                        -0.042117852717638016,
                        -0.15255966782569885,
                        -0.12431125342845917,
                        -0.37161901593208313,
                        0.11544022709131241,
                        -0.08043774962425232,
                        0.30426958203315735,
                        -0.3661205768585205
                    ],
                    [
                        0.07247281819581985,
                        -0.03544037416577339,
                        -0.23132188618183136,
                        0.04071318358182907,
                        0.13901381194591522,
                        -0.13488006591796875,
                        -0.22522448003292084,
                        -0.38389843702316284,
                        -0.2344653159379959,
                        -0.051928188651800156,
                        -0.30292460322380066,
                        -0.18282482028007507,
                        0.3632214069366455,
                        0.12790916860103607,
                        0.5800933837890625,
                        0.18720321357250214
                    ],
                    [
                        0.1037752777338028,
                        -0.448915958404541,
                        0.10201940685510635,
                        0.039180658757686615,
                        -0.6070919036865234,
                        -0.23240651190280914,
                        0.14404340088367462,
                        0.05852410942316055,
                        0.23247122764587402,
                        -0.1280774474143982,
                        0.13325035572052002,
                        -0.050091445446014404,
                        0.19194714725017548,
                        0.23309744894504547,
                        0.02482890896499157,
                        0.3827649652957916
                    ],
                    [
                        -0.31750619411468506,
                        -0.11124268174171448,
                        0.031182467937469482,
                        0.4446878433227539,
                        -0.21121177077293396,
                        0.08654255419969559,
                        -0.30562901496887207,
                        -0.13449254631996155,
                        -0.15714851021766663,
                        0.5843620300292969,
                        0.015321746468544006,
                        -0.1512947678565979,
                        -0.3293808698654175,
                        0.07680462300777435,
                        -0.02995530143380165,
                        0.1411040872335434
                    ],
                    [
                        -0.09069010615348816,
                        0.2991209626197815,
                        -0.010708201676607132,
                        0.18589147925376892,
                        -0.38990452885627747,
                        -0.35485658049583435,
                        0.15213783085346222,
                        -0.30020245909690857,
                        -0.20631559193134308,
                        -0.027742166072130203,
                        0.010552430525422096,
                        -0.1798466145992279,
                        0.305835485458374,
                        -0.0973893329501152,
                        -0.2705855369567871,
                        -0.4736950993537903
                    ],
                    [
                        -0.425385445356369,
                        -0.45407867431640625,
                        -0.046267732977867126,
                        -0.20785640180110931,
                        0.08517677336931229,
                        -0.02190747857093811,
                        0.5149353742599487,
                        0.0459158718585968,
                        -0.18110668659210205,
                        0.2783794701099396,
                        -0.002032436430454254,
                        0.14253121614456177,
                        0.08411771059036255,
                        -0.017185434699058533,
                        0.26634737849235535,
                        -0.28911417722702026
                    ]
                ],
                [
                    0.006979385856539011,
                    -0.01774156093597412,
                    0.08963172882795334,
                    -0.032127171754837036,
                    0.016737086698412895,
                    -0.0006174928275868297,
                    0.0168283823877573,
                    -0.02500075101852417,
                    -0.056122906506061554,
                    -0.004053120035678148,
                    -0.04150228202342987,
                    0.006269526667892933,
                    0.08041117340326309,
                    0.03486165031790733,
                    -0.02987162582576275,
                    0.020306264981627464
                ]
            ]
        },
        {
            "type": "dense",
            "activation": "",
            "shape": [
                null,
                null,
                1
            ],
            "weights": [
                [
                    [
                        -0.04491698741912842
                    ],
                    [
                        -0.17801140248775482
                    ],
                    [
                        0.6449641585350037
                    ],
                    [
                        0.28470075130462646
                    ],
                    [
                        -0.11259955912828445
                    ],
                    [
                        -0.10659032315015793
                    ],
                    [
                        0.05908505618572235
                    ],
                    [
                        -0.3814390301704407
                    ],
                    [
                        0.11325662583112717
                    ],
                    [
                        -0.07480178773403168
                    ],
                    [
                        -0.30514705181121826
                    ],
                    [
                        -0.2116745263338089
                    ],
                    [
                        0.010316537693142891
                    ],
                    [
                        -0.16147930920124054
                    ],
                    [
                        -0.25152280926704407
                    ],
                    [
                        0.2246004194021225
                    ]
                ],
                [
                    0.023239998146891594
                ]
            ]
        }
    ]
}